tree
version=v4
num_class=1
num_tree_per_iteration=1
label_index=0
max_feature_idx=8
objective=lambdarank
feature_names=watch_hist_cnt athlete_rating total_likes videos_count workout_recommendations years_experience static_score user_hist_score_mean_scaled user_hist_pos_rate
feature_infos=[0:42] [3:5] [0:1] [0:0.99999999999999978] [10:199] [1:24] [0.077743625443173717:0.93869214078016128] [-3.2685571407088632:1.6784744079181413] [0:1]
tree_sizes=3490 3510 3493 3511 3500 3478 3484 3500 3472 3507 3496 3478 3505 3473 3497 3499 3511 3489 3501 3520 3478 3497 3487 3478 3472 3494 3505 3512 3510 3505 3500 3509 3519 3507 3509 3498 3495 3513 3484 3510 3493 3514 3478 3495 3500 3501 3491 3503 3480 3496 3471 3529 3508 3488 3493 3493 3497 3490 3503 3506 3522 3468 3497 3518 3482 3493 3461 3502 3486 3461 3497 3511 3487 3493 3523 3485 3485 3484 3495 3514 3515 3513 3482 3463 3489 3509 3481 3502 3494 3460 3475 3478 3476 3492 3500 3472 3483 3483 3482 3498 3503 3487 3502 3469 3492 3480 3473 3461 3489 3494 3497 3493 3463 3477 3494 3513 3503 3500 3464 3506 3521 3483 3476 3498 3469 3488 3485 3484 3480 3464 3470 3500 3456 3465 3504 3496 3479 3512 3453 3445 3483 3492 3477 3500 3487 3479 3464 3463 3474 3486 3479 3483 3492 3482 3501 3488 3467 3488 3473 3492 3491 3469 3488 3503 3480 3476 3476 3473 3479 3444 3503 3478 3480 3494 3493 3487 3469 3506 3477 3486 3485

Tree=0
num_leaves=31
num_cat=0
split_feature=8 7 0 7 7 8 7 8 7 0 0 8 7 7 7 4 4 1 6 0 1 7 7 8 8 4 8 7 1 6
split_gain=596.916 53.0537 31.9648 29.3842 17.3055 42.387 33.2854 29.7281 16.7774 14.3126 14.2916 12.1373 11.3142 8.3595 7.91572 11.8006 7.6741 5.33635 5.27023 5.23844 5.09967 5.09486 9.37618 5.07622 9.15964 4.94548 4.83115 4.81018 4.79697 5.87186
threshold=1.0000000180025095e-35 -0.23850031717482292 1.0000000180025095e-35 -2.1554750422677871 0.75090599255057811 0.93750000000000011 1.4970832511351511 0.5277777777777779 0.050076523161752415 1.5000000000000002 1.0000000180025095e-35 0.86607142857142871 0.84219050326929101 1.0000000180025095e-35 0.25718439156657341 123.50000000000001 27.500000000000004 4.2500000000000009 0.68694645634406093 24.500000000000004 4.6500000000000012 0.25718439156657341 0.63410108098577378 0.64583333333333337 0.69047619047619058 37.500000000000007 0.38750000000000007 0.99531290834584063 3.8500000000000001 0.60820914047052765
decision_type=2 2 2 2 2 2 2 2 2 2 2 2 2 2 2 2 2 2 2 2 2 2 2 2 2 2 2 2 2 2
left_child=3 9 11 -1 5 7 27 13 -9 20 16 14 18 -4 15 -3 -5 -16 -13 -11 -2 -15 26 -10 -25 -14 -23 -6 -18 -30
right_child=1 2 4 10 6 -7 -8 8 23 19 -12 12 25 21 17 -17 28 -19 -20 -21 -22 22 -24 24 -26 -27 -28 -29 29 -31
leaf_value=0.043801033293575563 -0.015391020004686222 -0.01362721529631572 -0.018686524844259547 0.041269016991163955 -0.047125952664959558 0.011333881178117955 -0.0014414344750847006 0.0018025716492661376 -0.040332586801554035 0.0062134108176600741 0.028817959717284972 0.0054039371496955209 -8.7178902555989837e-05 -0.0013786903878605511 -0.031829471946787112 -0.03945253949576074 0.019503120276773395 -0.049516041424963436 -0.03273846667707455 -0.026013958930875748 0.0045106020573128132 -0.004955593237212925 0.00085614645760109234 -0.018092267299962213 -0.036295062862763891 -0.030653172361380533 -0.029526164844482145 -0.029199822884466459 -0.0074889580674660887 0.016326883810392174
leaf_weight=288.89046722976491 149.4293726766482 117.34575730934739 130.48477925267071 21.149730943143368 51.009901013690978 196.97325357701629 125.71208965731785 54.13475115224719 69.479617436882108 423.31440868764184 665.03209788817912 62.41564735583961 15.645677264779804 379.78381722327322 138.17509858869016 71.773338939994574 74.559048406779766 70.526251371949911 9.5651555843651277 12.023809784092007 40.458282450214028 29.097551793325692 81.376641144743189 188.86313626845367 112.37784512760118 85.03419540822506 66.458873035851866 189.06689840764739 58.553618481382728 44.819660287350416
leaf_count=3443 1060 682 3223 88 1416 4224 3160 1141 1926 9709 11334 342 87 8836 856 475 359 482 63 311 249 726 2012 4850 2974 542 1791 5101 314 231
internal_value=-0.000405608 -0.0126112 -0.0161968 0.0299661 -0.0127016 -0.0100013 -0.0223114 -0.013787 -0.024171 0.000270476 0.0252955 -0.0264178 -0.0152128 -0.00734146 -0.0312306 -0.0235842 0.0134436 -0.0380139 -4.37488e-05 0.00526573 -0.0111493 -0.00465363 -0.011636 -0.0279585 -0.0249804 -0.0259508 -0.0221731 -0.0331883 0.00992406 0.0028944
internal_weight=4023.53 2870.53 2245.3 1153 1674.82 1309.03 365.789 1112.06 424.855 625.226 864.114 570.481 172.661 687.202 397.82 189.119 199.082 208.701 71.9808 435.338 189.888 556.717 176.933 370.721 301.241 100.68 95.5564 240.077 177.932 103.373
internal_count=72007 56238 44909 15769 41380 31703 9677 27479 10891 11329 12326 3529 1034 16588 2495 1157 992 1338 405 10020 1309 13365 4529 9750 7824 629 2517 6517 904 545
is_linear=0
shrinkage=0.05


Tree=1
num_leaves=31
num_cat=0
split_feature=8 7 7 0 7 8 8 7 7 8 7 8 7 7 7 8 0 0 7 7 8 0 7 0 7 0 7 7 0 8
split_gain=3982.14 766.489 325.343 196.644 142.151 272.932 76.6445 63.3517 62.7412 60.664 83.4224 57.8045 51.3474 44.0598 62.1698 42.0261 36.6786 65.6331 41.4132 29.4652 27.2398 25.8928 23.9633 21.949 20.9507 20.6873 20.1278 27.3677 18.7688 18.2633
threshold=1.0000000180025095e-35 -2.1554750422677871 -0.23850031717482292 14.500000000000002 0.75090599255057811 0.93750000000000011 0.5277777777777779 -0.077721791844445193 1.4970832511351511 0.93750000000000011 0.84219050326929101 0.58571428571428574 1.0000000180025095e-35 0.63410108098577378 0.27917119844936022 0.64583333333333337 5.5000000000000009 1.0000000180025095e-35 -1.0671281015698459 0.08305673348593233 0.22500000000000003 1.0000000180025095e-35 0.99531290834584063 2.5000000000000004 1.0000000180025095e-35 12.500000000000002 0.25718439156657341 0.53594569311619045 2.5000000000000004 0.35416666666666669
decision_type=2 2 2 2 2 2 2 2 2 2 2 2 2 2 2 2 2 2 2 2 2 2 2 2 2 2 2 2 2 2
left_child=1 21 20 4 5 6 7 -4 22 11 -11 12 -5 14 24 -8 17 -3 -19 -17 -2 -1 -6 -20 -9 28 -14 -28 -22 -30
right_child=2 16 3 9 8 -7 15 13 -10 10 -12 -13 26 -15 -16 19 -18 18 23 -21 25 -23 -24 -25 -26 -27 27 -29 29 -31
leaf_value=0.055191832919044337 -0.016518804501760489 0.047832324947066185 -0.050734184717042219 -0.052627054491365594 -0.060095690359761089 0.011500319967455914 -0.049569396179645148 -0.024380720260319039 -0.017560267659998057 0.0063575878579927234 -0.034171287050126974 -0.048315208073462484 -0.019343936648842857 0.0042462863500683061 -0.036478369230332618 -0.0036509028569894778 0.032802717335705951 0.031078158026833658 0.0037179752354991056 -0.027755752454340789 -0.0061013881537618758 0.083516033224337261 -0.036165886746234048 0.019797469354571866 -0.0085216039004732628 -0.0058385156548412106 -0.048434470606754834 -0.017118280917723945 0.012561271440629724 -0.00035403570823051026
leaf_weight=98.96238598972559 257.72444580495358 218.95421059336513 107.38916213810444 208.18849183991551 126.87763515114784 935.81659366190434 199.2404599096626 244.56223904713988 511.72521974612027 203.37983609735966 335.73227384500206 786.6802000105381 565.83222183026373 367.95203258562833 277.5657865088433 146.26746377535164 2203.9559588301927 417.63091137260199 421.18611854314804 966.76864111796021 343.16462451033294 789.49255299987271 670.28356187976897 427.96062657609582 1390.1761155799031 804.95498874038458 170.77765789628029 120.17634195834398 663.0615895204246 465.57738253474236
leaf_count=286 1253 1025 739 1302 928 3706 1365 1479 2645 941 2110 4924 2983 1594 1697 704 8316 969 788 5557 1671 3159 3858 1253 6601 4018 1032 642 2539 1869
internal_value=-0.000357984 0.0387535 -0.0168329 -0.0216023 -0.0167271 -0.0126138 -0.0187144 -0.0133699 -0.0312745 -0.0337124 -0.0188983 -0.038013 -0.0303647 -0.0115888 -0.0146363 -0.028421 0.0286997 0.0225953 0.018199 -0.0245942 -0.00114495 0.0804267 -0.0400451 0.0118356 -0.0109076 0.000601824 -0.0249002 -0.0356025 0.00412573 0.00723795
internal_weight=15448 4578.14 10869.9 8335.39 5944.62 4635.74 3699.92 2387.65 1308.89 2390.77 539.112 1851.65 1064.97 2280.26 1912.3 1312.28 3689.69 1485.73 1266.78 1113.04 2534.48 888.455 797.161 849.147 1634.74 2276.76 856.786 290.954 1471.8 1128.64
internal_count=71953 15796 56157 44807 30873 23442 19736 12110 7431 13934 3051 10883 5959 11371 9777 7626 12351 4035 3010 6261 11350 3445 4786 2041 8080 10097 4657 1674 6079 4408
is_linear=0
shrinkage=0.05


Tree=2
num_leaves=31
num_cat=0
split_feature=8 7 8 7 8 7 7 7 8 8 8 0 7 7 8 8 0 0 0 7 7 6 7 7 7 7 0 0 3 0
split_gain=2570.93 247.006 189.576 242.132 197.441 85.0997 73.6602 67.0378 43.934 42.9874 76.1811 57.4945 35.757 83.0965 25.5135 70.7238 19.6548 60.5238 41.3505 29.9707 18.5668 17.88 16.1117 15.9789 15.4683 16.5359 15.3918 14.413 15.5344 14.3859
threshold=1.0000000180025095e-35 -0.23850031717482292 0.93750000000000011 0.84219050326929101 0.5277777777777779 1.0000000180025095e-35 -1.0671281015698459 1.4970832511351511 0.22500000000000003 0.69047619047619058 0.64583333333333337 6.5000000000000009 0.25718439156657341 0.63410108098577378 0.35416666666666669 0.47222222222222227 5.5000000000000009 1.0000000180025095e-35 7.5000000000000009 -0.43284798515659806 0.75090599255057811 0.29909995249647997 -0.71023511127604066 0.33865336349832759 -0.077721791844445193 -0.035318664284785306 2.5000000000000004 1.5000000000000002 0.69455552647757912 12.500000000000002
decision_type=2 2 2 2 2 2 2 2 2 2 2 2 2 2 2 2 2 2 2 2 2 2 2 2 2 2 2 2 2 2
left_child=6 8 4 -4 5 24 -1 -5 -2 10 -6 -12 27 -14 26 -16 17 -8 19 22 21 -11 -18 29 -3 -26 -10 28 -7 -13
right_child=1 2 3 7 9 12 16 -9 14 20 11 23 13 -15 15 -17 18 -19 -20 -21 -22 -23 -24 -25 25 -27 -28 -29 -30 -31
leaf_value=0.03775548218959484 -0.021064378350583193 -0.047963757813664243 0.011483390016832771 -0.030449751778514118 -0.05152997145520203 0.024503067131705497 0.014928376291951987 -0.0081416597508893705 -0.0091333078761147279 -0.015349441942696114 -0.010138762466024426 -0.034234834759902369 -0.036510139513354155 -0.0047718507851744682 -0.036311046867034159 0.0024398560895522504 0.001835266018991107 0.045206076272809786 0.02619932027888075 0.020187466890665976 -0.058095764790334382 -0.043311169710205384 -0.031851527947002606 -0.036297263734437292 -0.026037209980009381 -0.082022147025976211 0.0089452862831227772 -0.0095874542895259644 -0.0042088510516775585 0.00061130671226948812
leaf_weight=2302.4577019149438 213.62236415594816 148.7450756020844 1059.2838943758979 745.97725185193121 318.86944808065891 63.805748043581843 291.62943769991398 615.02508459612727 130.30864560231566 67.039551522582769 459.8616771325469 55.305283039808273 406.09240873157978 418.68086460325867 140.71863930113614 695.43204629048705 107.07743342965841 383.56940784212202 1231.1162890959531 185.58669249713421 197.6276402361691 453.98798575531691 52.020515479147434 584.40095164813101 328.39057623594999 13.018300067633389 1152.3743305224925 1613.1787290684879 171.73782355710864 62.419128136709332
leaf_count=7348 1211 1173 4681 4552 2334 269 683 3391 945 386 2444 263 2728 2206 795 3384 238 2069 4810 487 1489 2930 117 4011 2208 115 5027 8470 846 430
internal_value=0.000263928 -0.0137796 -0.0180561 -0.0064367 -0.0232975 -0.0152905 0.0314589 -0.0203823 0.000492975 -0.0348022 -0.02989 -0.0239124 -0.0117707 -0.0204241 0.00267532 -0.00411725 0.0250046 0.0321701 0.0219158 0.00658484 -0.0448685 -0.0397497 -0.00930951 -0.0329063 -0.0344262 -0.0284053 0.00710299 -0.00790116 0.00363955 -0.0159094
internal_weight=14669.4 10115.9 7783.45 2420.29 5363.16 3163.65 4553.46 1361 2332.46 2199.51 1480.86 1161.99 2673.5 824.773 2118.83 836.151 2251 675.199 1575.8 344.685 718.655 521.028 159.098 702.125 490.154 341.409 1282.68 1848.72 235.544 117.724
internal_count=72040 56288 44926 12624 32302 18015 15752 7943 11362 14287 9482 7148 14519 4934 10151 4179 8404 2752 5652 842 4805 3316 355 4704 3496 2323 5972 9585 1115 693
is_linear=0
shrinkage=0.05


Tree=3
num_leaves=31
num_cat=0
split_feature=8 7 8 8 7 7 7 7 7 8 8 7 8 7 7 7 7 7 7 8 5 3 1 6 6 8 8 8 2 7
split_gain=2094.11 180.501 147.357 207.329 147.185 131.965 76.5398 70.6611 40.3724 29.3568 40.0368 27.9797 28.5156 25.6385 21.5082 73.4576 17.9802 17.5859 13.2872 12.4764 12.3351 11.5425 11.4865 13.2159 10.6532 10.6064 56.7284 15.4383 10.3 10.2875
threshold=1.0000000180025095e-35 -0.23850031717482292 0.93750000000000011 0.5277777777777779 0.84219050326929101 -1.0671281015698459 1.0000000180025095e-35 0.050076523161752415 1.4970832511351511 0.64583333333333337 0.69047619047619058 -0.60658302168576073 0.22500000000000003 -0.48172936831565066 0.27917119844936022 0.63410108098577378 1.3898975675815664 0.99531290834584063 0.84219050326929101 0.38750000000000007 6.5000000000000009 0.19937247915521503 4.9500000000000011 0.63761044088329222 0.72280871459738461 0.35416666666666669 0.47222222222222227 0.22500000000000003 0.86081516864130758 -0.077721791844445193
decision_type=2 2 2 2 2 2 2 2 2 2 2 2 2 2 2 2 2 2 2 2 2 2 2 2 2 2 2 2 2 2
left_child=5 11 3 6 24 22 29 -5 16 -9 18 12 -2 -7 -8 19 17 -6 -11 -16 -12 -10 23 -1 -4 27 -27 -13 -28 -3
right_child=1 2 4 7 8 13 14 9 21 10 20 25 -14 -15 15 -17 -18 -19 -20 -21 -22 -23 -24 -25 -26 26 28 -29 -30 -31
leaf_value=0.034847829628295128 -0.017925327778200682 -0.043110174878475384 0.005987786381397955 -0.0060034463817688691 -0.055404808516983317 0.01339866769342362 -0.0067826468457616185 -0.05197997084709869 0.030058706653599745 -0.024864592014638712 -0.032135871217311505 -0.01824623687863923 0.012264886977494845 0.024545128481341154 -0.017656078432304479 -0.0018527448219122827 -0.057224242157527187 -0.021006601232739845 -0.042462285444126432 -0.037814081115269099 -0.047812772843371959 -0.0088410415325612859 0.0089102751943801514 0.043466267308687696 0.020800621695577601 -0.041821582590499402 -0.0066666089199939414 0.0020307900481030586 0.0084304333493643944 -0.026742362524702704
leaf_weight=1602.498849243857 89.652246113866568 143.10859061963856 864.79142405278981 206.74983279313892 38.809324949979782 945.78844812233001 1780.3938622362912 276.12464402243495 18.732031651772559 789.13883582409471 183.02984181977808 106.14119983464479 572.98395149223506 1147.4467631746083 109.59443648532033 408.79478332120925 40.001035455614328 676.77740360796452 126.3539351709187 279.2954144962132 481.00518151186407 603.39737812895328 36.794201733544469 651.13355835899711 140.57192993815988 108.24622064456344 398.36586285568774 756.91702399402857 156.59594768472016 323.34610816836357
leaf_count=5276 553 1201 4009 1200 296 3845 9579 2195 91 5332 1143 642 2732 4578 764 2199 240 4028 931 1895 3615 3363 146 1989 619 756 2087 3752 705 2293
internal_value=-5.86899e-05 -0.0130436 -0.0167344 -0.0215246 -0.00646417 0.0286078 -0.0132259 -0.0337628 -0.0170739 -0.0368508 -0.0341748 -0.000412594 0.00815941 0.0195176 -0.00984599 -0.0166662 -0.0248348 -0.0229469 -0.0273371 -0.0321931 -0.0435465 -0.00762343 0.0369032 0.0373561 0.00807756 -0.00413708 -0.00888677 -0.000481164 -0.00239911 -0.0318455
internal_weight=14062.6 9678.92 7490.02 5106.94 2383.08 4383.66 3044.53 2062.4 1377.72 1855.65 1579.53 2188.9 662.636 2093.24 2578.08 797.685 755.588 715.587 915.493 388.89 664.035 622.129 2290.43 2253.63 1005.36 1526.27 663.208 863.058 554.962 466.455
internal_count=72054 56220 44993 32347 12646 15834 17931 14416 8018 13216 11021 11227 3285 8423 14437 4858 4564 4324 6263 2659 4758 3454 7411 7265 4628 7942 3548 4394 2792 3494
is_linear=0
shrinkage=0.05


Tree=4
num_leaves=31
num_cat=0
split_feature=8 7 8 8 7 7 7 7 8 7 7 8 8 7 0 8 8 8 7 7 7 1 7 7 3 5 3 3 7 7
split_gain=1689.1 186.192 111.638 181.934 129.124 103.534 71.2151 44.2199 42.5142 42.1129 39.9894 42.8349 39.8712 26.0711 21.4571 18.2575 40.0916 21.2592 15.1795 14.1181 15.1503 20.144 13.7123 13.453 13.1696 13.0221 12.2921 12.2732 11.6589 11.4915
threshold=1.0000000180025095e-35 -0.23850031717482292 0.93750000000000011 0.5277777777777779 0.84219050326929101 -1.0671281015698459 1.0000000180025095e-35 -0.60658302168576073 0.2678571428571429 1.4970832511351511 0.75090599255057811 0.64583333333333337 0.69047619047619058 1.268577508174761 17.500000000000004 0.35416666666666669 0.47222222222222227 0.30952380952380959 0.050076523161752415 -0.48172936831565066 -0.71023511127604066 4.4500000000000011 0.99531290834584063 -0.68373315655125322 0.25450699168701718 19.500000000000004 0.10358603794689532 0.71298883404025803 0.91168451788095584 0.63410108098577378
decision_type=2 2 2 2 2 2 2 2 2 2 2 2 2 2 2 2 2 2 2 2 2 2 2 2 2 2 2 2 2 2
left_child=5 7 3 6 -4 25 -3 8 23 13 11 18 -13 22 29 17 -17 -9 -5 20 -7 -22 -6 24 -2 -1 -11 -10 -12 -8
right_child=1 2 4 10 9 19 14 15 27 26 28 12 -14 -15 -16 16 -18 -19 -20 -21 21 -23 -24 -25 -26 -27 -28 -29 -30 -31
leaf_value=0.036633156042451313 0.050756001474042238 -0.030453676223776413 0.007677101220045471 -0.0083288406542678158 -0.049767369371440245 0.017837340410857699 -0.0084720548615179712 -0.0067806480222572492 0.0058507608525178957 0.033357216785186862 -0.06759272183688407 -0.01896335423944075 -0.037146490803211349 -0.041669287551653236 -0.019640233152305064 -0.040549498407641056 -0.0048635364138992394 0.0089935960229412231 -0.050108158976802146 0.022173003798815764 -0.0052850695361392423 0.026258759213869966 -0.017239220586300372 -0.053483907518666232 -0.0059402285615375479 0.027448737920496576 -0.0078907799571278116 0.025139805745087774 -0.042896504109440375 0.0013991957471286207
leaf_weight=1574.3209459949285 9.8051249273121339 446.60729326494038 943.45216499641538 24.256782843731344 33.898297421634197 637.10430179350078 1792.7145954016596 431.73629179038107 109.34185008332133 17.668696656823158 64.443723255768418 927.54351519979537 449.55977109260857 169.76540680974722 386.70925134327263 92.008108016103506 514.32706530019641 420.79898608289659 253.3275325037539 1140.1462948452681 184.04943942837417 68.688047286123037 530.86687140911818 13.120069675147532 196.74650167673826 534.94031506031752 579.99485877156258 343.8487394079566 242.91165085695684 352.5136916032061
leaf_count=5845 39 3464 4644 151 277 2657 9873 2361 547 51 535 6247 3236 1028 2764 732 2811 2073 2090 4613 880 304 3213 82 1117 1558 3351 1499 1948 1825
internal_value=-2.92463e-05 -0.0118035 -0.0156384 -0.0198587 -0.00647116 0.0265579 -0.0120649 0.00117928 0.0117733 -0.0164891 -0.0316782 -0.0285677 -0.0249219 -0.0245013 -0.00881053 -0.00371162 -0.0103365 0.0010067 -0.0465003 0.018482 0.0137331 0.0033575 -0.0192761 -0.00626012 -0.00301725 0.034318 -0.00661768 0.020509 -0.048277 -0.00685007
internal_weight=13487.2 9347.97 7216.23 4940.59 2275.65 4139.25 2978.54 2131.73 672.862 1332.19 1962.04 1654.69 1377.1 734.531 2531.94 1458.87 606.335 852.535 277.584 2029.99 889.842 252.737 564.765 219.672 206.552 2109.26 597.664 453.191 307.355 2145.23
internal_count=71815 55958 44697 32133 12564 15857 17926 11261 3284 7920 14207 11724 9483 4518 14462 7977 3543 4434 2241 8454 3841 1184 3490 1238 1156 7403 3402 2046 2483 11698
is_linear=0
shrinkage=0.05


Tree=5
num_leaves=31
num_cat=0
split_feature=8 8 8 8 8 8 8 8 0 0 0 5 3 0 2 2 0 5 3 1 5 3 0 6 3 2 3 6 6 6
split_gain=1490.62 110.275 109.701 173.054 74.7666 71.9324 43.0426 45.1647 37.3967 33.3287 17.4962 17.1377 14.4449 11.4486 11.4369 11.2311 11.0407 10.9811 10.8481 10.6805 10.5894 10.5651 10.3158 9.77123 9.21183 9.19229 8.92113 10.1322 8.80255 8.58903
threshold=1.0000000180025095e-35 0.35416666666666669 0.93750000000000011 0.5277777777777779 0.30952380952380959 0.47222222222222227 0.69047619047619058 0.64583333333333337 18.500000000000004 13.500000000000002 17.500000000000004 21.500000000000004 0.95207678497308945 1.5000000000000002 0.87982428800314649 0.69743518538669236 15.500000000000002 14.500000000000002 0.14688304903247354 4.9500000000000011 10.500000000000002 0.66868706990897464 23.500000000000004 0.67144931631459903 0.67256875823617202 0.89854991226778547 0.57991294366310453 0.61134508141978361 0.49461816215404941 0.29909995249647997
decision_type=2 2 2 2 2 2 2 2 2 2 2 2 2 2 2 2 2 2 2 2 2 2 2 2 2 2 2 2 2 2
left_child=10 4 3 5 16 19 7 -5 18 15 11 13 14 -1 -6 21 26 -12 20 -3 -4 23 -11 28 -17 -14 27 -2 -7 -8
right_child=1 2 8 6 12 9 29 -9 -10 22 17 -13 25 -15 -16 24 -18 -19 -20 -21 -22 -23 -24 -25 -26 -27 -28 -29 -30 -31
leaf_value=0.032849140986730169 0.015044948168585707 -0.032376108022664898 0.0504257252785906 -0.042428100217259346 0.0070150114951261586 -0.0016482730940504146 -0.026760108975710947 -0.019985671692716429 -0.025884095176925883 -0.014772745179934571 0.0067692153939789244 0.035127493736269715 0.0034577258602099398 0.023774197334542255 0.023097708960081294 0.018829181058513375 -0.021684066203009042 0.024500729805746625 -0.0036420306706920593 0.02084754070971824 -0.0039039980183089192 -0.017841631430797429 -0.036757001128163921 0.01138926128929346 -0.0019200507167076693 -0.0154902092541789 -0.01172294633536294 -0.021538020701913348 -0.0214002784182281 -0.043231039442423742
leaf_weight=405.43783369846642 68.117094215005636 359.60938429273665 17.502092808485031 284.5336486492306 907.21604322548956 158.31505052000284 100.65946106612682 1069.1572727756575 197.48291775211692 625.64423467498273 199.81886433809996 480.14418475702405 160.49416562356055 2809.260816346854 125.26624018885195 55.121016822755337 246.82241884432733 155.60932747647166 2049.1511979037896 9.0363471992313844 17.147698864340782 226.29908831231296 58.015501039102674 79.325489312410355 1141.44678225182 105.16339771449566 502.96690898016095 25.10076279938221 86.787312496453524 526.20419338345528
leaf_count=1763 343 2684 66 2377 4809 825 576 7434 1306 4387 941 1914 846 10650 568 251 1713 635 11186 47 93 1322 488 393 5970 620 2990 162 528 4235
internal_value=-3.08995e-05 -0.0111555 -0.014169 -0.0184737 -0.00121493 -0.010466 -0.0297819 -0.0247307 -0.0051449 -0.00733778 0.0252416 0.0262631 0.00631304 0.0249286 0.00898671 -0.00367138 -0.0128009 0.0145792 -0.00316797 -0.0310186 0.0241834 -0.00957323 -0.0166893 -0.00376864 -0.000949293 -0.00407298 -0.00909312 0.00507021 -0.00870072 -0.040633
internal_weight=13252.9 9202.59 7061.44 4780.15 2141.15 2799.6 1980.55 1353.69 2281.28 2430.95 4050.27 3694.84 1298.14 3214.7 1032.48 1747.29 843.007 355.428 2083.8 368.646 34.6498 550.727 683.66 324.428 1196.57 265.658 596.185 93.2179 245.102 626.864
internal_count=72122 56219 44168 31517 12051 16895 14622 9811 12651 14164 15903 14327 6843 12413 5377 9289 5208 1576 11345 2731 159 3068 4875 1746 6221 1466 3495 505 1353 4811
is_linear=0
shrinkage=0.05


Tree=6
num_leaves=31
num_cat=0
split_feature=7 7 0 7 7 7 7 7 7 7 7 7 0 5 7 2 7 0 7 0 5 7 7 0 7 6 2 6 7 2
split_gain=1221.47 283.915 72.2919 31.2443 42.9047 36.1198 71.4481 66.9212 87.5393 33.0984 25 34.7512 24.8785 23.8424 14.6006 14.0993 13.1748 14.8493 12.772 12.4443 12.443 11.0395 15.1418 13.1666 10.5092 10.1589 9.96431 11.3782 9.76671 9.60261
threshold=-0.23850031717482292 -1.1366221161815113 17.500000000000004 1.0000000180025095e-35 0.050076523161752415 0.63410108098577378 0.27917119844936022 0.75090599255057811 1.4970832511351511 0.10955868821071976 1.2191071926884911 0.99531290834584063 16.500000000000004 21.500000000000004 0.38282328803964022 0.68983957888680714 -2.1554750422677871 16.500000000000004 0.33865336349832759 15.500000000000002 3.5000000000000004 0.27917119844936022 1.0000000180025095e-35 21.500000000000004 1.1484353134223912 0.27053636799610081 0.85554773670196815 0.28548570658284717 0.53594569311619045 0.84857668112744655
decision_type=2 2 2 2 2 2 2 2 2 2 2 2 2 2 2 2 2 2 2 2 2 2 2 2 2 2 2 2 2 2
left_child=1 13 3 -2 -5 6 9 -7 10 15 11 -9 29 16 18 -6 17 -1 -8 -12 -10 22 -4 28 -13 -16 27 -14 -23 -3
right_child=2 12 21 4 5 7 14 8 20 -11 19 24 26 -15 25 -17 -18 -19 -20 -21 -22 23 -24 -25 -26 -27 -28 -29 -30 -31
leaf_value=0.040908807559990198 -0.02667851807447047 0.0087831584372706339 -0.035730928064535164 0.0019762538105705012 -0.011699985798680089 -0.0025944999316137975 -0.041986770293603662 -0.047624896222386581 -0.023016916291758768 -0.006534554692444944 -0.053475289782813476 -0.027545145723028405 0.017190441758924566 0.020546647626087197 -0.012054332655117852 -0.047846757347605205 0.03017068946466624 0.0084647260830472172 -0.02004064364015759 -0.0047590854129722819 0.00034170882077266758 -0.036859332648491991 -0.013568181469150118 -0.039958433065798514 -0.013541123683104707 -0.040413652230210352 0.0092116242351709798 -0.0067318464826942245 -0.019840076325321129 0.014777573049925925
leaf_weight=728.45472281984985 349.34099172148854 2253.6157209221274 106.56847675330937 550.45925755053759 43.56587340682745 1666.7784535717219 79.525415061973035 126.37884899787605 63.225599259138107 955.70827353186905 114.24307223781943 213.2760566752404 55.381729189306498 384.45677265524864 36.516796462237835 73.508807664271444 866.50459789671004 37.682958208024502 414.55416579172015 15.023991242051123 507.40728803630918 122.31568602379411 280.89699562452734 237.66604054532945 369.42320339009166 295.8612155020237 206.24653558805585 420.72030708752573 288.13761402573436 954.7180131804198
leaf_count=2792 2777 11171 945 2949 253 9325 651 1092 350 5564 732 1412 306 1004 215 536 3466 175 2938 89 2721 1059 2250 2108 2249 2272 1107 2601 2309 4519
internal_value=-6.77537e-05 0.0166239 -0.014338 -0.012187 -0.0112661 -0.0127315 -0.0181538 -0.00937843 -0.0173961 -0.00962773 -0.0276686 -0.0239194 0.00872764 0.0318426 -0.029196 -0.0346088 0.0344884 0.0393261 -0.0236507 -0.0478933 -0.00228214 -0.0265168 -0.0197401 -0.0305315 -0.0187052 -0.0373435 5.75807e-05 -0.00391893 -0.0249891 0.010571
internal_weight=12818.2 5907.78 6910.38 5874.8 5525.46 4975 1899.24 3075.76 1408.98 1072.78 838.345 709.078 3890.68 2017.1 826.458 117.075 1632.64 766.138 494.08 129.267 570.633 1035.58 387.465 648.119 582.699 332.378 682.349 476.102 410.453 3208.33
internal_count=71937 27141 44796 36125 33348 30399 12429 17970 8645 6353 5574 4753 19704 7437 6076 789 6433 2967 3589 821 3071 8671 3195 5476 3661 2487 4014 2907 3368 15690
is_linear=0
shrinkage=0.05


Tree=7
num_leaves=31
num_cat=0
split_feature=8 7 8 8 7 7 7 8 8 7 7 8 7 7 7 7 8 7 8 7 8 5 7 3 8 8 4 4 3 8
split_gain=1398.41 118.341 129.642 150.368 136.814 52.6496 50.929 39.4443 41.0229 38.4458 41.1714 37.4585 43.9745 32.3814 28.3074 77.8913 16.1076 15.0453 14.5389 23.8714 14.0938 12.4924 14.3258 11.5675 8.64124 33.4671 8.92007 8.52665 8.6119 8.20949
threshold=1.0000000180025095e-35 -0.23850031717482292 0.93750000000000011 0.58571428571428574 0.84219050326929101 -1.0671281015698459 1.0000000180025095e-35 0.69047619047619058 0.64583333333333337 1.4970832511351511 1.268577508174761 0.22500000000000003 -0.60658302168576073 1.1484353134223912 0.27917119844936022 0.53594569311619045 0.38750000000000007 0.33865336349832759 0.35416666666666669 0.10955868821071976 0.30952380952380959 21.500000000000004 -1.7019971503103115 0.4372434002151554 0.35416666666666669 0.47222222222222227 38.500000000000007 146.50000000000003 0.58706020556669958 0.73214285714285732
decision_type=2 2 2 2 2 2 2 2 2 2 2 2 2 2 2 2 2 2 2 2 2 2 2 2 2 2 2 2 2 2
left_child=5 11 3 6 -4 21 -3 8 -5 10 13 -2 20 -6 18 16 -16 -10 23 -20 27 -1 -23 -8 26 -26 -14 -13 -29 -9
right_child=1 2 4 7 9 -7 14 29 17 -11 -12 12 24 -15 15 -17 -18 -19 19 -21 -22 22 -24 -25 25 -27 -28 28 -30 -31
leaf_value=0.029340476487510165 -0.022434988102399446 -0.027583787413489637 0.010184255301598708 -0.044200321266888651 -0.035358305942850977 0.019151870219414644 0.023774063179090147 -0.072954338207247546 -0.0067979574756534952 -0.0053764430402721049 -0.046826105350517261 0.0064434611613054388 -0.013171081347588758 -0.0087902805446945578 -0.017238534321992655 -0.0011133603270309809 -0.040916607202338175 -0.023427125130476158 -0.028740022274443923 -0.0055882348153380931 0.018374315258824526 0.054832783301533176 0.029480247720980703 -0.00058934053726123739 -0.037309459841711017 -0.0027033448501155143 0.0030532150584991211 0.018086848445600403 -0.040822001156126574 -0.039829387168889049
leaf_weight=1735.2826140094548 170.77565178275108 423.67081201355904 944.05919455643743 228.62118818052113 161.98405112698674 1905.840282115154 53.827010381966829 20.008929874747992 164.28876178897917 576.5487154815346 141.69996832311153 90.899830441921949 98.314486850053072 390.52260441798717 104.60129446536303 375.2412912864238 244.82607954274863 819.00575336813927 124.56086020544171 991.84559748321772 413.49027764797211 111.60080598853528 120.47428643517196 436.99013120681047 80.711700180545449 483.2012155931443 575.50903979688883 8.0088536366820353 20.740437664091587 553.5284864846617
leaf_count=6418 1199 3543 4666 2056 1090 8399 234 179 1065 3404 1028 509 597 2414 782 2271 1950 6120 894 6003 2074 507 471 2582 729 2806 3161 42 165 4570
internal_value=0.00010737 -0.0110213 -0.0141476 -0.018984 -0.00422732 0.0250938 -0.0116534 -0.0302849 -0.0251323 -0.0149334 -0.0228515 -0.000141898 0.0020194 -0.0166293 -0.00874846 -0.0169467 -0.033898 -0.0206585 -0.00504379 -0.00819476 0.0140105 0.0308372 0.0418548 0.00212546 -0.00315277 -0.00771372 0.000669993 -0.00109734 -0.0243551 -0.04111
internal_weight=12570.7 8697.48 6755.83 4541.02 2214.81 3873.2 2755.56 1785.45 1211.92 1270.76 694.207 1941.65 1770.88 552.507 2331.89 724.669 349.427 983.295 1607.22 1116.41 533.139 1967.36 232.075 490.817 1237.74 563.913 673.824 119.649 28.7493 573.537
internal_count=71928 56133 44851 32249 12602 15795 18259 13990 9241 7936 4532 11282 10083 3504 14716 5003 2732 7185 9713 6897 2790 7396 978 2816 7293 3535 3758 716 207 4749
is_linear=0
shrinkage=0.05


Tree=8
num_leaves=31
num_cat=0
split_feature=8 8 8 8 8 8 8 8 0 0 3 0 4 4 1 2 8 5 0 2 5 4 0 1 2 3 5 1 4 4
split_gain=1308.8 97.5763 120.711 148.228 80.1767 75.4786 29.8571 43.6087 23.763 19.0219 9.66061 9.06723 8.77669 8.33569 7.77462 8.03472 7.56892 7.32341 12.1071 7.08906 6.96169 6.21986 7.1208 10.8326 9.95994 8.78054 8.03349 10.1579 8.72466 8.00673
threshold=1.0000000180025095e-35 0.35416666666666669 0.93750000000000011 0.58571428571428574 0.30952380952380959 0.43650793650793657 0.69047619047619058 0.64583333333333337 18.500000000000004 14.500000000000002 0.98958940479482738 4.5000000000000009 196.50000000000003 15.500000000000002 3.9500000000000006 0.9283492690677464 0.18333333333333338 23.500000000000004 14.500000000000002 0.9428255796024595 2.5000000000000004 184.50000000000003 11.500000000000002 4.1500000000000012 0.54644762137372682 0.54213487198908128 10.500000000000002 4.5500000000000007 67.500000000000014 136.50000000000003
decision_type=2 2 2 2 2 2 2 2 2 2 2 2 2 2 2 2 2 2 2 2 2 2 2 2 2 2 2 2 2 2
left_child=12 4 3 5 16 -3 7 -5 -4 20 14 13 17 -9 15 -6 -2 -1 -19 -16 -7 22 23 24 25 -18 -24 -28 -29 -26
right_child=1 2 8 6 10 9 -8 11 -10 -11 -12 -13 -14 -15 19 -17 21 18 -20 -21 -22 -23 26 -25 29 -27 27 28 -30 -31
leaf_value=0.024896396838016033 -0.033018114120224477 -0.034008536445264366 -0.002959943962471759 -0.045016811425570201 0.012900768287336674 -0.016749917783110104 -0.039056328094593085 0.027246988988802297 -0.024098973341717306 -0.015919158820186529 -0.013487675021050145 -0.023771203629884358 0.0024595324003208623 -0.014952166105250254 0.0024936894713836269 -0.025325806882776095 -0.0018069372114218015 0.020649807847687468 -0.010769254415381894 0.026817116880997 -0.00436261297044913 0.0025873687343885851 -0.010007344755619298 -0.019445853405396035 0.00014357849761148199 0.049534408178932676 -0.034856906842828522 -0.037952714735144444 0.0056404338458449707 -0.023431118521690775
leaf_weight=3581.4333645394072 48.506594240665436 313.04342858307064 2036.6179990768433 227.22462263330817 535.17803112138063 121.30220603570342 580.81118863262236 11.318390548229216 141.27259194198996 551.47151439916342 56.017568778246641 717.78014500997961 46.541036505252123 279.51991096511483 585.01718415413052 13.210320103913544 16.966340564191341 173.38929410651326 36.544119816273451 30.595699992030859 1596.0118903424591 60.603671479970217 122.50932689011097 151.99942403100431 125.4446799941361 15.228439319878815 119.30300455540419 15.747560091316698 35.823020290583372 49.51530758664012
leaf_count=15004 335 2706 11319 2082 2874 735 4805 51 1381 4386 403 5615 212 1805 3388 99 99 526 146 145 9360 371 868 1041 758 58 1007 136 219 363
internal_value=-0.000160889 -0.0110407 -0.0139711 -0.018737 -0.00131387 -0.0110308 -0.0296769 -0.0252408 -0.00434159 -0.00784681 0.00663121 -0.0207455 0.0240963 -0.0132222 0.00761018 0.0119355 -0.0140324 0.0243612 0.0151554 0.00374408 -0.00524683 -0.0126966 -0.0141179 -0.0093551 -0.00189317 0.0232387 -0.0198969 -0.0268878 -0.00813987 -0.00662353
internal_weight=12395.9 8558.04 6576.37 4398.48 1981.67 2581.83 1816.65 1235.84 2177.89 2268.79 1220.02 1008.62 3837.91 290.838 1164 548.388 761.647 3791.37 209.933 615.613 1717.31 713.141 652.537 359.154 207.155 32.1948 293.383 170.874 51.5706 174.96
internal_count=72297 56409 44245 31545 12164 17187 14358 9553 12700 14481 6909 7471 15888 1856 6506 2973 5255 15676 672 3533 10095 4920 4549 2319 1278 157 2230 1362 355 1121
is_linear=0
shrinkage=0.05


Tree=9
num_leaves=31
num_cat=0
split_feature=8 7 8 7 8 7 7 7 7 7 8 7 8 7 7 7 7 7 8 7 7 8 7 7 4 3 7 7 3 7
split_gain=1131.68 110.376 132.206 131.492 114.968 70.2017 49.5052 45.1037 36.8012 30.9484 45.6485 23.359 18.4952 26.3458 75.8637 21.6504 16.6242 16.1228 21.1192 15.9738 15.4749 12.8923 10.8022 10.46 9.64881 9.98592 9.2278 8.78446 16.0563 17.449
threshold=1.0000000180025095e-35 -0.23850031717482292 0.93750000000000011 0.84219050326929101 0.5277777777777779 1.4970832511351511 0.050076523161752415 -1.0671281015698459 -0.077721791844445193 -0.60658302168576073 0.2678571428571429 1.268577508174761 0.35416666666666669 0.63410108098577378 0.27917119844936022 0.10955868821071976 0.16688143472655673 0.75090599255057811 0.64583333333333337 1.0000000180025095e-35 1.1484353134223912 0.69047619047619058 0.91168451788095584 -2.1554750422677871 172.50000000000003 0.78535690365440847 -0.68373315655125322 -0.48172936831565066 0.45302626442843302 -0.71023511127604066
decision_type=2 2 2 2 2 2 2 2 2 2 2 2 2 2 2 2 2 2 2 2 2 2 2 2 2 2 2 2 2 2
left_child=7 9 4 -4 8 11 -6 23 -3 10 26 20 16 14 15 -14 19 18 -8 -10 -5 -20 -19 -1 -7 -26 -2 28 -9 -30
right_child=1 2 3 5 6 24 17 27 12 -11 -12 -13 13 -15 -16 -17 -18 22 21 -21 -22 -23 -24 -25 25 -27 -28 -29 29 -31
leaf_value=0.032145330445545288 -0.0085385530231051245 -0.037853753597690602 0.010791498672853145 -0.033744415665369468 -0.0033966129930104688 0.0010764237220529051 -0.042539103578961825 -0.011890909614342889 -0.015544622199288583 -0.0039565107059897353 0.019044934687901263 -0.043457293793992928 -0.023152962770714654 -0.00071764737258159087 -0.042465847505716095 -0.007268228175380558 -0.018171679764210077 -0.061584973103690425 -0.021495803877604296 0.0053164868424673342 -0.01462352016377721 -0.032997583594879615 -0.03673392390435698 0.024586784805841297 0.0046272127430244054 -0.030425417398165452 -0.059753769064362111 0.020209163972430551 0.01971129788734197 0.0023465456921136084
leaf_weight=892.21557814162225 168.60350455716252 126.98915524035692 938.18471138179302 150.63484467938542 179.87038165424019 508.69632203411311 228.96617423649877 58.282374009490013 116.39808253198862 1264.0755958016962 411.06314454227686 139.11758809909225 279.62734085414559 349.49313838221133 227.2323930002749 918.1249156743288 146.90569091774523 57.842137599363923 681.2256774790585 419.29429669491947 361.8235678113997 390.1922831684351 222.58333356678486 998.10212805122137 32.519778438843787 52.127039288170636 8.3297101408243162 1048.0248689688742 555.6625912450254 195.86661443300545
leaf_count=3434 1188 1193 4662 1084 1191 2897 2126 340 971 7950 2089 1069 2215 2163 1895 5855 1118 543 5210 2470 2394 3220 1951 3982 210 341 78 4542 2436 1051
internal_value=-0.000106934 -0.0103215 -0.0133777 -0.00333737 -0.0184207 -0.0139852 -0.0282725 0.022727 -0.0116997 0.000451562 0.00991867 -0.0253024 -0.0103331 -0.0130226 -0.0160379 -0.0109929 -0.00333254 -0.0310991 -0.0287048 0.000763156 -0.0202988 -0.0257114 -0.0420605 0.0281695 -0.00153558 -0.017062 -0.0112719 0.0171771 0.0132331 0.0151948
internal_weight=12128.1 8379.92 6527.85 2183.1 4344.75 1244.92 1760.68 3748.15 2584.07 1852.07 587.996 651.576 2457.08 1774.48 1424.98 1197.75 682.598 1580.81 1300.38 535.692 512.458 1071.42 280.425 1890.32 593.343 84.6468 176.933 1857.84 809.812 751.529
internal_count=71868 56083 44778 12657 32121 7995 14241 15785 17880 11305 3355 4547 16687 12128 9965 8070 4559 13050 10556 3441 3478 8430 2494 7416 3448 551 1266 8369 3827 3487
is_linear=0
shrinkage=0.05


Tree=10
num_leaves=31
num_cat=0
split_feature=8 7 8 8 7 7 7 8 7 7 7 7 7 7 7 7 8 8 8 7 8 7 7 7 4 8 1 0 0 2
split_gain=1072.34 111.117 145.159 111.235 88.7193 60.9405 50.1637 36.1345 35.9011 33.796 35.7466 27.1305 17.8474 16.4619 41.8466 14.4673 13.8482 25.787 13.391 11.9275 10.213 10.5633 9.24553 24.0368 9.73815 9.04553 8.64214 8.11822 7.66445 7.45273
threshold=1.0000000180025095e-35 -0.23850031717482292 0.93750000000000011 0.58571428571428574 0.84219050326929101 -1.0671281015698459 1.4970832511351511 0.22500000000000003 0.050076523161752415 1.0000000180025095e-35 0.050076523161752415 -0.60658302168576073 1.3898975675815664 0.53594569311619045 0.38282328803964022 1.1484353134223912 0.69047619047619058 0.64583333333333337 0.47222222222222227 1.268577508174761 0.41428571428571431 0.27917119844936022 -0.48172936831565066 -0.71023511127604066 167.50000000000003 0.35416666666666669 3.7500000000000004 26.500000000000004 5.5000000000000009 0.9269735340980314
decision_type=2 2 2 2 2 2 2 2 2 2 2 2 2 2 2 2 2 2 2 2 2 2 2 2 2 2 2 2 2 2
left_child=5 7 3 9 -4 -1 12 -2 -5 28 18 -9 15 14 20 -6 17 -10 -11 -17 25 -22 23 -7 29 -12 -21 -13 -3 -25
right_child=1 2 4 8 6 22 -8 11 16 10 13 27 -14 -15 -16 19 -18 -19 -20 26 21 -23 -24 24 -26 -27 -28 -29 -30 -31
leaf_value=0.0284574088529027 -0.021902024662015518 -0.014836010399724717 0.0088361525286135677 -0.0071871214585496604 -0.032909825543644522 0.016735953063629457 -0.0010054176543441869 0.01240423270093614 -0.043555620893789795 0.0055209708131592379 -0.012963272352887779 -0.0010293403367215275 -0.057930415328811248 -0.0032811066918396062 -0.03872251862104268 -0.010674901774380659 -0.03745954097487382 -0.02322504566501165 -0.026451519580382266 -0.051133022775009619 -0.008704173677040598 -0.039220906090625313 0.018705085974826646 -0.011995416478667423 0.017561406267372046 -0.031729666819246348 -0.019725704681149508 -0.046722870198449278 -0.030129915164792284 0.024978672949494143
leaf_weight=1879.1459661778063 162.12401573173702 120.93106193095446 933.23013932909817 176.02535795979202 146.49846382811666 574.56222126819193 593.44815436564386 507.04251353442669 197.34490834735334 409.76701352000237 158.88489164412022 1174.7078644474968 30.527222391217947 354.40401178598404 167.68212670646608 372.88472987897694 552.82324980106205 770.62760722450912 34.596658138558269 32.128452360630035 918.50685174576938 28.366198487579823 1036.8090571435168 149.89958368800581 43.95642127841711 109.74230594560504 72.077094525098801 8.8025657515972835 276.35944361658767 14.048486709594725
leaf_count=7379 1239 962 4695 1206 1067 2626 3483 2815 1893 2419 1197 7282 223 2251 1461 2450 4714 6111 244 276 5987 220 4587 903 224 917 533 96 2520 55
internal_value=-0.000253333 -0.0102215 -0.0133183 -0.0186711 -0.00281871 0.0221397 -0.0115371 0.000572335 -0.0286122 -0.0121226 -0.00967197 0.0027393 -0.0210759 -0.0129069 -0.015369 -0.0191819 -0.0310857 -0.0274106 0.0029779 -0.0149065 -0.0121182 -0.0096588 0.0156021 0.0114719 -0.00308617 -0.0207192 -0.0298031 -0.00140835 -0.0255235 -0.00869493
internal_weight=12008 8309.53 6456.86 4276.06 2180.79 3698.42 1247.56 1852.68 1696.82 2579.24 2181.95 1690.55 654.116 1737.59 1383.18 623.589 1520.8 967.973 444.364 477.09 1215.5 946.873 1819.28 782.467 207.904 268.627 104.206 1183.51 397.291 163.948
internal_count=72035 56261 44829 32102 12727 15774 8032 11432 13924 18178 14696 10193 4549 12033 9782 4326 12718 8004 2663 3259 8321 6207 8395 3808 1182 2114 809 7378 3482 958
is_linear=0
shrinkage=0.05


Tree=11
num_leaves=31
num_cat=0
split_feature=8 8 8 8 8 8 8 8 0 0 8 8 1 8 2 0 3 4 2 0 3 2 0 2 4 4 4 5 4 3
split_gain=1073.27 91.077 127.305 107.53 53.9938 53.0283 19.0074 23.5049 17.1773 16.0594 14.0018 11.2006 7.93874 7.6904 6.79665 6.78025 6.36847 6.33714 5.68965 11.9945 9.67878 9.02869 7.75791 7.90882 11.9036 6.5878 8.12455 5.61592 5.74233 5.8743
threshold=1.0000000180025095e-35 0.35416666666666669 0.93750000000000011 0.5277777777777779 0.43650793650793657 0.30952380952380959 0.76388888888888895 0.64583333333333337 18.500000000000004 13.500000000000002 0.69047619047619058 0.22500000000000003 3.2500000000000004 0.73214285714285732 0.71430671098636378 23.500000000000004 0.96458063407756189 83.500000000000014 0.85856527919285608 9.5000000000000018 0.95151713376468283 0.85375998141112242 6.5000000000000009 0.86931353487325613 134.50000000000003 48.500000000000007 35.500000000000007 10.500000000000002 48.500000000000007 0.66868706990897464
decision_type=2 2 2 2 2 2 2 2 2 2 2 2 2 2 2 2 2 2 2 2 2 2 2 2 2 2 2 2 2 2
left_child=18 5 3 4 -3 11 7 -5 -4 17 16 -2 -7 -12 27 -13 -9 -6 19 20 -1 -21 23 24 -20 26 -25 -14 29 -29
right_child=1 2 8 6 9 12 -8 10 -10 -11 13 15 14 -15 -16 -17 -18 -19 22 21 -22 -23 -24 25 -26 -27 -28 28 -30 -31
leaf_value=0.025118737502180844 -0.020831390534137236 -0.03078515832265772 -0.0016071712762646313 -0.039540237477208279 -0.0095146314482814041 0.016496177971489272 -0.043744373755304405 -0.021361705980166804 -0.02078799328370275 -0.015049654405918475 -0.0629226296662245 -0.0058108121626596759 0.0068351803998373747 -0.029075994608117956 0.0077198405167657851 -0.036322256567104909 -0.010452212257999869 -0.0028347890987029598 0.012527573821004945 0.019197248871716643 0.036627876588758636 0.051413189907760441 0.023097492128718713 0.016121752077936327 -0.037363534127466146 0.020207405742688062 -0.016927892198109227 -0.016021301082850006 -0.01086973713931649 0.020935238815019033
leaf_weight=1357.3561987485737 198.30093728937209 297.24618050362915 2010.0041580535471 251.3926247684285 565.63496749848127 167.89892279170454 157.86627900786698 785.59303493984044 122.93956721853465 589.22267006337643 17.450909566134214 513.38084474205971 136.0135769341141 382.31689901649952 658.09396404959261 17.931048851460218 164.8321486171335 954.47654091753066 35.22628615796566 1083.7316676042974 217.28493948839605 21.58915638178587 599.04416082426906 48.366555258631706 16.859072082675993 287.60005085729063 28.864888194948435 15.124562310054896 155.59750387258828 31.79681945219636
leaf_count=5614 1553 2703 11278 2350 3523 853 1285 6223 1354 4941 177 3550 780 3297 3923 177 1203 5752 147 5201 826 69 2512 198 67 1037 124 113 1056 176
internal_value=0.000322392 -0.00976747 -0.0126579 -0.017743 -0.0108674 -0.000153765 -0.0271361 -0.0254727 -0.00272195 -0.00804732 -0.0228262 -0.0107147 0.00646652 -0.0307068 0.00476201 -0.00690683 -0.0194826 -0.00532499 0.0226862 0.0239096 0.0267291 0.0198724 0.0194386 0.0141385 -0.00402089 0.016735 0.00371111 -0.000993685 -0.00625937 0.00893699
internal_weight=11889 8193.11 6298.98 4166.03 2406.58 1894.14 1759.45 1601.59 2132.94 2109.33 1350.19 729.613 1164.53 399.768 996.626 531.312 950.425 1520.11 3695.92 2679.96 1574.64 1105.32 1015.96 416.917 52.0854 364.831 77.2314 338.532 202.519 46.9214
internal_count=72062 56267 44086 31454 16919 12181 14535 13250 12632 14216 10900 5280 6901 3474 6048 3727 7426 9275 15795 11710 6440 5270 4085 1573 214 1359 322 2125 1345 289
is_linear=0
shrinkage=0.05


Tree=12
num_leaves=31
num_cat=0
split_feature=8 7 8 7 8 7 7 7 8 7 7 7 8 7 7 8 8 7 7 7 7 7 6 6 8 8 8 7 7 8
split_gain=974.91 108.406 130.604 106.785 94.4469 54.0262 45.2548 33.5804 30.8487 28.926 26.8656 26.2537 17.7326 22.8248 44.3402 16.9535 20.214 15.601 14.706 12.7719 12.022 11.4612 11.1077 19.7324 9.41681 31.8409 12.7237 8.80432 8.69494 8.68058
threshold=1.0000000180025095e-35 -0.23850031717482292 0.93750000000000011 0.84219050326929101 0.5277777777777779 1.4970832511351511 -1.1366221161815113 0.050076523161752415 0.22500000000000003 -0.077721791844445193 -0.60658302168576073 1.268577508174761 0.35416666666666669 0.63410108098577378 0.27917119844936022 0.76388888888888895 0.64583333333333337 0.10955868821071976 1.1484353134223912 0.55655832456880294 0.16688143472655673 -1.9163685174174818 0.26054490192100738 0.24081439798707785 0.35416666666666669 0.47222222222222227 0.30952380952380959 -0.4534606166092105 1.3898975675815664 0.69047619047619058
decision_type=2 2 2 2 2 2 2 2 2 2 2 2 2 2 2 2 2 2 2 2 2 2 2 2 2 2 2 2 2 2
left_child=6 8 4 -4 9 11 21 -6 -2 -3 -10 18 20 14 17 16 -9 -14 -5 -17 -11 -1 23 -18 26 -26 27 -12 -13 -24
right_child=1 2 3 5 7 -7 -8 15 10 12 24 28 13 -15 -16 19 22 -19 -20 -21 -22 -23 29 -25 25 -27 -28 -29 -30 -31
leaf_value=0.03161869854618992 -0.019544684950788049 -0.035221959142380958 0.010524365243722579 -0.030211576660513634 -0.0059277567638407209 -0.0010642833505142826 0.016325352416047875 -0.041099717699159218 0.013400543535087479 0.00040548243937960538 0.0055983016132325151 -0.034639844045023939 -0.022363772461953552 -0.0012238201475674093 -0.036557812665851307 -0.0172929101957102 -0.024451122997076479 -0.0084808729180689633 -0.011466642131342138 -0.052719765675359548 -0.015758823710289457 0.023569561834074833 -0.022734065541744314 0.022476614445440551 -0.0352925480731466 -0.00042249543496578968 0.0096373907724868202 -0.012660542487374422 -0.066507451603959655 -0.032594912718041109
leaf_weight=887.62428364530206 156.91674603335559 119.30537284445018 920.76725813234225 148.4904938256368 175.70690026693046 583.08715126197785 1808.5490430416539 221.73399343155324 488.86138206720352 521.01904566027224 116.00270977243781 96.277342867106199 264.38524999283254 340.11070360988379 213.87954429164529 33.981916947290301 63.4779755435884 863.98507376108319 356.99987207353115 118.13757970184088 146.60010494291782 926.98185081593692 695.47641571424901 33.397245068103075 75.723894229158759 446.36353609338403 361.79762822762132 150.8765918277204 29.422336637973785 342.70983996987343
leaf_count=3489 1234 1194 4633 1069 1205 3447 8452 2148 2763 3453 730 807 2203 2178 1863 244 522 5914 2410 1038 1147 3877 5731 190 734 2849 2051 988 237 3095
internal_value=0.000389597 -0.00926839 -0.0123623 -0.00231035 -0.0175271 -0.0120434 0.0219391 -0.0266537 0.00156313 -0.0112924 0.00359388 -0.022168 -0.0100631 -0.0127981 -0.0157278 -0.0290616 -0.0272461 -0.0117507 -0.0170218 -0.0449704 -0.00316224 0.0275221 -0.024506 -0.00820867 -0.000580146 -0.00553787 0.00353927 -0.00473282 -0.0425651 -0.0260174
internal_weight=11708.6 8085.49 6288.95 2135.04 4153.91 1214.28 3623.16 1684.62 1796.54 2469.29 1639.63 631.19 2349.98 1682.36 1342.25 1508.91 1356.8 1128.37 505.49 152.119 667.619 1814.61 1135.06 96.8752 1150.76 522.087 628.677 266.879 125.7 1038.19
internal_count=71895 56077 44728 12603 32125 7970 15818 14173 11349 17952 10115 4523 16758 12158 9980 12968 11686 8117 3479 1282 4600 7366 9538 712 7352 3583 3769 1718 1044 8826
is_linear=0
shrinkage=0.05


Tree=13
num_leaves=31
num_cat=0
split_feature=7 7 0 7 7 7 7 7 0 2 3 7 7 7 7 7 7 2 7 0 6 6 4 3 7 0 2 2 3 3
split_gain=830.748 164.945 46.324 34.3122 63.3407 37.058 39.6378 20.8697 15.5647 11.7626 13.9637 10.8041 10.0166 13.5745 9.91627 16.2228 11.7206 9.5155 9.44337 9.29105 9.05056 7.85333 7.47617 7.22806 6.43086 6.29385 6.05611 9.88493 6.55882 6.51212
threshold=-0.23850031717482292 -1.1366221161815113 16.500000000000004 1.4970832511351511 0.75090599255057811 0.63410108098577378 0.25718439156657341 -0.077721791844445193 14.500000000000002 0.63925612085064043 0.19937247915521503 -1.7019971503103115 0.99531290834584063 1.2191071926884911 -0.75970542676231079 -0.43284798515659806 -0.52295463122087571 0.7059420630653428 0.38282328803964022 24.500000000000004 0.76894084696812814 0.29698630972365775 29.500000000000004 0.55383794686673971 1.1484353134223912 6.5000000000000009 0.66225771288909852 0.62932526650937881 0.98816440716243314 0.98480406469593207
decision_type=2 2 2 2 2 2 2 2 2 2 2 2 2 2 2 2 2 2 2 2 2 2 2 2 2 2 2 2 2 2
left_child=1 11 3 4 5 6 7 -2 14 10 -5 26 -6 24 21 16 17 -16 25 -4 -10 -3 -12 -11 -14 -8 27 -1 29 -28
right_child=2 8 19 9 12 -7 18 -9 20 23 22 -13 13 -15 15 -17 -18 -19 -20 -21 -22 -23 -24 -25 -26 -27 28 -29 -30 -31
leaf_value=0.032376463415498491 -0.031363628287891687 0.029647344255978064 -0.019755433788351054 0.031449344424615389 -0.038786623140138442 -0.0029628924723255783 -0.011660599123928209 -0.0073152459845350834 0.00067314755163690784 0.03913000346232242 0.017191741972879732 0.022813878960451228 -0.027114745908070722 -0.039624588681275948 -0.0086289705430036782 0.01093421143093865 -0.019863938004839994 0.0084172857246997326 -0.030222403527243365 -0.034191838326885882 0.017456571361410021 0.013458608873952393 -0.022382751882088846 0.0045717605718652091 -0.01494026851764114 -0.023826388212458357 0.02727829297538531 0.058119460679229046 0.043567606177065163 -0.0069025094779574777
leaf_weight=206.94356327876449 94.917004919145256 86.747481092810631 971.5054318648763 15.647962678223847 116.56270422134548 1524.6972526786849 201.44203808810562 1554.9329975997098 750.77609903365374 14.761244736611841 12.818217929452656 858.43998601287603 167.60007829405367 97.563443828374147 114.96202404238284 1593.5674260407686 61.643099239096045 277.91666398197412 271.63582683354616 127.70160181634128 88.962156165391207 558.48288531042635 98.460155382752419 396.271958142519 323.3671696446836 233.04427675809711 626.1197258234024 47.599196005612612 64.214860251173377 13.881009668111799
leaf_count=802 928 376 8997 73 1040 8937 1500 10557 5079 60 49 3594 1317 802 776 8087 467 1545 2313 1294 487 2780 541 2188 2151 1985 2590 164 212 64
internal_value=0.000271282 0.0147172 -0.0121492 -0.0101474 -0.0115486 -0.00903929 -0.0129688 -0.00871693 0.00841693 0.00179588 -0.0114524 0.026955 -0.0253268 -0.0225997 0.0102695 0.00855897 0.000225565 0.00342006 -0.0228769 -0.0214622 0.00246984 0.0156776 -0.0177116 0.00590479 -0.0191429 -0.0182257 0.0306351 0.037399 0.0281407 0.0265273
internal_weight=11573.2 5350.26 6222.93 5123.72 4585.76 3880.67 2355.97 1649.85 3533.06 537.96 126.926 1817.2 705.093 588.531 2693.32 2048.09 454.522 392.879 706.122 1099.21 839.738 645.23 111.278 411.033 490.967 434.486 958.758 254.543 704.216 640.001
internal_count=71755 27023 44732 34441 31530 26220 17283 11485 19597 2911 663 7426 5310 4270 14031 10875 2788 2321 5798 10291 5566 3156 590 2248 3468 3485 3832 966 2866 2654
is_linear=0
shrinkage=0.05


Tree=14
num_leaves=31
num_cat=0
split_feature=8 8 8 8 8 8 8 8 0 0 0 6 0 2 6 3 0 4 6 2 0 6 4 3 0 8 8 6 2 2
split_gain=887.288 72.5948 97.068 105.082 51.0543 42.7937 16.9658 27.0719 10.4468 9.88601 8.43939 8.2721 8.23762 7.85473 7.52477 7.42225 7.68839 9.88413 9.5898 7.06759 9.14077 6.3804 5.92535 5.84449 5.82688 5.53183 6.72842 5.44107 6.48557 5.43608
threshold=1.0000000180025095e-35 0.35416666666666669 0.93750000000000011 0.5277777777777779 0.30952380952380959 0.47222222222222227 0.69047619047619058 0.64583333333333337 16.500000000000004 25.500000000000004 10.500000000000002 0.49419877760273628 2.5000000000000004 0.81468038910772533 0.73543339746414982 0.85431135350201537 1.5000000000000002 167.50000000000003 0.68872561273369526 0.78675272208674141 3.5000000000000004 0.29909995249647997 68.500000000000014 0.87011148776508451 12.500000000000002 0.73214285714285732 0.76388888888888895 0.8313731944936692 0.89165472301423787 0.73667310667593811
decision_type=2 2 2 2 2 2 2 2 2 2 2 2 2 2 2 2 2 2 2 2 2 2 2 2 2 2 2 2 2 2
left_child=24 4 3 5 10 -3 7 -5 11 -7 12 13 -2 -4 21 -13 17 -17 -18 23 -21 -12 -23 -6 -1 -8 -27 -9 -29 -25
right_child=1 2 8 6 19 9 25 27 -10 -11 14 15 -14 -15 -16 16 18 -19 -20 20 -22 22 -24 29 -26 26 -28 28 -30 -31
leaf_value=0.021844939400785073 -0.01810856088298014 -0.027598894779904466 0.0055700923260436292 -0.03727432490704545 0.0044807144626838888 -0.0068818169053271889 -0.062178241170873075 -0.019419843378025312 -0.014058783800832364 -0.044833969995604753 -0.002605350553473143 -0.0092394910779858268 -0.0012888057574972911 -0.0049111322438173954 0.0025207237129741536 0.019585271845302898 -0.0087998568515993501 -0.02011741655250426 0.0062260351564395978 -0.0038907934775294951 0.013014495707159405 -0.036045649352624928 -0.018255115748309483 -0.00028642298159213477 0.017125027900010917 -0.028643773880576363 -0.041433260026033973 -0.010903226869041459 0.037339839712822169 -0.023548880649682899
leaf_weight=2617.876338917762 100.17300104349852 293.62246625870466 495.90830745361745 248.75582895986736 464.32470884919167 2027.0650766147301 16.491308730095625 864.20284532755613 203.3884136066772 16.341937035322189 45.601308472454548 523.58030475489795 260.15113517083228 278.24983443692327 42.76578089222312 78.011998325586319 307.5054022539407 18.691967831924558 161.05367372557521 96.987820751965046 444.12526808306575 64.663460284471512 184.09319091960788 73.254436613991857 904.77999704983085 371.00523299910128 153.70774506963789 30.142914099618793 7.9740162864327422 37.235261140391231
leaf_count=11052 806 2732 2809 2418 2933 14067 181 7074 2094 213 327 2998 1688 1642 288 348 1838 130 776 659 2493 637 1518 508 4747 3276 1299 236 33 271
internal_value=-0.000231177 -0.00952756 -0.0121399 -0.0166575 -0.000744272 -0.00977983 -0.0261441 -0.0226687 -0.00332712 -0.00720712 -0.0113474 -0.0021486 -0.00600201 0.00180143 -0.0170259 -0.00495611 -0.000979283 0.0117838 -0.00363288 0.00588682 0.00998284 -0.0198647 -0.0230055 0.00202031 0.0206379 -0.0334805 -0.032462 -0.0186053 -0.000114271 -0.00826682
internal_weight=11431.7 7909.07 6095.7 4029.31 1813.38 2337.03 1692.28 1151.08 2066.39 2043.41 697.448 1863 360.324 774.158 337.124 1088.84 565.263 96.704 468.559 1115.93 541.113 294.358 248.757 574.814 3522.66 541.204 524.713 902.32 38.1169 110.49
internal_count=72091 56292 44164 31529 12128 17012 14517 9761 12635 14280 5264 10541 2494 4451 2770 6090 3092 478 2614 6864 3152 2482 2155 3712 15799 4756 4575 7343 269 779
is_linear=0
shrinkage=0.05


Tree=15
num_leaves=31
num_cat=0
split_feature=7 7 0 7 7 7 7 7 7 7 7 7 7 7 4 7 7 7 7 7 0 7 7 4 0 6 3 7 6 6
split_gain=788.722 175.233 29.4396 27.269 77.4099 39.3614 36.2453 20.2889 15.5071 14.5078 14.184 14.0105 11.9331 10.6632 9.44593 9.25865 7.38747 26.7908 12.4618 14.218 8.30855 7.35642 14.933 9.16354 8.79983 7.53813 7.13303 6.7995 5.35905 5.27596
threshold=-0.23850031717482292 -1.1366221161815113 13.500000000000002 1.4970832511351511 0.75090599255057811 0.63410108098577378 0.25718439156657341 -0.75970542676231079 -1.7019971503103115 -0.077721791844445193 0.75090599255057811 -0.65075294622707325 -1.024724974010186 0.91168451788095584 24.500000000000004 0.99531290834584063 1.0000000180025095e-35 0.050076523161752415 0.53594569311619045 0.38282328803964022 24.500000000000004 -0.43284798515659806 -0.52295463122087571 89.500000000000014 21.500000000000004 0.79746041899096898 0.14688304903247354 0.45545827506313191 0.66850305929905096 0.70499766601758795
decision_type=2 2 2 2 2 2 2 2 2 2 2 2 2 2 2 2 2 2 2 2 2 2 2 2 2 2 2 2 2 2
left_child=1 8 3 4 5 6 9 12 29 -2 16 -9 -3 -12 -13 -6 -4 -18 19 -19 -20 22 23 -16 -23 -24 -5 -8 -26 -1
right_child=2 7 10 26 15 -7 27 11 -10 -11 13 14 -14 -15 21 -17 17 18 20 -21 -22 24 25 -25 28 -27 -28 -29 -30 -31
leaf_value=0.029035292699224325 -0.029711537394572902 -0.0056422743482688904 -0.026221964670734101 0.04047558003699181 -0.044150006475950299 -0.0021442569533013751 -0.021782330845121278 -0.019825456205429338 0.021529078313142019 -0.0077057542064054192 -0.055967371517359088 0.016445971108594849 0.015796026588446543 -0.024172821259251756 -0.0068122271296798724 -0.026286082036180543 0.0033904537403151068 -0.017940288110622191 -0.0089110591946355705 -0.036194211292316245 -0.040551334320821239 0.0069021179484923256 -0.025040181160628974 0.0080636863319137574 -0.0052454348215969608 0.019517750500251934 0.0002144922196596977 -0.038491705434914918 -0.043548464051407318 0.038843015853003114
leaf_weight=758.2930850237608 78.661177911795676 70.442016752436757 151.65093382494524 10.2897956892848 88.92567681428045 1285.0380163015798 509.43737767543644 54.590506063774228 836.4394524730742 1299.6883257385343 28.228262079879642 183.89828226529062 763.27587412577122 365.29677644278854 153.57536724582314 458.63965835794806 178.84027176909149 505.83446535421535 386.0229362193495 136.4210682278499 21.049806977622211 1750.2585417916998 74.508015618659556 312.85690672136843 52.636471020057797 10.106391649693249 430.93540820293128 70.769709049724042 10.146864591166375 181.41600502841175
leaf_count=3213 787 462 1523 42 852 7537 4253 434 3607 8733 268 1025 3917 3261 1036 3576 1358 4642 3332 1341 258 9741 639 1831 436 52 2498 622 107 587
internal_value=-0.000439431 0.0137901 -0.0127896 -0.010519 -0.0118879 -0.00894666 -0.0134064 0.00719538 0.0265376 -0.00898223 -0.0181999 0.00501741 0.0139801 -0.0265896 0.00555724 -0.0292624 -0.0157896 -0.0144812 -0.0175274 -0.0218678 -0.0106425 0.00470363 -0.000355262 0.00316162 0.00624055 -0.0195523 0.00124282 -0.0238831 -0.0120216 0.030968
internal_weight=11218.2 5212.44 6005.73 4232.39 3791.16 3243.59 1958.56 3436.3 1776.15 1378.35 1773.34 2602.58 833.718 393.525 2547.99 547.565 1379.82 1228.17 1049.33 642.256 407.073 2364.09 551.047 466.432 1813.04 84.6144 441.225 580.207 62.7833 939.709
internal_count=71970 27087 44883 28900 26360 21932 14395 19680 7407 9520 15983 15301 4379 3529 14867 4428 12454 10931 9573 5983 3590 13842 3558 2867 10284 691 2540 4875 543 3800
is_linear=0
shrinkage=0.05


Tree=16
num_leaves=31
num_cat=0
split_feature=8 7 8 7 8 7 7 7 7 8 7 7 7 7 7 8 7 8 8 8 8 8 7 7 8 7 7 3 2 0
split_gain=849.039 98.3393 82.7232 101.167 89.9685 49.9536 42.4208 32.3566 31.5379 28.2253 26.512 22.3566 18.5623 14.1773 29.5689 13.8307 12.6779 15.6908 11.6358 9.80966 13.931 9.63541 9.17347 31.9781 7.82715 7.8181 11.2877 7.36454 7.80082 6.73077
threshold=1.0000000180025095e-35 -0.23850031717482292 0.93750000000000011 0.84219050326929101 0.58571428571428574 1.4970832511351511 -1.7019971503103115 0.050076523161752415 1.0000000180025095e-35 0.22500000000000003 -0.60658302168576073 1.3898975675815664 0.050076523161752415 0.53594569311619045 0.25718439156657341 0.38750000000000007 0.38282328803964022 0.64583333333333337 0.76388888888888895 0.22500000000000003 0.41428571428571431 0.30952380952380959 -0.71023511127604066 -0.48172936831565066 0.47222222222222227 1.268577508174761 1.1484353134223912 0.92666558579420266 0.76860925864129559 22.500000000000004
decision_type=2 2 2 2 2 2 2 2 2 2 2 2 2 2 2 2 2 2 2 2 2 2 2 2 2 2 2 2 2 2
left_child=6 9 4 -4 8 11 -1 -6 29 -2 21 25 24 14 19 -16 17 -9 -18 -14 -21 -11 -8 -24 -10 26 -5 -25 -29 -3
right_child=1 2 3 5 7 -7 22 16 12 10 -12 -13 13 -15 15 -17 18 -19 -20 20 -22 -23 23 27 -26 -27 -28 28 -30 -31
leaf_value=0.029638949768521869 -0.019948551572535739 -0.021829024040095207 0.0090457382565615769 -0.031124835990530245 -0.0044442030171396169 -0.0027507418203441339 0.019844921089707 -0.038844279091686688 0.0035052068433486325 -0.00072279975809388507 -0.0011200550528466474 -0.067626125122180164 0.03820512092423211 -0.0011910382740441862 -0.0099918769435905271 -0.032677490901675529 -0.02903919303144753 -0.016482749308487501 -0.044931060660495764 -0.025049597783909291 -0.0065896189738584264 0.016691725701332677 -0.0051686203046735716 0.020353608257452853 -0.022294959274168913 -0.035282274115678969 -0.01394433782754703 0.025878141910026548 0.0066909787196007837 -0.048570765635593233
leaf_weight=919.93128442019224 143.57721062004566 344.89216925855726 848.56911810906604 136.15442621149123 161.93206585664302 529.3248357642442 1398.3429861711338 99.628062377218157 383.13794747553766 100.68695230036974 1103.0354286823422 27.156532302498817 10.233991451561449 336.78379396628588 97.526343241333961 223.55424462491646 827.60858899261802 374.25833863951266 138.05364628694952 115.72078320477158 835.75369876995683 373.81769680604339 186.18958091549575 671.42951247654855 30.836908539757133 89.602764580398798 328.32827350869775 67.362314779311419 240.87582266144454 25.157379485666752
leaf_count=3802 1220 3228 4619 1072 1189 3489 6285 1056 2428 713 7348 237 46 2258 785 2023 7367 3197 1225 993 5905 2065 1171 3211 229 805 2427 252 1099 296
internal_value=-4.90213e-05 -0.00933075 -0.0123686 -0.00394655 -0.0164864 -0.013873 0.0204215 -0.0256653 -0.0103624 0.00119746 0.00313345 -0.0239797 -0.00791157 -0.0103255 -0.0127208 -0.0258393 -0.0280477 -0.0212558 -0.0313553 -0.00831872 -0.00885871 0.0130027 0.0171044 0.0138032 0.00153426 -0.0217225 -0.0190365 0.0174104 0.0109543 -0.023773
internal_weight=11169.5 7685.33 5964.21 1959.14 4005.08 1110.57 3484.13 1601.48 2403.6 1721.12 1577.54 581.242 2033.55 1619.57 1282.79 321.081 1439.55 473.886 965.662 961.708 951.474 474.505 2564.2 1165.86 413.975 554.085 464.483 979.668 308.238 370.05
internal_count=72040 56220 44874 12649 32225 8030 15820 14034 18191 11346 10126 4541 14667 12010 9752 2808 12845 4253 8592 6944 6898 2778 12018 5733 2657 4304 3499 4562 1351 3524
is_linear=0
shrinkage=0.05


Tree=17
num_leaves=31
num_cat=0
split_feature=7 7 7 7 7 7 7 7 7 7 7 7 7 7 7 6 6 7 6 6 6 6 4 2 3 6 7 2 5 1
split_gain=697.994 150.858 23.6722 78.3048 33.8469 48.4497 26.884 19.9977 21.5574 14.3749 14.0224 16.7018 13.8062 10.7736 12.9215 9.08971 6.48987 6.29157 6.06765 6.9763 5.7632 5.744 7.07957 6.77723 5.56 7.36049 5.29811 5.29387 5.65908 5.26454
threshold=-0.23850031717482292 -0.92696220769208104 0.75090599255057811 1.4970832511351511 0.63410108098577378 0.25718439156657341 1.0000000180025095e-35 1.2191071926884911 0.99531290834584063 0.050076523161752415 -0.75970542676231079 -0.65075294622707325 -1.7019971503103115 0.38282328803964022 0.33865336349832759 0.51556984943208339 0.36949967944246515 -0.8798476215146811 0.86942119780926996 0.75425251333570154 0.42112593198498882 0.15699650677747576 26.500000000000004 0.68473112560738869 0.94090502314036117 0.60972475367953638 -0.077721791844445193 0.86229400111840282 6.5000000000000009 3.4500000000000006
decision_type=2 2 2 2 2 2 2 2 2 2 2 2 2 2 2 2 2 2 2 2 2 2 2 2 2 2 2 2 2 2
left_child=1 12 4 7 5 6 26 8 -4 29 17 -12 -1 14 -7 21 27 -3 19 -14 -10 -13 23 -23 -18 -26 -2 28 -5 -8
right_child=2 10 3 16 -6 13 9 -9 20 -11 11 15 18 -15 -16 -17 24 -19 -20 -21 -22 22 -24 -25 25 -27 -28 -29 -30 -31
leaf_value=0.028793072323333418 -0.029025754613119376 -0.0085665691313961383 -0.040333582948368696 0.002511285274650242 -0.0043173118374633061 -0.033918295567108847 0.0090919033335765797 -0.046462334424997725 -0.011379899830750906 -0.0093967911147799441 -0.023020233036863836 -0.025884021104584716 0.019499943330971527 -0.029407556929531092 -0.014418729861117023 0.0083866316923133146 -0.0092788458024924258 0.015023441946279107 -0.010197119825916659 0.033309562057546843 -0.022607466918298947 0.033508029160836027 0.0013603709255287251 0.007014567167236932 -0.0092350845582662468 0.0158715451394691 -0.016430790270047048 -0.014701296973383246 0.026228773808239271 -0.0022261029337061538
leaf_weight=906.0872521288693 128.02327099489048 29.233155332505703 156.04446278978139 62.207009368576109 1669.5916258567013 105.58996917167678 136.22392845526338 115.31100886128843 167.33980493899435 1047.0221800878644 50.996257429942489 16.764138892292976 981.86231625359505 368.70064136851579 439.74646698869765 1356.4383946238086 283.02167864702642 530.19149016775191 15.427311023697255 102.60856543015689 385.0695176506415 31.745654225349426 1000.8096030363813 94.900433352217078 55.721481250599027 59.241444473154843 258.54804939962924 21.34911198168993 41.495490624569356 407.96640963293612
leaf_count=3825 1316 223 1504 424 11061 1059 812 1083 1274 7818 438 117 4493 3397 3655 7873 2000 2773 89 434 3141 145 6284 537 372 317 2352 171 169 2824
internal_value=-6.04205e-06 0.0135108 -0.0117132 -0.0175399 -0.00998928 -0.0132614 -0.00885412 -0.0271374 -0.023931 -0.00597334 0.00661348 0.00503803 0.0241991 -0.0227776 -0.0182495 0.00561919 -0.00240121 0.0137776 0.0203919 0.020836 -0.019233 0.00233402 0.00277616 0.013866 -0.00552176 0.00372789 -0.0206661 0.00749514 0.0121615 0.000618546
internal_weight=11025.3 5117.06 5908.21 1346.8 4561.41 2891.82 1977.78 823.765 708.454 1591.21 3111.08 2551.65 2005.99 914.037 545.336 2500.66 523.036 559.425 1099.9 1084.47 552.409 1144.22 1127.46 126.646 397.985 114.963 386.571 125.052 103.702 544.19
internal_count=71980 27231 44749 10455 34294 23233 15122 7002 5919 11454 18390 15394 8841 8111 4714 14956 3453 2996 5016 4927 4415 7083 6966 682 2689 689 3668 764 593 3636
is_linear=0
shrinkage=0.05


Tree=18
num_leaves=31
num_cat=0
split_feature=8 7 8 8 7 7 7 7 8 8 8 7 7 8 8 4 7 7 3 8 8 6 7 8 2 7 2 7 7 7
split_gain=802.06 80.5489 98.84 96.5648 83.5605 51.955 34.8084 33.3173 24.5413 28.2244 24.1438 22.5983 18.8701 17.5426 15.757 10.2399 9.26743 8.76674 8.6486 8.51885 11.5755 9.78551 8.39744 8.28935 7.9175 7.42926 6.86337 6.69757 6.62375 6.47747
threshold=1.0000000180025095e-35 -0.23850031717482292 0.93750000000000011 0.5277777777777779 0.84219050326929101 1.4970832511351511 -1.0671281015698459 0.050076523161752415 0.30952380952380959 0.35416666666666669 0.47222222222222227 1.0000000180025095e-35 1.3898975675815664 0.69047619047619058 0.64583333333333337 28.500000000000004 -0.56535775878053551 0.050076523161752415 0.8944548978871466 0.22500000000000003 0.41428571428571431 0.36764805927581218 -1.7019971503103115 0.47222222222222227 0.9269735340980314 -0.83037730602841098 0.96353981067614536 0.33865336349832759 -0.035318664284785306 1.0518504117587211
decision_type=2 2 2 2 2 2 2 2 2 2 2 2 2 2 2 2 2 2 2 2 2 2 2 2 2 2 2 2 2 2
left_child=6 8 3 11 -4 12 22 -5 -2 25 24 28 29 14 -9 -8 -12 23 -17 -19 21 -21 26 -13 -11 -10 -1 -23 -3 -6
right_child=1 2 4 7 5 -7 15 13 9 10 16 17 -14 -15 -16 18 -18 19 -20 20 -22 27 -24 -25 -26 -27 -28 -29 -30 -31
leaf_value=0.028872432235780884 -0.0091005984935781728 -0.020285798778108752 0.0090952371512104165 -0.0044063896921995652 -0.030456597593270653 -0.00038788260866831067 0.026398190877242312 -0.035953342251134467 0.0286829657369242 -0.03309524626312671 0.014699068803075864 0.0008617882694328797 -0.064400927121562188 -0.035646900992912345 -0.020497106039078016 0.010290439724891125 -0.0025725160925804736 0.036348140661091592 0.017926507960779228 -0.0018633471611273406 -0.0079398875840919359 -0.032942315473397037 0.021279637603533713 -0.025993145888117564 0.02249479329085774 0.010031537938663026 -0.0091061921484525653 -0.013423691871399161 -0.063897105900407175 -0.017248008777011069
leaf_weight=890.20668904110789 478.14350584149361 352.18937473138794 848.16389999072999 163.71661947015673 122.09584474749863 516.56884671747684 174.01106336712837 216.61808092100546 58.655286692082882 75.023904128931463 94.023495718836784 369.62542044743896 24.651245910674334 518.37132493872195 722.96205333992839 871.09525421541184 424.23733693640679 9.1061730049550516 653.70869982987642 58.682010066695511 1325.1931000798941 113.06308504752815 818.76204854808748 30.152603466063738 6.306758500635623 546.65747926384211 11.629936737939714 75.019751339219511 8.1803546175360662 418.53348581213504
leaf_count=3778 3598 3384 4643 1234 1002 3476 719 2186 283 742 542 2435 236 4768 6214 4539 2862 39 3205 463 9658 1024 3610 237 41 3243 44 665 108 3328
internal_value=-0.000102208 -0.00917459 -0.0119295 -0.0164476 -0.00264865 -0.0118557 0.0199951 -0.0258235 0.000472437 0.00427571 -0.00341137 -0.00994502 -0.0223161 -0.0282238 -0.0240949 0.0149021 0.000583189 -0.00784221 0.0135738 -0.00951394 -0.00980255 -0.0197331 0.0250119 -0.0012235 -0.0285637 0.0118832 0.0283731 -0.0252692 -0.0214499 -0.0202818
internal_weight=10995.4 7575.94 5892.89 3962.88 1930.01 1081.85 3419.41 1621.67 1683.05 1204.9 599.591 2341.21 565.281 1457.95 939.58 1698.82 518.261 1980.84 1524.8 1581.06 1571.96 246.765 1720.6 399.778 81.3307 605.313 901.837 188.083 360.37 540.629
internal_count=72306 56411 45100 32415 12685 8042 15895 14402 11311 7713 4187 18013 4566 13168 8400 8463 3404 14521 7744 11849 11810 2152 7432 2672 783 3526 3822 1689 3492 4330
is_linear=0
shrinkage=0.05


Tree=19
num_leaves=31
num_cat=0
split_feature=8 7 8 7 8 7 7 8 7 7 7 7 8 7 8 8 8 7 7 7 8 8 7 7 3 0 8 7 7 6
split_gain=757.132 69.4199 88.3391 89.4474 85.2299 44.5151 42.3503 28.1825 23.9406 22.4332 18.7944 15.6642 12.8237 20.1728 11.8605 16.6441 11.6301 13.9006 27.0531 15.4136 10.0603 9.80756 9.18325 8.70734 7.07358 6.64054 6.62708 5.86653 5.68287 5.4873
threshold=1.0000000180025095e-35 -0.23850031717482292 0.93750000000000011 0.84219050326929101 0.5277777777777779 -1.1366221161815113 1.4970832511351511 0.30952380952380959 0.050076523161752415 -0.56535775878053551 -0.077721791844445193 1.268577508174761 0.76388888888888895 0.33865336349832759 0.35416666666666669 0.47222222222222227 0.35416666666666669 0.63410108098577378 0.27917119844936022 0.10955868821071976 0.64583333333333337 0.69047619047619058 1.1484353134223912 0.16688143472655673 0.52618681996475691 13.500000000000002 0.22500000000000003 -1.7019971503103115 -0.43284798515659806 0.4374582257410552
decision_type=2 2 2 2 2 2 2 2 2 2 2 2 2 2 2 2 2 2 2 2 2 2 2 2 2 2 2 2 2 2
left_child=5 7 4 -4 10 27 11 26 -6 -9 -3 22 20 -14 -11 -16 23 18 19 -18 -10 -22 -5 24 -12 -19 -2 -1 -28 -26
right_child=1 2 3 6 8 -7 -8 9 12 14 16 -13 13 -15 15 -17 17 25 -20 -21 21 -23 -24 -25 29 -27 28 -29 -30 -31
leaf_value=0.02802356285033418 -0.019069658813989525 -0.02952496005479309 0.0094442230827928436 -0.028640163315883857 -0.0061922199683068745 0.013777393335216959 -0.0018267924708496642 0.01476769229628952 -0.034964362376334032 0.0069569157887543519 0.014874032929309378 -0.038650849929639602 0.040347521166901351 -0.044702939360591269 -0.027472876330559889 -0.0013738989743522663 -0.020792426878903741 0.0024149887467536778 -0.029581230165051611 -0.0066009938871852544 -0.019471729074731523 -0.029594015518898384 -0.012892274065479936 -0.01384190300678185 0.0058432920981703884 -0.015007791220777795 -0.0010068690326901506 0.02205727652459253 -0.014266207580885879 -0.0062466774722212534
leaf_weight=915.01547352038324 141.900844655931 111.49526013340801 854.88572732312605 131.31857157871127 160.64039430674165 1675.3790956800804 513.63911889586598 357.20582342334092 213.11228120606393 340.23489847034216 70.886928334832191 109.26496330276132 6.584380652755498 140.62182943150401 70.528609465807676 419.34552500024438 248.95448920689523 247.37830215506256 208.41840826580301 823.77651955373585 712.89753492362797 370.71728244610131 321.32344500906765 136.92884675785899 141.77472720295191 69.143463961780071 206.75918867811561 809.08134438470006 131.83347503468394 273.16377194598317
leaf_count=3879 1224 1190 4673 1076 1223 8492 3460 2055 2177 2092 398 1041 37 1252 729 2836 2225 1448 1886 5982 6165 3425 2458 1133 950 712 1498 3551 955 2086
internal_value=1.0963e-05 -0.00882654 -0.011385 -0.00262184 -0.0156807 0.0195956 -0.0122123 0.000174927 -0.0245479 0.00430964 -0.00957124 -0.0216855 -0.0265844 -0.0406522 -0.000202941 -0.00517976 -0.00855645 -0.0108147 -0.0131314 -0.00991077 -0.0249573 -0.0229588 -0.017514 -0.00275475 0.000392154 -0.00142626 -0.0100298 0.0252381 -0.00619629 -0.0021117
internal_weight=10934.2 7534.73 5866.93 1930.43 3936.49 3399.48 1075.55 1667.81 1604.57 1187.31 2331.92 561.907 1443.93 147.206 830.109 489.874 2220.43 1597.67 1281.15 1072.73 1296.73 1083.61 452.642 622.754 485.825 316.522 480.494 1724.1 338.593 414.938
internal_count=72308 56386 44997 12708 32289 15922 8035 11389 14279 7712 18010 4575 13056 1289 5657 3565 16820 12253 10093 8207 11767 9590 3534 4567 3434 2160 3677 7430 2453 3036
is_linear=0
shrinkage=0.05


Tree=20
num_leaves=31
num_cat=0
split_feature=7 7 7 7 7 7 7 7 7 7 7 7 7 4 3 7 7 7 7 4 6 2 3 1 6 6 3 4 4 2
split_gain=639.878 151.154 23.7895 61.9817 33.2884 35.5808 19.1586 17.8813 16.5526 13.6238 11.8163 8.36043 15.4848 7.58724 6.59821 5.91295 6.98265 5.64975 9.15069 5.29303 5.25323 12.082 5.68411 5.41172 7.17418 7.82423 6.67395 5.24783 8.9736 5.22114
threshold=-0.23850031717482292 -0.75970542676231079 1.4970832511351511 0.75090599255057811 0.63410108098577378 0.22184845193352326 -0.65075294622707325 -1.7019971503103115 0.99531290834584063 1.3898975675815664 -0.077721791844445193 -0.43284798515659806 -0.52295463122087571 29.500000000000004 0.50897918290793898 -0.92696220769208104 -0.8798476215146811 0.33865336349832759 0.38282328803964022 193.50000000000003 0.58509023217011435 0.7598886293584044 0.57991294366310453 3.7500000000000004 0.63417865175898525 0.78217889086657522 0.76328081702128658 108.50000000000001 113.50000000000001 0.71720034978812319
decision_type=2 2 2 2 2 2 2 2 2 2 2 2 2 2 2 2 2 2 2 2 2 2 2 2 2 2 2 2 2 2
left_child=1 7 3 4 5 10 -3 -1 -5 -10 -2 12 19 14 -13 20 -17 -7 -19 -8 22 23 -9 -22 -25 -26 -27 -6 29 -29
right_child=2 6 -4 8 27 17 11 15 9 -11 -12 13 -14 -15 -16 16 -18 18 -20 -21 21 -23 -24 24 25 26 -28 28 -30 -31
leaf_value=0.027455639439108379 -0.024021712641027371 -0.026567423263017299 -0.00095953716286799209 -0.040069714237276947 -0.0073395595130633278 -0.032632499787087065 0.0018955760429502791 0.02848975438971256 -0.020097850514706143 -0.05768647229714588 -0.0083865557383942819 0.046856972119447983 -0.020018475349784539 0.0054127010496655822 0.012909456526166308 -0.010519805824856352 0.015599947983388441 -0.015036016531547118 -0.025862994119006489 0.02625286315078898 0.030855344812741305 0.031344752942174765 0.015593799363893516 0.034613268748301472 -0.0051467883091018025 0.035934664651974556 -0.0093338082571931182 -0.0035014322484839102 -0.0029298184851424061 0.030821505185304215
leaf_weight=886.59248786233366 129.04988579312339 48.206831697374582 505.35465209558606 150.94647079240531 782.475147084333 103.00429207831621 447.48502431623638 103.62067253142595 624.42391237616539 24.429317329078913 1781.6901119630784 14.684502337127922 84.469792723655701 1661.1315832668915 194.77545161359012 26.216165535151958 529.69499085098505 430.65072964131832 366.76358975144103 22.489550288766623 37.958602905273438 279.58151868730783 527.7248852532357 22.606103673577309 74.589026562869549 26.266145303845406 11.108017720282076 16.570602264255285 818.89980983966962 31.331740409135818
leaf_count=3809 1337 445 3420 1505 5442 1067 2914 483 5281 241 13764 49 747 10092 919 209 2776 3658 3415 114 174 1119 2616 96 347 100 69 99 5344 152
internal_value=2.67217e-05 0.0131168 -0.0113236 -0.012319 -0.0100165 -0.0133244 0.00432756 0.0217174 -0.0251312 -0.0215997 -0.00945456 0.00495241 -0.000439593 0.00654999 0.0155007 0.0185993 0.0143515 -0.0215169 -0.0200419 0.0031144 0.0207635 0.0249204 0.0177521 0.0143891 0.00955105 0.00422921 0.0225877 -0.00437353 -0.00169067 0.0191195
internal_weight=10764.8 4999.2 5765.59 5260.24 4460.44 2811.16 2473.24 2525.96 799.8 648.853 1910.74 2425.04 554.444 1870.59 209.46 1639.37 555.911 900.419 797.414 469.975 1083.45 452.109 631.346 172.528 134.569 111.963 37.3742 1649.28 866.802 47.9023
internal_count=71803 27078 44725 41305 34278 23241 15280 11798 7027 5522 15101 14835 3775 11060 968 7989 2985 8140 7073 3028 5004 1905 3099 786 612 516 169 11037 5595 251
is_linear=0
shrinkage=0.05


Tree=21
num_leaves=31
num_cat=0
split_feature=7 7 0 7 0 7 7 7 7 7 7 5 7 7 3 3 4 0 6 7 0 7 7 4 6 6 0 6 0 0
split_gain=595.938 133.762 34.6892 25.9469 14.6393 12.9565 42.8295 28.7927 25.0624 17.249 8.5315 8.43217 8.38897 9.05417 7.82665 8.47182 7.39315 7.34982 8.04554 7.06364 6.97563 6.63818 10.0852 6.28777 6.16789 6.96126 6.56821 5.98343 5.60327 5.32255
threshold=-0.23850031717482292 -0.75970542676231079 18.500000000000004 -1.7019971503103115 13.500000000000002 0.75090599255057811 1.4970832511351511 0.63410108098577378 0.38282328803964022 0.99531290834584063 1.2191071926884911 18.500000000000004 -0.077721791844445193 0.22184845193352326 0.81895494543787739 0.82977047103362245 155.50000000000003 12.500000000000002 0.81241390145233516 0.75090599255057811 27.500000000000004 -0.43284798515659806 -0.52295463122087571 122.50000000000001 0.49461816215404941 0.76658559228815293 12.500000000000002 0.40409361653395581 16.500000000000004 6.5000000000000009
decision_type=2 2 2 2 2 2 2 2 2 2 2 2 2 2 2 2 2 2 2 2 2 2 2 2 2 2 2 2 2 2
left_child=1 3 5 28 21 7 9 8 12 -7 27 -8 -2 -14 -9 -16 17 18 -17 -4 -6 22 -3 -24 -18 -26 29 -11 -1 -27
right_child=2 4 19 -5 20 6 11 14 -10 10 -12 -13 13 -15 15 16 24 -19 -20 -21 -22 -23 23 -25 25 26 -28 -29 -30 -31
leaf_value=0.028216444169253237 -0.024373875652774612 0.0034694452070771725 -0.019576208547779046 0.016615889738939706 -0.0016833881759989117 -0.040426871044376339 0.00058107879960086573 -0.0075903405807298367 -0.026090840614247858 -0.0077425171911877037 -0.033139668379798183 -0.014659253091145991 -0.0077106355421259548 -0.015808896292303379 0.020935352356532645 -0.0024338442836993541 -0.010020569101286141 -0.014774887659439831 0.037196883911735174 -0.032645609304315461 -0.04450772493601312 0.0079696038215687007 -0.0056125499190939013 -0.043737516061759879 0.018368089026551838 0.0048020216773336406 0.023248079372783403 -0.020064806967559808 0.0082844668832070967 -0.028959238322755699
leaf_weight=841.01704211905599 99.385060147382319 342.57939015515149 546.08092810353264 1575.4335259068757 669.31700292322785 115.03918204596266 358.61366975493729 624.76526664895937 282.79339533345774 142.65942072868347 91.219863314181566 120.47978643141687 1550.651298974175 445.17436630837619 43.660879153758287 487.90048472397029 43.783470032736659 128.31567364931107 12.152315147221087 130.86218061391264 8.6489466093480569 1378.0335674015805 26.185232474468648 17.850125761702657 109.4166267272085 22.482462413609028 16.893265586346388 331.08606422133744 37.857152916491032 22.74655569344759
leaf_count=3528 1029 2187 5684 8001 4951 1166 2363 4101 2626 1029 872 805 11524 3868 232 2970 298 1084 49 1472 101 7609 228 191 595 115 88 2776 268 102
internal_value=-0.00057056 0.0122342 -0.0115212 0.0204758 0.00394804 -0.0100925 -0.0147355 -0.0087056 -0.0121349 -0.0227939 -0.0191384 -0.00327403 -0.0102397 -0.00952399 -0.00330816 -0.000288021 -0.00140981 -0.00414909 -0.00139842 -0.0221471 -0.00229445 0.00634631 0.000554658 -0.0216949 0.00656637 0.0108335 -0.00251789 -0.0163783 0.0273683 -0.0124363
internal_weight=10623.1 4896.92 5726.16 2454.31 2442.61 5049.22 1159.1 3890.12 2378 680.005 564.965 479.093 2095.21 1995.83 1512.12 887.352 843.691 628.368 500.053 676.943 677.966 1764.65 386.615 44.0354 215.322 171.539 62.1223 473.745 878.874 45.229
internal_count=71912 27064 44848 11797 15267 37692 9011 28681 19047 5843 4677 3168 16421 15392 9634 5533 5301 4103 3019 7156 5052 10215 2606 419 1198 900 305 3805 3796 217
is_linear=0
shrinkage=0.05


Tree=22
num_leaves=31
num_cat=0
split_feature=8 8 8 8 8 8 8 8 8 2 3 1 2 4 4 1 3 6 6 5 8 8 5 3 2 3 2 2 3 2
split_gain=638.205 61.5589 72.1688 85.423 40.9931 36.9613 27.0463 17.3579 7.83109 6.92756 8.04679 7.94504 6.42593 6.60388 5.46438 5.25083 8.12196 6.70625 5.07994 7.01519 5.06901 6.32484 5.00745 6.75056 4.95297 4.85515 4.77309 5.55558 4.62391 4.55076
threshold=1.0000000180025095e-35 0.35416666666666669 0.93750000000000011 0.5277777777777779 0.30952380952380959 0.47222222222222227 0.69047619047619058 0.64583333333333337 0.61250000000000016 0.81625661177628628 0.79674974493916106 4.6500000000000012 0.80666921570508754 45.500000000000007 77.500000000000014 4.7500000000000009 0.80706394789487967 0.66259556026458444 0.3102751337688634 3.5000000000000004 0.73214285714285732 0.76388888888888895 11.500000000000002 0.10358603794689532 0.81116844426847956 0.99749901941683672 0.67918935736127362 0.74704560693938105 0.92414985398377814 0.4632134874664034
decision_type=2 2 2 2 2 2 2 2 2 2 2 2 2 2 2 2 2 2 2 2 2 2 2 2 2 2 2 2 2 2
left_child=29 4 3 5 18 15 7 8 -5 12 -11 -12 22 -14 -7 -3 -17 -18 19 -2 -8 -22 23 -4 -15 -24 -25 -28 -29 -1
right_child=1 2 9 6 -6 14 20 -9 -10 10 11 -13 13 24 -16 16 17 -19 -20 -21 21 -23 25 26 -26 -27 27 28 -30 -31
leaf_value=0.010953486657527853 -0.013447696013024349 -0.028447637479108834 0.037538429941795695 -0.028756554996504202 0.0063587917353853107 -0.0093369560594307992 -0.061732509491731147 -0.015439043788073771 -0.076593349064524752 -0.031433455592739391 -0.0082622885125303545 0.0053438470319508054 -0.023440353836013911 0.032458115007746556 -0.0036509276965456861 -0.04193161173661264 -0.021616723484392641 0.029842850769885899 -0.01136493381882047 0.013602291631067598 -0.027954354969261786 -0.040870319474369553 -0.0048877912666846109 -0.0035294767664598489 0.0068098696829281772 0.028029435195339226 0.013285372239735267 -0.0064599596037030029 0.015952927989860415 0.019016968908196853
leaf_weight=190.41676519066095 43.421499893069267 223.75441334722564 12.361080182250587 227.00868824450299 1068.5310221128166 631.03844716120511 14.703218430280684 876.09782907087356 8.3343952521681768 29.913949999958277 486.564786830917 136.81017439439893 10.154749220237134 32.46797020547092 1282.3664063569158 10.515314214862881 9.8720437833108026 14.321798329241572 556.45201528817415 51.066546205431223 353.70933122187853 139.79994004499167 585.87902484554797 241.82763251382858 44.610568789765239 10.437415389344094 133.59974455740303 98.322609201073647 28.956846328452229 3094.1596667002887
leaf_count=1038 339 2334 58 2294 6956 5000 177 7448 78 256 3481 881 77 163 9197 121 108 90 4602 340 3290 1283 4177 1639 271 55 767 656 167 14809
internal_value=0.000228425 -0.00794754 -0.0104707 -0.0144215 0.000335011 -0.00793474 -0.0231097 -0.0187095 -0.0307675 -0.00237855 -0.00651654 -0.00527242 -0.000119649 0.0128686 -0.00553007 -0.0256466 -0.00729862 0.00882073 -0.00954773 0.00116096 -0.0326771 -0.0316884 -0.00114976 0.00245895 0.0178911 -0.00426568 0.00152357 0.00620319 -0.00127628 0.018553
internal_weight=10647.5 7362.9 5643.43 3791.52 1719.47 2171.87 1619.65 1111.44 235.343 1851.91 653.289 623.375 1198.62 87.2333 1913.4 258.464 34.7092 24.1938 650.94 94.488 508.212 493.509 1111.38 515.068 77.0785 596.316 502.707 260.879 127.279 3284.58
internal_count=72152 56305 44068 31420 12237 16850 14570 9820 2372 12648 4618 4362 8030 511 14197 2653 319 198 5281 679 4750 4573 7519 3287 434 4232 3229 1590 823 15847
is_linear=0
shrinkage=0.05


Tree=23
num_leaves=31
num_cat=0
split_feature=8 7 8 8 7 7 7 7 8 8 8 8 8 7 8 0 3 7 3 7 6 5 6 6 4 0 6 7 4 7
split_gain=628.625 68.6359 59.4803 116.278 84.0848 43.1559 37.8107 33.8961 21.5752 18.0665 28.5066 23.4528 14.761 12.1058 11.1454 10.7609 7.16898 6.5301 6.36704 5.87554 5.87896 5.79894 9.49173 6.16719 5.71821 7.31559 7.04168 5.59213 5.58026 5.4055
threshold=1.0000000180025095e-35 -0.60658302168576073 0.93750000000000011 0.5277777777777779 0.84219050326929101 1.4970832511351511 -1.0671281015698459 0.38282328803964022 0.2678571428571429 0.35416666666666669 0.43650793650793657 0.30952380952380959 0.64583333333333337 1.3898975675815664 0.76388888888888895 14.500000000000002 0.25450699168701718 -1.7019971503103115 0.93765231581732744 0.99531290834584063 0.40409361653395581 9.5000000000000018 0.51429153110809722 0.39736430912925835 31.500000000000004 1.5000000000000002 0.60820914047052765 0.050076523161752415 44.500000000000007 -0.68373315655125322
decision_type=2 2 2 2 2 2 2 2 2 2 2 2 2 2 2 2 2 2 2 2 2 2 2 2 2 2 2 2 2 2
left_child=6 8 3 9 21 13 17 12 29 11 -11 -3 27 19 -9 -12 -7 -1 -18 -6 28 -4 23 -23 -20 26 -26 -5 -21 -2
right_child=1 2 4 7 5 16 -8 14 -10 10 15 -13 -14 -15 -16 -17 18 -19 24 20 -22 22 -24 -25 25 -27 -28 -29 -30 -31
leaf_value=0.026321423379432857 -0.0041028505987281694 -0.0112708241844058 0.0044654650121393746 -0.0072562702984770924 -0.040884885253905691 0.028297120063284942 0.012544404421514799 -0.02751844209125769 0.015884255452255941 -0.02611287760407769 -0.0058991677671087085 0.0027379006228975722 -0.011300721303956819 -0.056617567599131106 -0.043398181222847186 -0.01515629784011175 -0.0059342959736260999 0.0199189469531867 -0.0252108642790644 0.0027703575282940346 -0.021801165548143799 0.00030476069874404082 0.0093368659982478504 0.029933473653355521 0.0044700313559467037 0.0038977039225069517 0.057301273050588623 -0.035203875003045337 -0.017333843291133799 -0.044701671325048951
leaf_weight=873.08955550566316 147.17943128570914 480.57822395861149 289.88330858852714 22.329821134917438 30.197421550750732 19.309830849990249 1615.3851030999795 809.03464474296197 359.40456538274884 246.08439374668524 1395.5717068444937 786.29535983875394 534.41831790376455 22.451510164886713 131.68625406827778 405.20100220292807 326.24813637509942 776.61515541933477 12.02424408122897 55.422973969951272 340.63065024558455 21.008323850110173 379.45826230850071 106.74467076919973 11.737895980477335 111.05747694149613 13.107202999293802 103.37983847828582 89.441055297851562 7.7066316790878764
leaf_count=3790 1185 3965 1687 178 284 106 8442 7565 2097 2633 9521 5374 4532 235 1251 4137 2375 3596 87 392 2953 131 2257 577 76 723 45 1105 723 78
internal_value=-0.000221926 -0.0084188 -0.00976175 -0.0126258 -0.0020621 -0.0114815 0.017995 -0.0236874 0.00917463 -0.00727644 -0.01018 -0.00258089 -0.0149661 -0.0212607 -0.0297851 -0.00798942 -0.000795907 0.0233213 -0.00203772 -0.0196148 -0.0182105 0.010128 0.0133491 0.0251014 0.0065382 0.0095109 0.0334802 -0.030336 -0.00967599 -0.00639672
internal_weight=10522.7 7257.59 6743.3 4914.58 1828.72 1031.63 3265.09 1600.85 514.291 3313.73 2046.86 1266.87 660.128 538.144 940.721 1800.77 493.485 1649.7 474.175 515.692 485.495 797.095 507.211 127.753 147.927 135.903 24.8451 125.71 144.864 154.886
internal_count=72100 56272 52912 40261 12651 7999 15828 14631 3360 25630 16291 9339 5815 4587 8816 13658 3412 7386 3306 4352 4068 4652 2965 708 931 844 121 1283 1115 1263
is_linear=0
shrinkage=0.05


Tree=24
num_leaves=31
num_cat=0
split_feature=7 7 0 7 7 7 7 7 7 7 0 7 7 6 4 6 5 6 7 4 6 6 5 5 7 0 6 7 7 1
split_gain=547.303 133.592 31.2423 23.2571 56.8931 20.0316 24.09 19.6978 11.6349 10.7445 10.066 8.38037 8.32568 8.17687 8.44866 7.08215 6.4792 7.09038 6.43704 5.89264 5.42131 8.28786 5.06865 5.01162 5.75408 4.86067 4.27416 4.14687 4.14977 4.2514
threshold=-0.23850031717482292 -0.75970542676231079 16.500000000000004 1.4970832511351511 0.75090599255057811 0.63410108098577378 0.25718439156657341 -1.1366221161815113 -0.077721791844445193 0.99531290834584063 16.500000000000004 0.38282328803964022 0.45545827506313191 0.60668504930207556 18.500000000000004 0.36068274011664708 1.5000000000000002 0.16721826648622481 1.2191071926884911 190.50000000000003 0.53626104894441273 0.4317676947333377 22.500000000000004 10.500000000000002 -2.1554750422677871 22.500000000000004 0.42259181118864986 0.50767694140975039 0.75090599255057811 4.3500000000000005
decision_type=2 2 2 2 2 2 2 2 2 2 2 2 2 2 2 2 2 2 2 2 2 2 2 2 2 2 2 2 2 2
left_child=1 7 3 4 5 6 8 20 -2 -6 16 19 -8 14 15 -12 -3 -18 -11 -4 21 23 -15 24 -1 27 -14 -13 29 -29
right_child=2 10 11 -5 9 -7 12 -9 -10 18 13 25 26 22 -16 -17 17 -19 -20 -21 -22 -23 -24 -25 -26 -27 -28 28 -30 -31
leaf_value=0.028767698679437348 -0.024812665596275148 -0.009551689992207308 -0.01527289826964805 0.0018120052304993178 -0.039629263740840366 -0.0028664845526015 -0.01645035000427986 0.014083537457573389 -0.0060040379924121258 -0.018648890506265683 0.041845521290734752 -0.033138720564650823 -0.015684924345501963 0.01098542343087814 -0.011737831863779797 -0.012683937065704868 -0.028114156314978302 0.006201117233208632 -0.034094862095889966 0.0086591211414101983 0.026349021772475834 0.013882315055683075 -0.014258804813358306 0.038638933952610505 0.016961710272080665 -0.032851869136921279 -0.042014627154268298 -0.0073023542508176319 -0.023992644547102631 -0.024887445831157876
leaf_weight=202.23541406355798 86.398785766679794 69.048370009288192 458.62109729740769 463.89011812955141 96.349691373761743 1375.9523906619288 585.17638053139672 804.68487941473722 1428.9067921354435 414.66107925586402 13.373480565845968 56.46329222433269 24.076680247671902 110.32398088742048 225.57714140135795 9.5316578801721317 14.201158549636601 1944.9639600235969 82.229360464960337 26.626425166614354 889.67849695682526 297.5585526805371 23.306045640259981 57.070826299488544 224.37865170091391 106.29618768207729 52.393757764715701 116.76309113204479 161.90121329575777 48.557507146149874
leaf_count=963 942 482 4728 2967 1025 8956 5119 4408 10512 3501 55 596 216 769 2067 66 114 11593 803 224 3641 1514 220 265 1139 1275 534 1203 1693 573
internal_value=0.000165412 0.0123858 -0.0105252 -0.00880173 -0.0099894 -0.00759173 -0.0105757 0.0205415 -0.00709211 -0.0243121 0.0040042 -0.0186549 -0.0185309 -0.00343313 -0.00878476 0.0195725 0.00540638 0.00593816 -0.0212684 -0.0139446 0.0236413 0.020528 0.00650944 0.0245793 0.0226125 -0.0232817 -0.0340342 -0.0205519 -0.0182856 -0.012586
internal_weight=10471.2 4885.93 5585.26 4610.04 4146.14 3552.9 2176.95 2475.61 1515.31 593.24 2410.33 975.229 661.647 382.112 248.482 22.9051 2028.21 1959.17 496.89 485.248 1670.92 781.243 133.63 483.685 426.614 489.981 76.4704 383.685 327.222 165.321
internal_count=72163 27296 44867 34575 31608 26279 17323 11930 11454 5329 15366 10292 5869 3177 2188 121 12189 11707 4304 4952 7522 3881 989 2367 2102 5340 750 4065 3469 1776
is_linear=0
shrinkage=0.05


Tree=25
num_leaves=31
num_cat=0
split_feature=7 7 0 7 7 7 7 7 7 7 7 7 3 0 7 7 7 2 2 0 0 2 2 2 6 6 7 7 7 3
split_gain=531.156 119.972 23.7064 19.8187 11.4903 44.9028 16.6751 27.7283 13.8837 8.62162 8.59956 10.0955 7.94494 7.60405 7.10488 6.90577 5.45216 5.23659 9.28028 7.31106 5.4352 4.99577 4.84974 6.5594 4.65475 5.17588 4.65463 7.08523 9.33117 7.27076
threshold=-0.23850031717482292 -0.75970542676231079 18.500000000000004 -1.7019971503103115 0.75090599255057811 1.4970832511351511 0.63410108098577378 0.38282328803964022 0.99531290834584063 -0.65075294622707325 -0.077721791844445193 0.25718439156657341 0.63947185014786212 26.500000000000004 1.2191071926884911 1.2191071926884911 -1.1366221161815113 0.65844422461006968 0.59768350099202427 11.500000000000002 2.5000000000000004 0.92468539598082633 0.74525373751708024 0.73291243500304815 0.34777399688154914 0.3102751337688634 1.0000000180025095e-35 0.050076523161752415 0.10955868821071976 0.61602030749384207
decision_type=2 2 2 2 2 2 2 2 2 2 2 2 2 2 2 2 2 2 2 2 2 2 2 2 2 2 2 2 2 2
left_child=1 3 4 17 6 8 7 10 -6 21 -2 26 -8 -11 -4 -10 -5 18 20 -20 -1 -3 23 -19 25 -7 -12 -28 29 -29
right_child=2 9 14 16 5 24 12 -9 15 13 11 -13 -14 -15 -16 -17 -18 22 19 -21 -22 -23 -24 -25 -26 -27 27 28 -30 -31
leaf_value=0.0017977815106897986 -0.023584504282370522 -0.022434739872879556 -0.018421402285466706 0.01953218157246597 -0.039155970240970506 0.00024621583214019251 -0.012209599631679797 -0.025815398444345439 -0.016736390552670479 0.0046808439247485283 -0.013265280390555766 -0.014839690520441404 -0.0023662157446783117 -0.036184720423787238 -0.040943809036215646 -0.032262132496033928 0.013520926457914509 0.018583166010214813 0.050383867575096053 0.017298308862465233 0.027940736506019664 0.022994314280371169 0.02590850720484569 -0.017457602623632395 -0.0047829733096454293 0.025551662836537488 -7.0600997731230081e-06 0.0023099994613201519 -0.0060242965176637506 -0.031417866272820984
leaf_weight=23.820403929799795 94.153123518452048 43.280757334083319 609.6649487609975 750.85552348010242 105.44647831795737 71.463459756225348 246.32931913714856 273.56442577997223 455.19755098596215 2328.7602952392772 202.93405836448073 438.93830488435924 1202.4074505548924 10.451392233371733 37.013139070011675 86.131297379732132 786.80517564062029 131.95638255029917 82.878591440618038 22.589939456433058 123.76368600688875 6.1819679215550414 457.75928640179336 13.165517196059225 365.77150533534586 27.183628026396036 445.83055588509887 20.892907172441483 785.05237035267055 65.173775993753225
leaf_count=121 1035 418 6674 3612 1137 427 1796 2632 3834 14706 1861 3866 7884 147 506 854 4347 608 231 92 525 37 2096 79 2578 132 3052 158 5749 658
internal_value=-0.000229009 0.0119738 -0.0107761 0.0198828 -0.00958179 -0.0140537 -0.00826218 -0.010884 -0.0225605 0.00404348 -0.00888276 -0.00816443 -0.00404716 0.00448288 -0.0197717 -0.0192616 0.0164671 0.0259927 0.0321382 0.0435264 0.0237617 -0.0164138 0.0233642 0.0152164 -0.00218358 0.00740594 -0.00622814 -0.00513452 -0.00775568 -0.0232978
internal_weight=10315.4 4782.27 5533.15 2393.59 4886.47 1111.19 3775.28 2326.54 646.775 2388.67 2052.98 1958.82 1448.74 2339.21 646.678 541.329 1537.66 855.934 253.053 105.469 147.584 49.4627 602.881 145.122 464.419 98.6471 1519.88 1316.95 871.119 86.0667
internal_count=71852 27019 44833 11711 37653 8962 28691 19011 5825 15308 16379 15344 9680 14853 7180 4688 7959 3752 969 323 646 455 2783 687 3137 559 11478 9617 6565 816
is_linear=0
shrinkage=0.05


Tree=26
num_leaves=31
num_cat=0
split_feature=8 7 8 8 7 7 7 7 8 8 8 8 8 7 7 7 8 6 2 6 6 7 7 7 7 0 3 7 0 3
split_gain=549.047 66.001 58.5933 119.019 70.2237 44.4312 34.4714 26.1371 17.0519 25.079 24.6983 14.403 12.8071 10.1128 7.89269 26.3398 7.68593 6.75393 6.15959 6.11218 5.81421 4.99357 7.92443 5.62628 20.1196 5.12661 5.98735 5.06258 4.85409 5.26621
threshold=1.0000000180025095e-35 -0.52295463122087571 0.93750000000000011 0.5277777777777779 0.84219050326929101 0.38282328803964022 1.4970832511351511 -1.5123609409462764 0.35416666666666669 0.30952380952380959 0.43650793650793657 0.64583333333333337 0.30952380952380959 1.3898975675815664 -0.71023511127604066 -0.48172936831565066 0.76388888888888895 0.28548570658284717 0.92754693249426712 0.18493131471693169 0.31161792756033041 -0.14721580645611043 0.050076523161752415 0.22184845193352326 0.63410108098577378 10.500000000000002 0.97767990321129561 0.42404855094486532 12.500000000000002 0.92096530732497939
decision_type=2 2 2 2 2 2 2 2 2 2 2 2 2 2 2 2 2 2 2 2 2 2 2 2 2 2 2 2 2 2
left_child=7 12 3 8 -4 11 13 19 9 -3 -10 -5 -2 -6 -9 17 20 -16 -17 -1 -7 -12 -23 -24 27 26 -26 -25 29 -8
right_child=1 2 4 5 6 16 28 14 10 -11 21 -13 -14 -15 15 18 -18 -19 -20 -21 -22 22 23 24 25 -27 -28 -29 -30 -31
leaf_value=-0.0099473352043299851 -0.00053951018936533666 -0.012042205398900231 0.009934938633186903 -0.028520189169292172 -0.017516848380741162 -0.017439947145576746 -0.002403608122840864 0.017375814297043882 -0.024136625653758237 0.003564195853053525 -0.0016973054045063684 -0.0095889623310694422 0.013951152198579212 -0.05232451689967374 -0.041997792656202348 0.015964448523331856 -0.042056919385151582 -0.003535180186056695 -0.002129242683024511 0.025263314602025216 -0.030238649026457971 -0.018732325530173 -0.0043906625934347302 -0.043644396018611489 -0.0018391001262946568 -0.012168950465334779 0.024728657592623049 -0.020692379329727811 -0.0097435843352301887 0.0097382401173679127
leaf_weight=12.01019314676523 259.55766920000315 381.63341408036649 782.58913223538548 123.94530816096812 494.23165066726506 107.91862811148167 235.68346371874213 1234.6380817778409 240.92511796858162 785.73690465278924 346.28594611398876 524.88193485420197 368.36860856413841 21.110805988311768 11.294855540618299 840.1193723641336 126.22332756593823 163.47637802828103 49.589236428961158 873.92826014012098 668.71961493045092 163.46190150920302 769.25644303206354 29.508134070783854 166.39264376088977 105.43063263129443 23.286930866539478 143.49037983827293 109.03398960549384 142.4997037537396
leaf_count=66 2009 3266 4669 1298 4281 943 1572 6013 2629 5456 2469 4496 2179 235 111 4313 1237 1086 284 3982 6530 1511 5804 226 1084 994 115 1294 1081 793
internal_value=0.000219514 -0.0074994 -0.00899659 -0.0119213 -0.00128237 -0.0232549 -0.0100397 0.017472 -0.00634228 -0.00154374 -0.00915778 -0.0132437 0.00797 -0.0190413 0.0146482 0.0114713 -0.0304268 -0.00624568 0.0149547 0.0247753 -0.0284849 -0.00707959 -0.00840793 -0.00703 -0.0113487 -0.00338529 0.0015352 -0.0248356 -0.000498928 0.00218507
internal_weight=10305.2 7120.17 6492.25 4707.1 1785.15 1551.69 1002.56 3185.06 3155.41 1167.37 1988.04 648.827 627.926 515.342 2299.12 1064.48 902.862 174.771 889.709 885.938 776.638 1747.11 1400.83 1237.37 468.109 295.11 189.68 172.999 487.217 378.183
internal_count=72026 56171 51983 39352 12631 14504 7962 15855 24848 8722 16126 5794 4188 4516 11807 5794 8710 1197 4597 4048 7473 13497 11028 9517 3713 2193 1199 1520 3446 2365
is_linear=0
shrinkage=0.05


Tree=27
num_leaves=31
num_cat=0
split_feature=8 7 8 8 7 7 7 7 8 8 8 8 7 8 7 7 7 7 7 7 7 7 3 7 5 1 6 6 6 4
split_gain=553.759 54.9409 54.068 102.035 69.8982 40.6186 38.7578 37.363 17.0337 13.3509 24.362 24.2149 12.1639 12.096 8.92044 8.52217 7.89604 7.20819 11.2857 7.05153 5.98245 20.58 5.33067 5.32544 4.99263 4.91663 4.63011 4.59682 4.84997 4.36216
threshold=1.0000000180025095e-35 -0.52295463122087571 0.93750000000000011 0.5277777777777779 0.84219050326929101 0.38282328803964022 1.4970832511351511 -1.0671281015698459 0.30952380952380959 0.35416666666666669 0.30952380952380959 0.43650793650793657 1.268577508174761 0.64583333333333337 1.1484353134223912 1.0518504117587211 0.99531290834584063 -0.14721580645611043 0.050076523161752415 -1.7019971503103115 0.22184845193352326 0.63410108098577378 0.76003401893462941 0.08305673348593233 5.5000000000000009 4.0500000000000007 0.29698630972365775 0.4317676947333377 0.47794124295526363 183.50000000000003
decision_type=2 2 2 2 2 2 2 2 2 2 2 2 2 2 2 2 2 2 2 2 2 2 2 2 2 2 2 2 2 2
left_child=7 8 3 9 -4 13 12 19 29 10 26 -11 14 -5 -6 16 -7 24 -19 -1 -20 22 -22 -15 -13 -23 -3 -26 -29 -2
right_child=1 2 4 5 6 15 -8 -9 -10 11 -12 17 -14 23 -16 -17 -18 18 20 -21 21 25 -24 -25 27 -27 -28 28 -30 -31
leaf_value=0.025853683953097534 -0.0056764241812241939 0.0016803900794587559 0.0094568843538622854 -0.027068703967622738 -0.027779021624161529 -0.029863639743472017 -0.00035033940308700005 0.011788450644350322 0.013198764565283891 -0.024293873827659171 0.0024511095540481337 -0.014561230172785539 -0.035526711668074355 -0.0023510815885394673 -0.011452261928064034 -0.051377450568493521 -0.013016336746284708 -0.021370820644003974 -0.0046225274163169605 0.019081825183060199 -0.01267171098710476 0.002145784377950054 -0.031977068897522685 -0.013148493336307236 0.014957189601331492 -0.010727763802974702 -0.015140683733636412 -0.023822086342456503 0.00094771282329940551 0.017233541013588687
leaf_weight=846.07207153365016 231.88927788101137 46.487664960324764 771.53547262493521 122.62480185180902 118.18590276315808 777.61925270454958 476.86353098321706 1556.1395969735458 365.31018438562751 239.05305732600391 773.38944667205215 55.456459656357765 102.57307600975037 170.20974749885499 291.09253246895969 42.883194720372558 78.789663519710302 161.10850425064564 774.50140812806785 741.43862129934132 55.029985681176186 158.50933704711497 112.63289758376777 349.18556075170636 52.328641977161169 137.93584810942411 328.79736773110926 20.683447640389204 222.35592395719141 21.843143690377474
leaf_count=3836 1901 339 4644 1289 1053 7506 3435 8338 2182 2628 5412 464 1061 1334 2422 402 853 1554 5874 3556 461 1138 1025 3116 350 1074 2909 165 1494 148
internal_value=-0.000145428 -0.007919 -0.00928664 -0.012096 -0.00181532 -0.0226276 -0.0106122 0.0173066 0.00630042 -0.00691803 -0.00262287 -0.00939524 -0.0201532 -0.0129907 -0.0162231 -0.0294855 -0.0283307 -0.00734798 -0.00895327 0.0227049 -0.00732216 -0.0118077 -0.0257534 -0.00962142 -0.000935968 -0.0038602 -0.0130581 0.00166273 -0.00124926 -0.00364426
internal_weight=10202.5 7058.88 6439.83 4679.58 1760.25 1541.31 988.715 3143.65 619.043 3138.27 1148.67 1989.6 511.852 642.02 409.278 899.292 856.409 1750.54 1399.72 1587.51 1238.61 464.108 167.663 519.395 350.824 296.445 375.285 295.368 243.039 253.732
internal_count=71963 56233 52002 39387 12615 14500 7971 15730 4231 24887 8660 16227 4536 5739 3475 8761 8359 13599 11126 7392 9572 3698 1486 4450 2473 2212 3248 2009 1659 2049
is_linear=0
shrinkage=0.05


Tree=28
num_leaves=31
num_cat=0
split_feature=8 7 8 7 8 7 7 7 7 8 8 7 7 7 8 8 7 7 8 0 2 5 7 7 7 7 7 7 1 2
split_gain=515.247 52.4532 74.3155 77.2464 72.8175 33.092 29.7854 21.6034 15.7319 14.6148 14.5084 16.0685 13.8102 10.8533 10.5445 9.99851 8.90999 13.6999 6.72923 6.57163 7.17397 6.1118 5.84511 19.7861 5.71232 5.67607 5.63853 5.3818 5.20049 7.14193
