tree
version=v4
num_class=1
num_tree_per_iteration=1
label_index=0
max_feature_idx=10
objective=lambdarank
feature_names=watch_hist_cnt athlete_rating total_likes videos_count workout_recommendations years_experience static_score overlap_count jaccard_score direction_match cf_score
feature_infos=none [3:5] [0:1] [0:0.99999999999999978] [10:199] [1:24] [0.077743625443174244:0.93869214078016072] [0:2] [0:1] [0:1] [0:5]
tree_sizes=3472 3453 3476 3462 3461 3475 3465 3470 3464 3472 3489 3467 3471 3485 3475 3469 3468 3479 3461 3450 3475 3478 3479 3466 3457 3454 3459 3451 3467 3441 3465 3459 3467 3462 3452 3475 3449 3470 3467 3454 3450 3490 3477 3454 3479 3456 3486 3440 3452 3461 3464 3447 3461 3473 3451 3456 3464 3434 3457 3424 3490 3478 3447 3467 3496 3462 3449 3454 3478 3407 3431 3458 3454 3451 3498 3467 3434 3451 3451 3417 3435 3453 3456 3447 3480 3456 3480 3427 3433 3432 3440 3484 3454 3478 3457 3494 3440 3450 3449 3474 3499 3474 3491 3475 3475 3435 3470 3439 3428 3432 3441 3435 3428 3490 3477 3478 3472 3451 3512 3486 3481 3465 3450 3497 3472 3447 3451 3488 3471 3468 3440 3498 3449 3453 3479 3490 3489 3508 3459 3450 3455 3462 3497 3454 3429 3449 3451 3458 3484 3437 3463 3463 3454 3442 3449 3439 3466 3464 3451 3482 3459 3480 3450 3469 3463 3494 3506 3492 3510 3478 3503 3486 3472 3501 3478 3469 3470 3457 3485 3501 3464 3472 3473 3472 3492 3495 3526 3474 3466 3468 3504 3485 3496 3507 3492 3480 3497 3499 3493 3495 3464 3474 3463 3487 3462 3473 3525 3483 3471 3477 3466 3473 3471 3481 3456 3470 3463 3484 3477 3472 3528 3467 3465 3480 3511 3462 3482 3477 3481 3470 3469 3466 3489 3479 3480 3487 3490 3511 3494 3481 3495 3482 3502 3519 3464 3476 3483 3511 3494 3493 3478 3501 3492 3472 3491 3519 3488 3502 3487 3470 3471 3491 3477 3506 3504 3455 3478 3514 3508 3480 3468 3492 3488 3471 3491 3528 3486 3503 3487 3501 3466 3496 3497 3505 3517 3487 3483 3475 3464 3494 3488 3487 3500 3518 3516 3497 3489 3491 3485 3499 3463 3470 3479 3489 3494 3508 3493 3520 3525 3474 3478 3493 3530 3506 3493 3478 3507 3476 3479 3497 3496 3495 3523

Tree=0
num_leaves=31
num_cat=0
split_feature=10 10 10 10 10 10 10 7 7 6 6 10 6 7 2 4 6 10 4 2 3 2 2 6 6 2 4 3 6 6
split_gain=10076.7 1529.64 665.82 158.763 38.7748 29.5517 20.0849 13.4734 12.4887 8.52431 7.87533 5.88771 3.51093 3.70803 3.47009 3.99751 2.32885 1.79738 1.66693 1.64199 1.8843 1.45501 2.86516 2.32793 2.31192 1.92982 1.489 1.43435 1.43321 1.57586
threshold=0.35000000000000003 0.15000000000000005 0.75000000000000011 1.0000000180025095e-35 1.3500000000000003 0.65000000000000002 0.25000000000000006 1.0000000180025095e-35 1.0000000180025095e-35 0.44833370008005463 0.42259181118865125 0.8500000000000002 0.44509871288111724 1.0000000180025095e-35 0.70983420862757041 15.500000000000002 0.60407262980892329 1.0500000000000003 191.50000000000003 0.89420685464035854 0.2885070422465062 0.84015879452621567 0.86578686152735218 0.73747125124918411 0.59745241369341517 0.95071266981983149 177.50000000000003 0.19937247915521503 0.47667340386998452 0.56796327010003533
decision_type=2 2 2 2 2 2 2 2 2 2 2 2 2 2 2 2 2 2 2 2 2 2 2 2 2 2 2 2 2 2
left_child=1 3 5 -1 11 7 12 9 10 -2 -8 28 -3 16 18 -16 19 -13 27 20 -14 26 23 -23 25 -24 -17 -11 -4 -30
right_child=2 6 4 -5 -6 -7 8 -9 -10 14 -12 17 13 -15 15 21 -18 -19 -20 -21 -22 22 24 -25 -26 -27 -28 -29 29 -31
leaf_value=-0.10000000000000001 0.027933646394080552 -0.0074062667230774606 0.076080266416711992 -0.071647302532992979 0.09859127915806358 0.05086636157182152 0.01383730414739711 0.044738296718448568 0.031396942105758822 -0.0067690275218500219 -0.0062929180241127385 0.078877914846920916 -0.039927506690003722 0.00063158060958575174 -0.037113144782018652 0.005029895538619311 -0.012574574792054413 0.087004788819274148 -0.019838950920311533 -0.031281697422359048 -0.017090556680277844 0.04113952716369651 -0.012594488207353774 -0.0062140011254304484 0.016834087425592132 0.032190004564406759 -0.016618939325910569 0.022271935449818397 0.048488939830223642 0.068490337004759622
leaf_weight=1011.2757232319564 100.3408680530265 229.50493242545053 31.964715907350183 964.78949217638001 1384.9726561866701 98.096162591595203 69.41315557109192 47.057381872087717 36.021390810143203 4.5467193368822327 161.92914851848036 119.86909124534577 9.6223530163988453 34.031505191233009 5.3283980526030055 58.371136818546802 180.82123276265338 157.33519663847983 2.6734519694000474 29.85953193064779 147.37957496265881 12.345412434078751 17.133195943664763 3.2862914176657787 23.541271776426584 2.798370858654379 9.1936703249812108 65.553120617521927 14.259335638023911 31.830255617387593
leaf_count=23872 1813 4996 370 26438 7420 1594 1289 721 622 112 3492 1345 170 835 61 1163 4417 1577 64 680 3593 262 423 48 500 43 189 1232 233 426
internal_value=6.56376e-11 -0.0615619 0.0807893 -0.0861571 0.0948113 0.026596 -0.0074747 0.0198355 0.00401119 0.0159947 -0.000252941 0.0800749 -0.0123397 -0.0151583 0.0101445 0.00531155 -0.0166198 0.0834906 0.0189105 -0.0205342 -0.0184902 0.00709617 0.0128257 0.0311843 0.00622438 -0.00630679 0.0020841 0.0203883 0.0679446 0.0623022
internal_weight=5065.14 2874.65 2190.5 1976.07 1740.23 450.265 898.583 352.169 267.364 305.112 231.342 355.259 631.219 401.714 204.771 131.998 367.683 277.204 72.7733 186.861 157.002 126.669 59.1045 15.6317 43.4728 19.9316 67.5648 70.0998 78.0543 46.0896
internal_count=90000 70404 19596 50310 11371 8225 20094 6631 5403 5910 4781 3951 14691 9695 4097 2689 8860 2922 1408 4443 3763 2628 1276 310 966 466 1352 1344 1029 659
is_linear=0
shrinkage=0.05


Tree=1
num_leaves=31
num_cat=0
split_feature=10 10 10 10 10 10 10 10 7 6 6 5 6 7 7 6 6 6 10 6 8 10 3 8 4 1 10 7 8 1
split_gain=28786.7 2006.79 1075.54 426.306 141.307 97.1837 87.7032 85.9393 33.4904 22.6255 19.475 18.3818 17.031 16.3465 15.4983 15.3995 14.1863 11.7671 11.6292 10.5794 10.5739 9.4135 9.26939 7.59553 7.29727 7.22236 7.02124 6.56302 8.19653 6.41045
threshold=0.8500000000000002 0.15000000000000005 1.7500000000000002 0.25000000000000006 1.2500000000000002 1.0000000180025095e-35 0.65000000000000002 2.3500000000000001 1.0000000180025095e-35 0.44509871288111724 0.44509871288111724 12.500000000000002 0.44087670505257764 1.0000000180025095e-35 1.0000000180025095e-35 0.47153916008177149 0.61324995396511195 0.47643458558915419 2.8500000000000001 0.49687277120573159 0.41666666666666669 1.5500000000000003 0.89081978404164464 0.29166666666666669 38.500000000000007 4.1500000000000012 0.95000000000000007 1.0000000180025095e-35 0.41666666666666669 4.6500000000000012
decision_type=2 2 2 2 2 2 2 2 2 2 2 2 2 2 2 2 2 2 2 2 2 2 2 2 2 2 2 2 2 2
left_child=1 5 4 12 10 -1 8 17 15 -6 -2 25 -3 -14 16 -5 22 -4 -9 -19 -16 27 24 -10 -12 -11 -26 -13 -29 -27
right_child=2 3 7 6 9 -7 -8 18 23 11 14 21 13 -15 20 -17 -18 19 -20 -21 -22 -23 -24 -25 26 29 -28 28 -30 -31
leaf_value=-0.092334838668335265 0.036302699216513211 -0.047739908844680823 0.0824342516005587 -0.022695995703637405 0.063754477387242672 -0.077594239525264397 -0.0029863448254812096 0.086164966700993884 0.0071012349187407516 0.019163271480213961 0.046546491500499665 0.042306638817576632 -0.060196859516230196 -0.03915732375380801 0.055225152812032691 -0.033270772884926955 0.024381437520155744 0.049715643983588048 0.092733180482514665 0.073500444902116144 0.018425084058067819 0.061011172990084697 -0.007496123753931808 -0.014113739385107996 -0.0096258638889718598 0.05119408659700693 0.01825504457345822 0.072682891604207975 0.040746978284189252 0.026863065656990832
leaf_weight=2177.4442900307477 205.67255045473576 584.35140728577971 412.20807936787605 537.07758982852101 345.13891857117414 2298.4573426283896 501.24236948415637 858.05310188233852 55.684135340154171 56.720960378646851 14.957388184964655 208.33834203332663 1012.7546768337488 101.57890872657299 41.552478551864624 959.02051575109363 165.35098658502102 50.277878418564796 3139.9925051182508 666.68232093751431 36.813530571758747 205.35051798820496 88.560307502746582 174.10449612513185 33.499484814703465 65.122561395168304 69.280336186289787 46.899589240550995 35.149030983448029 46.33072717487812
leaf_count=23872 756 4918 597 3616 689 26438 2623 1142 304 122 51 455 8925 848 138 7075 626 86 3115 1001 133 337 345 1039 133 126 233 88 74 95
internal_value=3.71676e-11 -0.0618797 0.0765458 -0.0357874 0.0416276 -0.0847653 -0.0213978 0.0878833 -0.0267449 0.0533703 0.0235564 0.0479721 -0.0546535 -0.058279 0.0177308 -0.0294746 0.01347 0.0757027 0.0913235 0.0718325 0.0379378 0.0528178 0.00472429 -0.00897276 0.0139163 0.0336879 0.0091677 0.0470238 0.0590018 0.0410798
internal_weight=15193.7 8401.72 6791.95 3925.81 1664.74 4475.9 2227.13 5127.21 1725.89 1009.05 655.687 663.912 1698.68 1114.33 450.015 1496.1 371.649 1129.17 3998.05 716.96 78.366 495.737 206.298 229.789 117.737 168.174 102.78 290.387 82.0486 111.453
internal_count=90000 79658 10342 29348 4401 50310 14657 5941 12034 1986 2415 1297 14691 9773 1659 10691 1388 1684 4257 1087 271 954 762 1343 417 343 366 617 162 221
is_linear=0
shrinkage=0.05


Tree=2
num_leaves=31
num_cat=0
split_feature=10 10 10 10 10 10 10 7 6 10 10 10 6 7 10 10 10 6 8 2 2 1 6 6 3 3 6 6 2 6
split_gain=21249.5 1877.87 797.263 219.55 147.252 128.53 73.6594 38.9596 24.7858 18.0986 16.5776 13.7403 10.2623 14.3449 10.1175 9.53566 6.6804 6.45065 5.16546 5.15837 5.34028 4.81133 4.76153 4.84992 4.67498 4.01449 3.89866 5.44299 4.23773 4.04803
threshold=0.65000000000000002 0.15000000000000005 1.3500000000000003 0.25000000000000006 1.0000000180025095e-35 2.3500000000000001 0.8500000000000002 1.0000000180025095e-35 0.44509871288111724 0.35000000000000003 1.9500000000000002 0.75000000000000011 0.43991807150772111 1.0000000180025095e-35 0.95000000000000007 2.8500000000000001 0.35000000000000003 0.52344128672781387 0.41666666666666669 0.86578686152735218 0.84015879452621567 4.9500000000000011 0.47794124295526441 0.56796327010003533 0.97917231602918364 0.76003401893462941 0.47292896231563447 0.52344128672781387 0.83711154561181877 0.49419877760273662
decision_type=2 2 2 2 2 2 2 2 2 2 2 2 2 2 2 2 2 2 2 2 2 2 2 2 2 2 2 2 2 2
left_child=1 4 6 12 -1 10 11 8 16 -10 -4 -2 -3 17 24 -7 -5 -14 -9 20 21 -11 -13 -24 -8 -20 -16 29 -29 -28
right_child=2 3 5 7 -6 15 14 18 9 19 -12 22 13 -15 26 -17 -18 -19 25 -21 -22 -23 23 -25 -26 -27 27 28 -30 -31
leaf_value=-0.087530327790263374 0.0093191903761526834 -0.034991442777550862 0.06216627229874655 -0.01456766534465204 -0.068943318072989423 0.080259782123939083 0.035348189688670456 0.011830575774670241 -0.029746331638644194 -0.016126528508940731 0.073448018810050933 0.036951638348333003 -0.052966488098525499 -0.025295963537550314 0.052256405409736501 0.086470608681717936 -0.0024425300453389687 -0.043186274926968513 0.011465544750575487 -0.024853677585340461 0.0023807256296846306 0.020672893348326626 0.0058394472583398367 0.027717183647977324 0.0065818178621355507 -0.012478960405166573 0.04408307862561104 0.05096627045411483 0.037509349002973313 0.016666094683233476
leaf_weight=2080.9790925681591 248.52415527403355 517.94709011167288 799.02940640598536 201.17806862294674 2183.7914719320834 810.44662204384804 153.99702269583941 132.89788240194321 410.44475662522018 353.52059828490019 549.58141215145588 75.052854247391224 224.75953990593553 95.98880185559392 199.77748647332191 2602.6612277328968 260.94152771681547 674.69919275678694 26.471102170646191 120.93778214231133 49.023269809782505 9.1111738532781583 36.97652455419302 80.440549403429031 15.549882560968397 51.679589096456766 24.387684546411037 170.10519972443581 89.17186863720417 30.054476276040077
leaf_count=23872 1594 4861 2139 1463 26438 1142 721 820 3318 2729 1024 376 2280 852 773 3115 1781 6698 166 1008 332 60 227 426 79 357 104 708 386 151
internal_value=-2.69485e-11 -0.0564279 0.0708913 -0.0270138 -0.0780128 0.0798322 0.0330156 -0.0141988 -0.0172073 -0.0218559 0.0667638 0.0170861 -0.0406994 -0.0436694 0.0433002 0.0849958 -0.00772106 -0.0456302 0.0058321 -0.0157752 -0.013108 -0.0152019 0.0271151 0.0208275 0.0327099 -0.00436851 0.0467969 0.0433202 0.0463381 0.0289477
internal_weight=13280.1 7394.37 5885.76 3129.6 4264.77 4761.72 1124.04 1616.21 1405.16 943.038 1348.61 440.994 1513.39 995.448 683.044 3413.11 462.12 899.459 211.049 532.593 411.655 362.632 192.47 117.417 169.547 78.1507 513.497 313.719 259.277 54.4422
internal_count=90000 77035 12965 26725 50310 7420 5545 12034 10691 7447 3163 2623 14691 9830 2922 4257 3244 8978 1343 4129 3121 2789 1029 653 800 523 2122 1349 1094 255
is_linear=0
shrinkage=0.05


Tree=3
num_leaves=31
num_cat=0
split_feature=10 10 10 10 10 10 10 7 6 10 10 10 6 7 10 6 10 7 6 5 5 6 5 10 1 1 5 8 2 3
split_gain=16753.4 1702.33 652.321 159.895 157.887 98.2261 67.0107 31.5294 17.4988 15.8915 13.3011 9.73006 8.59848 9.94176 6.20411 6.18454 5.85777 4.78105 4.58357 9.45292 8.33515 4.38705 4.24905 4.01154 3.8347 3.6588 3.51337 3.44978 3.95072 3.41188
threshold=0.65000000000000002 0.15000000000000005 1.6500000000000001 0.25000000000000006 1.0000000180025095e-35 0.95000000000000007 2.4500000000000006 1.0000000180025095e-35 0.41509568634480065 0.75000000000000011 0.35000000000000003 1.3500000000000003 0.44087670505257764 1.0000000180025095e-35 1.9500000000000002 0.52344128672781387 2.8500000000000001 1.0000000180025095e-35 0.44087670505257764 11.500000000000002 9.5000000000000018 0.47794124295526441 15.500000000000002 1.0500000000000003 4.8500000000000005 3.1500000000000008 5.5000000000000009 0.83333333333333337 0.76281973624934007 0.52618681996475691
decision_type=2 2 2 2 2 2 2 2 2 2 2 2 2 2 2 2 2 2 2 2 2 2 2 2 2 2 2 2 2 2
left_child=1 4 5 12 -1 9 14 8 -5 -2 -10 17 -3 15 25 -14 -8 23 -16 20 -20 -11 -23 26 -13 -4 -7 29 -29 -9
right_child=2 3 6 7 -6 11 16 27 10 21 -12 24 13 -15 18 -17 -18 -19 19 -21 -22 22 -24 -25 -26 -27 -28 28 -30 -31
leaf_value=-0.083474527746874569 0.010804017751482745 -0.02959610672775885 0.077333414574961901 -0.0052602625331750474 -0.063432408632868059 0.052524134937703061 0.076279720502328355 -0.010465888819719806 -0.024707181183674615 0.035093642272968795 -0.012783907554167093 0.055971239410306128 -0.047201073929966017 -0.021929022864925048 0.075029208263271752 -0.037083671586263911 0.081808455584263362 0.052866378329183263 0.06291405403346699 0.069714337252149747 0.031220321155546678 0.014587787420644809 0.029266399534278193 0.043598592323858987 0.034892695917724315 0.059477506139839542 0.026566174961607125 0.0084816690938223291 -0.044584101342345521 0.011258217051353752
leaf_weight=1899.661401014775 233.43798742443323 489.39718387275934 31.177518725395203 377.98310500383377 2035.6365276947618 15.957099914550779 603.85483598709106 20.320080898702145 414.39548180252314 127.81754431128502 537.02744695544243 311.22221404314041 198.60268130898476 89.085395861417055 206.50156091153622 630.78671325743198 2318.8602470159531 103.24231076985598 57.979427024722099 351.14266090840101 32.302174463868141 83.242334194481373 120.91689396649599 280.83471402153373 23.184338852763176 359.42835360020399 71.192783627659082 7.3501259908080083 6.7087988369166851 163.49964815378189
leaf_count=23872 1594 4918 73 2782 26438 75 927 148 3533 655 4376 1021 2227 848 380 6698 3115 419 110 677 72 499 675 1265 80 965 363 49 57 1089
internal_value=-4.2006e-11 -0.0516128 0.0665011 -0.0227943 -0.0731072 0.0367753 0.0767896 -0.0115898 -0.0143614 0.0208003 -0.0179771 0.047987 -0.0349492 -0.0378015 0.06588 -0.0395063 0.0806662 0.0433581 0.0688806 0.0660043 0.0515742 0.0278294 0.0232815 0.0406904 0.0545099 0.0609027 0.0313191 0.00703099 -0.0168409 0.00885676
internal_weight=12202.7 6870.45 5332.29 2935.16 3935.3 1371.05 3961.25 1527.28 1329.41 565.415 951.423 805.633 1407.87 918.475 1038.53 829.389 2922.72 471.227 647.926 441.424 90.2816 331.977 204.159 367.985 334.407 390.606 87.1499 197.879 14.0589 183.82
internal_count=90000 77035 12965 26725 50310 6646 6319 12034 10691 3423 7909 3223 14691 9773 2277 8925 4042 2122 1239 859 182 1829 1174 1703 1101 1038 438 1343 106 1237
is_linear=0
shrinkage=0.05


Tree=4
num_leaves=31
num_cat=0
split_feature=10 10 10 10 10 10 10 7 10 10 6 6 10 6 7 10 6 6 6 2 8 3 3 4 3 10 5 6 6 2
split_gain=13842 1516.94 570.798 157.794 129.459 85.0401 53.9439 24.2639 16.6412 16.2246 8.97898 8.05647 7.41852 7.13259 6.61736 5.28573 4.88225 4.05418 6.42938 4.60244 3.93188 3.73152 3.62459 4.41852 4.38846 3.28889 3.14521 2.88649 4.24302 2.76315
threshold=0.65000000000000002 0.15000000000000005 1.6500000000000001 1.0000000180025095e-35 0.25000000000000006 0.8500000000000002 2.5500000000000003 1.0000000180025095e-35 1.2500000000000002 0.35000000000000003 0.44833370008005463 0.47153916008177149 1.9500000000000002 0.44087670505257764 1.0000000180025095e-35 0.75000000000000011 0.52344128672781387 0.42259181118865125 0.59102130410260834 0.7195738502837159 0.29166666666666669 0.97917231602918364 0.91379730051521157 84.500000000000014 0.88108553170491843 2.8500000000000001 12.500000000000002 0.43991807150772111 0.64472358279381892 0.78675272208674141
decision_type=2 2 2 2 2 2 2 2 2 2 2 2 2 2 2 2 2 2 2 2 2 2 2 2 2 2 2 2 2 2
left_child=1 3 5 -1 13 15 12 9 -7 11 -11 -6 -4 -3 16 27 -15 -14 19 26 -9 -22 24 -24 29 -8 -19 -2 -29 -21
right_child=2 4 6 -5 7 8 25 20 -10 10 -12 -13 17 14 -16 -17 -18 18 -20 22 21 -23 23 -25 -26 -27 -28 28 -30 -31
leaf_value=-0.080123581355341075 0.018332438532919992 -0.026683416311814548 0.058157171081307447 -0.059357438809691701 -0.011101521961306045 0.036494162144351347 0.073223950773595711 0.018826453536063572 0.050110868192250704 7.5140976831491023e-05 -0.011688763942388677 -0.023620248472135039 0.072886786203867904 -0.042862994590220242 -0.021040572043520084 0.021826461365960149 -0.033581414808916271 0.059411936002434801 0.069568272391267477 0.042509867741644711 0.0050004886227080613 -0.022377013027635659 0.075258159533123106 0.049680141140145864 0.028596959392276064 0.078007383124831561 0.07838051087872655 -0.00091952970446860832 0.016016898413991645 0.066082965869846216
leaf_weight=1746.4778447896242 72.476863197982311 467.36052030883729 370.09514701366425 1920.9709154609591 201.82753498479724 467.62912769243121 432.74287359416485 48.472573343664408 431.34661605209112 244.80341391265392 480.73854824528098 353.82225790061057 201.4514653980732 185.30544634722173 84.4769272133708 169.36506660655141 601.85004606842995 52.918774709105492 285.35117772966623 25.540115848183632 126.73490966111422 13.801642343401907 30.705195873975754 37.511019393801689 25.875539228320122 2118.5937635600567 37.226622402667999 87.931932222098112 63.82049610838294 24.21944235265255
leaf_count=23872 508 4918 1038 26438 1630 2415 712 304 1608 1813 4097 3151 388 2227 848 1029 6698 122 576 52 926 113 60 86 51 3115 70 642 444 49
internal_value=-1.22744e-11 -0.0480683 0.0630869 -0.0692465 -0.0204198 0.0345417 0.0732171 -0.0101764 0.0430277 -0.0126435 -0.00771953 -0.0190731 0.0639114 -0.031667 -0.0343392 0.0151594 -0.0357664 0.0668659 0.0645305 0.0583871 0.00654711 0.00231183 0.052836 0.0611932 0.0452986 0.077196 0.0672452 0.0101237 0.0062032 0.0539836
internal_weight=11411.4 6476.64 4934.8 3667.45 2809.19 1292.57 3642.23 1470.2 898.976 1281.19 725.542 555.65 1090.89 1338.99 871.632 393.594 787.155 720.799 519.348 233.997 189.009 140.537 143.851 68.2162 75.6351 2551.34 90.1454 224.229 151.752 49.7596
internal_count=90000 77035 12965 50310 26725 6646 6319 12034 4023 10691 5910 4781 2492 14691 9773 2623 8925 1454 1066 490 1343 1039 298 146 152 3827 192 1594 1086 101
is_linear=0
shrinkage=0.05


Tree=5
num_leaves=31
num_cat=0
split_feature=10 10 10 10 10 10 10 7 6 10 10 6 10 7 10 10 6 5 7 6 5 4 3 2 6 6 2 4 6 6
split_gain=11700.6 1360.19 504.858 155.819 107.155 86.2956 39.9749 21.1776 13.2563 9.53681 9.41705 6.04683 5.5803 5.51429 5.14934 4.78315 4.279 3.31324 3.14368 2.97756 3.23056 2.91916 3.22192 3.60849 3.40137 3.81841 2.85555 2.83476 2.81225 4.24989
threshold=0.65000000000000002 0.15000000000000005 1.3500000000000003 1.0000000180025095e-35 0.25000000000000006 2.3500000000000001 0.8500000000000002 1.0000000180025095e-35 0.41509568634480065 1.9500000000000002 0.35000000000000003 0.44087670505257764 2.8500000000000001 1.0000000180025095e-35 1.0500000000000003 0.75000000000000011 0.60407262980892329 1.5000000000000002 1.0000000180025095e-35 0.47643458558915419 12.500000000000002 177.50000000000003 0.83263252991871572 0.81555395462324454 0.6574804737163561 0.66632479160135982 0.77469809538241463 23.500000000000004 0.42419464524574563 0.57636130841348432
decision_type=2 2 2 2 2 2 2 2 2 2 2 2 2 2 2 2 2 2 2 2 2 2 2 2 2 2 2 2 2 2
left_child=1 3 6 -1 11 9 15 8 26 19 -10 -3 28 16 17 -2 -13 -8 -19 -4 -21 22 23 -12 -24 -26 -6 -22 -7 -30
right_child=2 4 5 -5 7 12 14 -9 10 -11 21 13 -14 -15 -16 -17 -18 18 -20 20 27 -23 24 -25 25 -27 -28 -29 29 -31
leaf_value=-0.077344096476901159 0.0096820850345119107 -0.024459361489156714 0.057283206631890342 -0.056015587402113903 -0.0079836919614084661 0.074638879606237746 0.057628075187542066 0.0066946295890576123 -0.020690086595942774 0.062388481049329182 -0.0054274027898681028 -0.036808247113762432 0.074885383000731762 -0.019203110478544366 0.039942746079205824 0.021114886409070333 -0.029278251594031399 0.025818922253314086 0.039696504885578361 0.041657138115402691 0.033469665216354035 -0.018998474232544877 -0.015943291980788598 0.022385450570574453 0.026288715128277285 -0.0076295016690760865 0.00096983338411340831 0.053793027381115771 0.061016065771573251 0.071161221094973734
leaf_weight=1613.7683333270252 208.84693859145045 450.81681748479605 244.34375374764204 1824.4453783333302 174.33982161432505 183.08335946500301 10.58647323772311 182.29887171089649 386.48540483415127 454.77229078859091 161.5731479562819 370.22049986384809 1956.1457075029612 80.480615388602018 322.79458758234978 162.79802570492029 384.72037142328918 176.93368751183152 53.042431749403477 85.454067245125771 18.210537120699883 80.80536000430584 177.60673908516765 12.56926069408655 9.694292735308407 57.596455004066229 182.03221501037478 296.8396560177207 167.87317641079426 268.07150249183178
leaf_count=23872 1594 4918 789 26438 1389 325 50 1343 3533 1024 1358 4508 3115 848 1577 1029 4417 1037 258 316 57 746 1603 92 73 504 1393 977 336 481
internal_value=-1.1689e-11 -0.0451446 0.0602227 -0.0660264 -0.0186636 0.0685692 0.0274189 -0.00921983 -0.0115544 0.0568437 -0.014829 -0.0291262 0.0735761 -0.0316446 0.035816 0.0146902 -0.0329709 0.0302787 0.0290197 0.0529334 0.0502796 -0.0102971 -0.00861916 -0.00341993 -0.0123162 -0.00274305 -0.0034103 0.0526183 0.0694385 0.0672545
internal_weight=10759.2 6149.45 4609.8 3438.21 2711.24 3674.79 935.002 1425 1242.7 1099.62 886.331 1286.24 2575.17 835.421 563.357 371.645 754.941 240.563 229.976 644.848 400.504 499.845 419.04 174.142 244.897 67.2907 356.372 315.05 619.028 435.945
internal_count=90000 77035 12965 50310 26725 7420 5545 12034 10691 3163 7909 14691 4257 9773 2922 2623 8925 1345 1295 2139 1350 4376 3630 1450 2180 577 2782 1034 1142 817
is_linear=0
shrinkage=0.05


Tree=6
num_leaves=31
num_cat=0
split_feature=10 10 10 10 10 10 10 7 10 10 10 6 6 7 10 6 7 6 6 6 7 4 4 6 6 4 1 3 8 6
split_gain=10044.2 1220.21 459.142 153.634 91.23 61.2015 46.1218 18.7947 10.6809 9.38514 8.05699 6.2274 5.58123 5.03761 4.93499 4.58384 3.96168 3.83539 5.44325 5.29848 4.81303 5.34374 3.44599 3.40716 3.40454 3.14561 3.122 3.04394 2.98812 2.96077
threshold=0.65000000000000002 0.15000000000000005 1.6500000000000001 1.0000000180025095e-35 0.25000000000000006 0.95000000000000007 2.3500000000000001 1.0000000180025095e-35 0.35000000000000003 0.75000000000000011 1.3500000000000003 0.45070459741130764 0.44087670505257764 1.0000000180025095e-35 2.8500000000000001 0.42112593198498977 1.0000000180025095e-35 0.47643458558915419 0.22810595795286961 0.49687277120573159 1.0000000180025095e-35 24.500000000000004 56.500000000000007 0.47153916008177149 0.52344128672781387 79.500000000000014 4.8500000000000005 0.95540590966125061 0.29166666666666669 0.52344128672781387
decision_type=2 2 2 2 2 2 2 2 2 2 2 2 2 2 2 2 2 2 2 2 2 2 2 2 2 2 2 2 2 2
left_child=1 3 5 -1 12 9 17 8 15 -2 16 -10 -3 24 -8 -6 23 18 -4 -19 21 -21 -23 -7 -14 -22 -24 -27 -9 -25
right_child=2 4 6 -5 7 10 14 28 11 -11 -12 -13 13 -15 -16 -17 -18 19 -20 20 25 22 26 29 -26 27 -28 -29 -30 -31
leaf_value=-0.075024693441335943 0.0093062283792996504 -0.022654144928988016 0.041184906227578158 -0.053173537154543864 -0.0087112758541990458 0.040518470243425392 0.066981775949988318 0.017730620069616714 7.0138470214134731e-05 0.023338549485702308 0.04720561081610173 -0.010051136776848005 -0.037214418595286312 -0.017594725980312594 0.072283898688945206 -0.019027468901153189 0.045471116635505404 0.033368880283704265 0.06384285315588846 0.023628810341147014 0.076516656444321568 0.066697106272514212 0.053201379421913358 0.016775548697936762 -0.029092811577355146 0.063602595898253761 0.034922070807486071 0.043586562012325414 0.0028786065436180019 0.032510527028132882
leaf_weight=1495.4602273199707 202.27373044937849 436.71975489519536 29.577632054686546 1740.7774529438466 150.89630313962698 113.40107468515635 578.72094120830297 45.556690484285355 231.71105992421508 289.98550532571971 279.64541470259428 441.64691944792867 168.19269053265452 77.823301900178194 1815.9445328712463 375.9674702566117 89.596071615815163 28.788355991244316 255.30760024487972 15.736890599131582 33.597155198454857 42.534940011799335 225.84668649733067 36.361764136701822 554.28051402047276 82.194517455995083 26.05362394452095 24.702637389302254 131.97439583204687 168.1249812245369
leaf_count=23872 1594 4918 76 26438 1270 577 1142 304 1863 1829 1101 4047 2227 848 3115 3511 419 100 665 46 72 104 646 221 6698 204 79 70 1039 905
internal_value=3.67129e-11 -0.0427466 0.0576505 -0.0632709 -0.0173441 0.0310294 0.0675893 -0.00849453 -0.0107405 0.0175725 0.04067 -0.00656828 -0.0272006 -0.0296816 0.0710025 -0.0160729 0.0361847 0.0568956 0.0614904 0.0541654 0.0554939 0.0520163 0.0535335 0.0335674 -0.0309835 0.0631715 0.0513108 0.0589771 0.00668982 0.0297125
internal_weight=10189.4 5851.01 4338.39 3236.24 2614.77 1179.39 3159.01 1377.75 1200.22 492.259 687.129 673.358 1237.02 800.297 2394.67 526.864 407.484 764.34 284.885 479.455 450.666 310.172 294.435 317.888 722.473 140.494 251.9 106.897 177.531 204.487
internal_count=90000 77035 12965 50310 26725 6646 6319 12034 10691 3423 3223 5910 14691 9773 4257 4781 2122 2062 741 1321 1221 875 829 1703 8925 346 725 274 1343 1126
is_linear=0
shrinkage=0.05


Tree=7
num_leaves=31
num_cat=0
split_feature=10 10 10 10 10 10 10 7 10 6 10 10 6 7 6 10 6 7 8 6 6 6 10 6 5 6 7 10 5 2
split_gain=8705.68 1110.28 421.362 151.566 78.3623 54.7735 37.6221 16.9786 12.9948 8.99314 5.31142 5.219 4.85594 4.38241 3.93897 3.65881 3.1364 3.08611 3.60308 3.07175 4.71765 3.0578 2.9641 2.91404 4.21923 2.768 2.97901 3.40303 3.22897 2.73287
threshold=0.65000000000000002 0.15000000000000005 1.6500000000000001 1.0000000180025095e-35 0.25000000000000006 0.8500000000000002 2.3500000000000001 1.0000000180025095e-35 1.2500000000000002 0.45070459741130764 2.8500000000000001 0.35000000000000003 0.43991807150772111 1.0000000180025095e-35 0.43991807150772111 1.9500000000000002 0.42259181118865125 1.0000000180025095e-35 0.41666666666666669 0.42419464524574563 0.57636130841348432 0.60407262980892329 0.35000000000000003 0.47643458558915419 15.500000000000002 0.47643458558915419 1.0000000180025095e-35 1.1500000000000001 15.500000000000002 0.95071266981983149
decision_type=2 2 2 2 2 2 2 2 2 2 2 2 2 2 2 2 2 2 2 2 2 2 2 2 2 2 2 2 2 2
left_child=1 3 5 -1 12 14 15 9 25 22 19 29 -3 21 -2 -4 -10 -16 -19 -8 -21 -14 -6 -17 -25 -7 27 28 -27 -11
right_child=2 4 6 -5 7 8 10 -9 16 11 -12 -13 13 -15 17 23 -18 18 -20 20 -22 -23 -24 24 -26 26 -28 -29 -30 -31
leaf_value=-0.073073156139046455 0.02063472190289007 -0.021096985449438953 0.051467445173574294 -0.050687862883340463 -0.0088317014839106988 0.036118366780422559 0.070134450866409348 0.0067923301768907365 0.050425880111001742 -0.018420051628843827 0.070067370951756289 -0.0094779280430454752 -0.03237506359162988 -0.016336193254958258 0.0069283630289425678 0.064111894630357422 0.040573366342982108 0.037008932241163223 0.0044982090246400933 0.054976356961198472 0.066380829791237161 -0.025773898369795174 -0.00013317575032855677 0.047304575993436966 0.060573797321762171 0.013125579058189797 0.03871879558095459 0.036184802812653433 0.027583578226668605 0.011396391447126071
leaf_weight=1386.1885730531067 115.97164792940021 419.72555969282985 313.68003921955824 1663.7354018073529 172.82088974863291 154.29871400073171 162.76855912804604 172.614422025159 118.00650391727686 335.90821868181229 1686.4794149324298 430.99060670472682 343.36020479165018 75.649481074884534 197.27671489864588 152.71437571197748 256.02025292441249 19.888507910072803 14.912475146353243 148.74975610524416 232.28834173083305 358.70148705504835 226.01823420077562 98.773555018007755 152.24909069389105 67.408210348337889 49.282625585794449 51.73835726827383 90.417535755783319 7.8650042973458758
leaf_count=23872 835 4861 1038 26438 1512 852 325 1343 489 3204 3115 4047 4561 852 1541 361 1119 133 114 336 481 4417 1863 278 385 443 255 296 569 65
internal_value=-1.88952e-11 -0.0405185 0.05551 -0.060862 -0.016126 0.0296271 0.0654781 -0.00784915 0.0369301 -0.0100026 0.0686818 -0.013143 -0.0254312 -0.0277703 0.0131102 0.0555184 0.0436819 0.00935004 0.0230779 0.0643848 0.0619287 -0.0290024 -0.00390233 0.0586658 0.0553526 0.0308176 0.0276577 0.0250565 0.0214085 -0.0177379
internal_weight=9676.5 5593.58 4082.92 3049.92 2543.65 1135.22 2947.7 1346.22 787.172 1173.6 2230.29 774.764 1197.44 777.711 348.049 717.417 374.027 232.078 34.801 543.807 381.038 702.062 398.839 403.737 251.023 413.145 258.847 209.564 157.826 343.773
internal_count=90000 77035 12965 50310 26725 6646 6319 12034 4023 10691 4257 7316 14691 9830 2623 2062 1608 1788 247 1142 817 8978 3375 1024 663 2415 1563 1308 1012 3269
is_linear=0
shrinkage=0.05


Tree=8
num_leaves=31
num_cat=0
split_feature=10 10 10 10 10 10 10 10 10 7 10 7 6 1 6 6 10 7 2 6 8 6 6 5 1 6 1 6 1 6
split_gain=7608 1134.54 262.938 149.759 90.3669 26.6622 25.9996 16.0603 8.41537 9.51947 5.4543 5.23485 4.51182 4.44852 4.3736 4.04818 3.76538 3.75635 3.40469 3.35895 3.33256 3.45455 3.29216 5.47548 5.59417 3.04684 2.94496 2.85169 2.61692 2.61475
threshold=0.75000000000000011 0.15000000000000005 1.7500000000000002 1.0000000180025095e-35 0.25000000000000006 1.2500000000000002 2.6500000000000008 0.35000000000000003 0.65000000000000002 1.0000000180025095e-35 0.95000000000000007 1.0000000180025095e-35 0.44087670505257764 4.8500000000000005 0.44833370008005463 0.47643458558915419 1.9500000000000002 1.0000000180025095e-35 0.83711154561181877 0.32238468758606015 0.41666666666666669 0.6082091404705271 0.43176769473333804 11.500000000000002 4.1500000000000012 0.43107412692130176 3.1500000000000008 0.4791616071722859 4.5500000000000007 0.52344128672781387
decision_type=2 2 2 2 2 2 2 2 2 2 2 2 2 2 2 2 2 2 2 2 2 2 2 2 2 2 2 2 2 2
left_child=1 3 5 -1 12 10 13 11 9 14 -2 15 -3 16 -9 -6 -4 29 -15 -11 21 25 -18 24 -24 -21 -7 -22 -26 -14
right_child=2 4 6 -5 7 26 -8 8 -10 19 -12 -13 17 18 -16 -17 22 -19 -20 20 27 -23 23 -25 28 -27 -28 -29 -30 -31
leaf_value=-0.071420092851089509 0.021565540992332637 -0.019753657151538172 0.051707380945720527 -0.048477734198533573 -0.0078351444102354572 0.05684486104470992 0.067561286549184238 -5.6117726891097069e-05 0.0081164972060275894 -0.0083846890873009138 0.031586807052505668 0.00055180072014454358 -0.033136343901938495 0.053832940695673216 -0.008797335002814613 -0.017120524543386251 0.065322921419150998 -0.015475910678697778 0.030951682186014802 0.017737238205502607 0.022945237668458809 0.007482085586918024 0.029126937189033416 0.060253025559848933 0.065920173536678436 0.050625137358775552 0.041791674625407789 -0.0095506075311669863 0.043410412476205418 -0.025731706444151781
leaf_weight=1285.3583378810436 271.23558953031898 412.76469574309886 180.55012756586075 1592.6917823981494 185.33434680663049 35.183154739439487 1793.5753417387605 214.88894804567099 189.29472773708403 17.873941171914339 271.88235848397017 73.655187770724297 154.92092256620526 40.849606610834599 428.33332509547472 320.14677765034139 193.40926063805819 72.728820350021124 27.005585625767708 13.428198374807836 10.659143742173912 19.168061040341854 30.994289308786392 342.40872814506292 29.102159254252911 14.808633858337997 424.61351136118174 18.415004070848227 23.209115445613861 517.41452525369823
leaf_count=23872 1829 4918 603 26438 1662 147 3599 1813 1594 153 1615 622 2227 110 4097 3119 462 848 82 89 81 152 99 855 73 86 1839 160 58 6698
internal_value=-4.17889e-11 -0.0369592 0.0559013 -0.058724 -0.0134441 0.0340832 0.0641241 -0.00536935 -0.00128791 -0.00370149 0.0265821 -0.0119014 -0.0239471 0.0570178 -0.00587705 -0.013716 0.0580608 -0.0262702 0.0447265 0.0111297 0.0156904 0.0238643 0.0599136 0.0574561 0.0459598 0.0349851 0.0429435 0.002363 0.0559332 -0.0274379
internal_weight=9205.9 5541.89 3664.02 2878.05 2663.84 1002.91 2661.1 1506.01 926.87 737.575 543.118 579.136 1157.83 867.529 643.222 505.481 799.674 745.064 67.8552 94.353 76.479 47.4049 619.124 425.714 83.3056 28.2368 459.797 29.0741 52.3113 672.335
internal_count=90000 78629 11371 50310 28319 5430 5941 13628 8225 6631 3444 5403 14691 2342 5910 4781 2150 9773 192 721 568 327 1547 1085 230 175 1986 241 131 8925
is_linear=0
shrinkage=0.05


Tree=9
num_leaves=31
num_cat=0
split_feature=10 10 10 10 10 10 10 10 10 7 10 6 5 4 7 6 6 6 4 7 6 7 4 7 10 3 3 6 3 4
split_gain=6683.44 1038.31 247.485 147.996 78.8985 32.7307 18.601 13.8691 7.37988 8.64001 6.7765 5.23389 4.94569 5.02987 4.81282 4.02118 3.83573 3.69532 3.28866 3.28051 2.9566 3.08572 2.74412 2.71707 2.5603 2.53424 2.66808 2.43439 2.36765 2.23123
threshold=0.75000000000000011 0.15000000000000005 1.8500000000000003 1.0000000180025095e-35 0.25000000000000006 1.3500000000000003 2.8500000000000001 0.35000000000000003 0.65000000000000002 1.0000000180025095e-35 0.95000000000000007 0.42419464524574563 11.500000000000002 134.50000000000003 1.0000000180025095e-35 0.44087670505257764 0.34531369501655473 0.42112593198498977 23.500000000000004 1.0000000180025095e-35 0.49419877760273662 1.0000000180025095e-35 178.50000000000003 1.0000000180025095e-35 0.45000000000000007 0.93943263222702922 0.49886381643414596 0.60407262980892329 0.72853456366528069 177.50000000000003
decision_type=2 2 2 2 2 2 2 2 2 2 2 2 2 2 2 2 2 2 2 2 2 2 2 2 2 2 2 2 2 2
left_child=1 3 5 -1 15 10 11 14 9 16 25 -4 13 -13 17 -3 24 28 -14 27 -15 22 -22 -12 -9 26 -2 -17 -6 -18
right_child=2 4 6 -5 7 -7 -8 8 -10 -11 23 12 18 20 -16 19 29 -19 -20 -21 21 -23 -24 -25 -26 -27 -28 -29 -30 -31
leaf_value=-0.070008505419514491 0.0091833211400617204 -0.018561704263926889 0.063393802089004331 -0.046492969644219943 -0.015957438100964016 0.044492708695417167 0.066588652569533072 0.011661040018746967 0.0077993483201189932 0.010948688930209701 0.028865125553909549 0.03296293898462118 0.040065204916082169 0.06772925447686183 0.0009990738965516277 -0.029078996624852617 -0.0058908943554185763 -0.015606178133382257 0.058325809775760955 -0.01455900848451214 0.049843902399407454 0.062409928109255844 0.024951295445375152 0.039328552004740169 -0.0038976938790472484 0.012170131164136441 0.025845576863526471 -0.022960091615271676 -0.0018796613124117409 -0.015034939436289219
leaf_weight=1191.3885494088754 28.017830371856689 402.28466193377972 270.55858288705349 1526.1993504446 42.538126118481159 443.42764884606004 1459.5075277090073 48.269244968891144 184.06215138733387 91.410262834280729 281.24077089689672 44.581430613994598 25.961294092237949 25.855762973427773 71.715228155255318 313.88095681369305 445.0403504576534 352.78949596732855 490.51076024770737 70.547062434256077 29.669117756187916 24.516624763607979 17.662267245352268 79.603962313383818 58.471033602952957 66.344850735738873 168.6067679040134 337.14493620768189 100.26518264226615 78.47615810111165
leaf_count=23872 193 4918 694 26438 395 1843 3115 397 1594 721 1703 134 77 65 622 4508 4195 3511 1286 848 88 59 59 419 517 479 1157 4417 875 801
internal_value=5.28489e-11 -0.0351979 0.0541248 -0.0568022 -0.0125896 0.0341071 0.063068 -0.00497715 -0.00113744 -0.00341678 0.0267247 0.0575387 0.055134 0.04688 -0.0111074 -0.0225673 -0.0055003 -0.0128593 0.0574079 -0.0248004 0.0532302 0.0480125 0.0405549 0.0311734 0.00313815 0.0206201 0.0234713 -0.0259102 -0.00607314 -0.0072616
internal_weight=8770.55 5314.48 3456.07 2717.59 2596.89 1067.24 2388.82 1473.04 905.729 721.667 623.814 929.316 658.757 142.285 567.308 1123.86 630.257 495.593 516.472 721.573 97.7038 71.848 47.3314 360.845 106.74 262.969 196.625 651.026 142.803 523.517
internal_count=90000 78629 11371 50310 28319 5794 5577 13628 8225 6631 3951 2462 1768 405 5403 14691 5910 4781 1363 9773 271 206 147 2122 914 1829 1350 8925 1270 4996
is_linear=0
shrinkage=0.05


Tree=10
num_leaves=31
num_cat=0
split_feature=10 10 10 10 10 10 10 10 7 10 7 10 6 6 6 6 6 6 7 8 7 6 10 6 6 4 2 2 2 6
split_gain=5909.24 951.873 233.716 146.389 69.4665 23.7244 22.5733 12.0277 6.63605 7.48494 4.56549 4.36252 3.67554 3.54856 3.93068 3.51792 3.22317 3.11599 4.02534 3.1248 2.95264 2.87411 2.65776 2.5393 3.19577 2.39796 2.84796 4.76927 2.88205 3.99953
threshold=0.75000000000000011 0.15000000000000005 1.7500000000000002 1.0000000180025095e-35 0.25000000000000006 2.5500000000000003 1.2500000000000002 0.35000000000000003 1.0000000180025095e-35 0.65000000000000002 1.0000000180025095e-35 0.8500000000000002 0.44087670505257764 0.47643458558915419 0.49687277120573159 0.44833370008005463 0.42112593198498977 0.42259181118865125 1.0000000180025095e-35 0.41666666666666669 1.0000000180025095e-35 0.3139205909256686 2.8500000000000001 0.43991807150772111 0.61134508141978305 181.50000000000003 0.86578686152735218 0.83711154561181877 0.76673830921579034 0.61924971611861124
decision_type=2 2 2 2 2 2 2 2 2 2 2 2 2 2 2 2 2 2 2 2 2 2 2 2 2 2 2 2 2 2
left_child=1 3 6 -1 12 13 11 10 9 15 16 -2 -3 -4 -15 -9 -6 21 -19 -20 -14 -8 -7 -11 -25 26 27 28 -17 -30
right_child=2 4 5 -5 7 22 17 8 -10 23 -12 -13 20 14 -16 25 -18 18 19 -21 -22 -23 -24 24 -26 -27 -28 -29 29 -31
leaf_value=-0.068795456575301492 0.016698536405223584 -0.017494489629910938 0.057940730393148725 -0.04468945487523987 -0.0057002312471384625 0.059900049572348957 0.038617195635901547 0.00024792202895522616 0.010144701489492404 0.016848766413422665 0.0015555513341993892 0.027099271669297639 -0.024618109620762014 0.031935834249141967 0.051691127702919254 -0.0031431507929399814 -0.01468794111531639 0.033398230900369197 0.054992756472366712 0.034831747815370975 -0.01369646234220335 0.053423330974606033 0.065187707202012612 -0.0057836904216597091 0.011626859713364752 -0.019032744093002776 -0.01462150482348272 0.013996415587257956 -0.024713836053225288 -0.00021340079758843213
leaf_weight=1104.7565683349967 138.53258345648646 392.25757610425353 250.71746379137039 1464.896450728178 140.01183471083641 288.07929556071758 63.062281906604767 202.12482111342251 115.95812357030809 47.25319941341877 69.96585277095437 370.35841024294496 629.13304549269378 26.828527167439461 409.56024677306414 183.28667415492237 346.91796393692493 209.78237533196807 46.332498393952847 32.843052789568901 68.634497977793217 68.24774331599474 1357.43835259974 52.842583520337939 52.584878973662853 42.642285173758864 83.661533888429403 32.191781116649508 42.366412213072181 27.449485301971436
leaf_count=23872 1029 4918 748 26438 1270 712 298 1813 949 410 622 2415 8925 107 1259 1721 3511 1029 184 172 848 303 3115 493 463 471 903 277 463 262
internal_value=-3.97014e-11 -0.0336203 0.0525565 -0.0550532 -0.0118453 0.0610036 0.0313502 -0.00463409 -0.00100285 -0.00268949 -0.0103875 0.0242679 -0.0213669 0.0532002 0.0504766 -0.00515407 -0.0121036 0.039926 0.0370237 0.0466297 -0.0235438 0.0463126 0.064262 0.00721722 0.00290031 -0.00780684 -0.0065094 -0.00413055 -0.00643609 -0.015081
internal_weight=8360.72 5098.94 3261.78 2569.65 2529.28 2332.62 929.159 1439.26 882.362 766.404 556.896 508.891 1090.03 687.106 436.389 613.723 486.93 420.268 288.958 79.1756 697.768 131.31 1645.52 152.681 105.427 411.598 368.956 285.294 253.103 69.8159
internal_count=90000 78629 11371 50310 28319 5941 5430 13628 8225 7276 5403 3444 14691 2114 1366 5910 4781 1986 1385 356 9773 601 3827 1366 956 4097 3626 2723 2446 725
is_linear=0
shrinkage=0.05


Tree=11
num_leaves=31
num_cat=0
split_feature=10 10 10 10 10 10 10 10 7 10 10 6 7 7 5 6 5 4 6 2 6 7 1 4 2 4 6 6 8 2
split_gain=5232.8 875.016 220.222 144.859 60.7054 34.6942 14.1761 11.4071 5.96323 6.82786 5.94052 5.11897 4.04029 3.8745 3.79484 3.76746 3.50374 3.36334 3.27524 3.06664 2.81822 2.69513 2.60683 2.59393 2.59337 2.52904 2.48951 2.46264 2.71824 2.37044
threshold=0.75000000000000011 0.15000000000000005 1.9500000000000002 1.0000000180025095e-35 0.25000000000000006 1.3500000000000003 2.8500000000000001 0.35000000000000003 1.0000000180025095e-35 0.65000000000000002 1.0500000000000003 0.42259181118865125 1.0000000180025095e-35 1.0000000180025095e-35 12.500000000000002 0.47794124295526441 15.500000000000002 145.50000000000003 0.43745822574105514 0.68473112560738869 0.45070459741130764 1.0000000180025095e-35 4.0500000000000007 101.50000000000001 0.82309794318479645 23.500000000000004 0.47667340386998452 0.32238468758606015 0.41666666666666669 0.60788512216101276
decision_type=2 2 2 2 2 2 2 2 2 2 2 2 2 2 2 2 2 2 2 2 2 2 2 2 2 2 2 2 2 2
left_child=1 3 5 -1 18 10 11 12 9 20 13 -4 23 15 17 19 -17 22 -3 -2 -9 -20 -13 -6 -25 -16 -24 -10 29 -29
right_child=2 4 6 -5 7 -7 -8 8 27 -11 -12 14 -14 -15 25 16 -18 -19 21 -21 -22 -23 26 24 -26 -27 -28 28 -30 -31
leaf_value=-0.067747397614140697 0.011121006878752518 -0.016414448898154164 0.06183466772859491 -0.043022674751020763 -0.0077578039372146997 0.042562562782937713 0.063964278219643275 3.9506566658192318e-05 -0.0056649751004838626 0.007294567890289168 0.0301887777934223 0.023826605368267695 0.0013822717126903224 0.030437561561935861 0.038561320615690772 0.0040954343582625058 0.018848785180109514 0.053360074999576526 -0.023270724029791055 0.030908886769380053 -0.0072048076742362507 -0.012765463815638773 0.057134956395279136 -0.019020306654490667 -0.0084483097545583006 0.056289752798940808 0.03520322331941076 -0.002323181352861645 0.0027771633700353821 0.024967540586316464
leaf_weight=1023.5026613194495 27.619410019367933 373.07638591527939 214.85384605824947 1406.4946891609579 228.40006355382502 482.22909124195576 1261.67968352139 203.61562491767108 20.648469507694244 146.90012462437153 254.46378747373819 21.651192776858807 68.430276423692703 70.313394021242857 21.278484515845776 69.427815923467278 95.734209513291717 76.538353197276592 618.91720488108695 67.26263490319252 394.09177927859128 67.734607648104429 22.301155500113964 157.73720071837306 91.749487770721316 368.40692370757461 30.822546638548374 9.5918045341968519 36.372324824333191 46.679460525512695
leaf_count=23872 205 4794 589 26438 2232 2139 3115 1863 191 1366 1577 78 622 452 69 542 716 239 9037 459 4047 860 60 1627 922 1029 102 83 326 349
internal_value=7.99618e-12 -0.0321473 0.0510043 -0.0534366 -0.0111513 0.0326339 0.0607203 -0.00433348 -0.000737279 -0.00236331 0.024447 0.0553053 -0.00998071 0.0200242 0.0527122 0.0172085 0.012647 0.045992 -0.0201855 0.0251488 -0.00473695 -0.0222344 0.0384501 -0.0116078 -0.0151324 0.0553217 0.0444101 0.00994974 0.01343 0.0203157
internal_weight=7978.52 4893.94 3084.58 2430 2463.94 1067.05 2017.53 1404.22 857.9 744.608 584.821 755.853 546.317 330.357 540.999 260.044 165.162 151.313 1059.73 94.882 597.707 686.652 74.7749 477.887 249.487 389.685 53.1237 113.292 92.6436 56.2713
internal_count=90000 78629 11371 50310 28319 6090 5281 13628 8225 7276 3951 2166 5403 2374 1577 1922 1258 479 14691 664 5910 9897 240 4781 2549 1098 162 949 758 432
is_linear=0
shrinkage=0.05


Tree=12
num_leaves=31
num_cat=0
split_feature=10 10 10 10 10 10 10 10 10 7 7 6 10 5 4 4 6 4 7 6 6 6 5 1 1 6 8 2 1 1
split_gain=4669.38 804.426 208.001 143.079 53.7046 30.5011 13.9634 10.147 5.44667 5.90792 4.21887 3.64077 3.63904 3.60086 3.4482 3.59152 3.32749 3.07173 3.01229 2.92913 2.54393 2.52944 2.49368 2.89325 2.71259 2.48561 2.39795 2.39208 2.33653 3.57556
threshold=0.75000000000000011 0.15000000000000005 1.6500000000000001 1.0000000180025095e-35 0.25000000000000006 2.5500000000000003 1.0500000000000003 0.35000000000000003 0.65000000000000002 1.0000000180025095e-35 1.0000000180025095e-35 0.47153916008177149 1.9500000000000002 12.500000000000002 23.500000000000004 36.500000000000007 0.43176769473333804 100.50000000000001 1.0000000180025095e-35 0.43745822574105514 0.39278086406799245 0.52344128672781387 4.5000000000000009 4.5500000000000007 4.4500000000000011 0.47643458558915419 0.41666666666666669 0.87295674998957395 3.1500000000000008 3.4500000000000006
decision_type=2 2 2 2 2 2 2 2 2 2 2 2 2 2 2 2 2 2 2 2 2 2 2 2 2 2 2 2 2 2
left_child=1 3 6 -1 19 12 18 10 9 22 17 27 28 -13 -15 -16 -14 -6 25 -3 -5 -21 23 24 -9 -2 -20 -8 -4 -30
right_child=2 4 5 20 7 -7 11 8 -10 -11 -12 13 16 14 15 -17 -18 -19 26 21 -22 -23 -24 -25 -26 -27 -28 -29 29 -31
leaf_value=-0.066831887131131515 0.023743698596400437 -0.015567264149765525 0.061643557417830244 -0.037828564139458142 -0.0069494850572260321 0.061986677578892785 0.036027696735961873 0.0043489068541393509 0.0074306079093224347 0.0096675595391790548 0.0022539392637497529 0.019427916405772263 0.05846022740385131 0.0064140687776640245 0.057946475885792617 0.032433613376099846 0.04916251392945542 -0.015131285560027198 0.036508344564565136 -0.026739572857780333 -0.04278620349677318 -0.019450646603893267 -0.0057500030265873955 -0.020595527881276117 0.039537890715640199 0.013325535151030752 0.017412344568571533 0.050944933670649117 0.029261226967826251 0.045867208557036451
leaf_weight=949.0768362833187 88.610158214345574 363.88130652159452 18.214340314269066 348.5297036813572 220.44842355512083 1427.5759752243757 139.89379873126745 65.088984103873372 167.15634333528578 84.965153079479933 66.647832632064819 65.636731624603271 136.8544934913516 11.757705196738241 14.845621410757301 194.79116576164961 324.16127328202128 239.17977831885219 40.988945640623569 155.0309624504298 1004.6173215201125 512.48054849822074 505.22262833639979 10.685265712440012 5.9797261431813231 161.77912194468081 27.448864452540874 33.264686618000269 39.072896633297205 190.25616685673594
leaf_count=23872 643 4794 73 6936 2204 3827 774 614 1594 721 622 410 417 73 74 1163 1037 2577 259 2504 19502 7393 5149 104 43 1279 193 184 169 796
internal_value=-2.24915e-11 -0.0308402 0.049712 -0.0519484 -0.0105647 0.0577775 0.0275956 -0.0040597 -0.000646086 -0.00265529 -0.00950239 0.0331675 0.0492969 0.0297133 0.0327625 0.0342403 0.0519226 -0.0112071 0.0195533 -0.0191762 -0.0415093 -0.0211435 -0.00443903 0.00366249 0.00730971 0.0170124 0.0288494 0.0388934 0.0444069 0.0430379
internal_weight=7614.14 4698.99 2915.15 2302.22 2396.77 2136.14 779.017 1365.37 839.098 671.942 526.276 460.19 708.559 287.031 221.394 209.637 461.016 459.628 318.827 1031.39 1353.15 667.512 586.977 81.754 71.0687 250.389 68.4378 173.158 247.543 229.329
internal_count=90000 78629 11371 50310 28319 6319 5052 13628 8225 6631 5403 2678 2492 1720 1310 1237 1454 4781 2374 14691 26438 9897 5910 761 657 1922 452 958 1038 965
is_linear=0
shrinkage=0.05


Tree=13
num_leaves=31
num_cat=0
split_feature=10 10 10 10 10 10 6 10 10 7 10 1 2 6 6 4 1 1 6 6 7 4 3 7 3 3 4 4 5 6
split_gain=4202.56 779.384 193.286 124.635 47.8513 23.8396 20.9482 19.5865 8.91435 9.19658 5.13877 4.76325 4.98125 4.41182 3.29763 5.14545 3.99238 3.08991 2.86211 2.67645 2.56288 2.6651 2.54998 2.49325 2.42807 4.18802 3.21327 3.11729 3.04934 2.70984
threshold=0.75000000000000011 0.15000000000000005 1.7500000000000002 1.0000000180025095e-35 0.25000000000000006 2.6500000000000008 0.39278086406799245 1.3500000000000003 0.65000000000000002 1.0000000180025095e-35 0.8500000000000002 4.8500000000000005 0.83711154561181877 0.47643458558915419 0.52344128672781387 19.500000000000004 4.1500000000000012 4.8500000000000005 0.43991807150772111 0.43745822574105514 1.0000000180025095e-35 45.500000000000007 0.47010979913665552 1.0000000180025095e-35 0.8944548978871466 0.98237287043386556 130.50000000000003 23.500000000000004 13.500000000000002 0.5408735818336311
decision_type=2 2 2 2 2 2 2 2 2 2 2 2 2 2 2 2 2 2 2 2 2 2 2 2 2 2 2 2 2 2
left_child=1 3 7 -1 19 11 -5 10 9 13 -2 18 -13 -6 15 -15 -17 -9 -4 -3 21 -12 -22 -21 29 27 -27 -26 -29 -16
right_child=2 4 5 6 8 -7 -8 17 -10 -11 20 12 -14 14 24 16 -18 -19 -20 23 22 -23 -24 -25 25 26 -28 28 -30 -31
leaf_value=-0.066041166987765326 0.014012306319131237 -0.014680847012223636 0.055781350387814559 -0.03063682571648409 -0.0026545776349192101 0.06123819827370728 -0.045354551778273799 0.040399902456712398 0.007181942349233807 0.0063607610159904836 0.032432472063107176 0.04782566164664314 0.016522574990373625 0.030711865619709462 0.013499460112878335 -0.024875245722587119 -0.0065191860574899362 0.020118934876990045 0.04848054677892577 -0.021112320492053298 0.0077123713641232498 0.021143569940704352 0.035516842677237287 -0.010904252641596323 -0.042010583597644847 0.016157961034366335 -0.0098630909732310978 -0.023872023898246303 -0.0091763557678755502 -0.005819755481743542
leaf_weight=883.24136581085622 126.97492493316531 356.11379264388233 196.88880315423012 326.00718533433974 377.61957847513258 1260.0920193791389 935.7069206526503 266.07778657972813 163.76614564843476 148.49230837635696 65.361662982031703 31.385771945118904 21.356517028063536 5.5592375285923472 19.516955401748419 84.107604917138815 45.726248692721128 20.206802491098642 421.88941935822368 585.87370091304183 9.140749126672743 261.2561967112124 84.249162405729294 66.617735819891095 9.9298035651445371 21.520266693085432 26.441308788955212 48.701902560889721 128.27037021890283 259.38474817015231
leaf_count=23872 1029 4794 680 6936 3698 3599 19502 1371 1594 1343 442 110 82 49 192 982 477 108 1470 9037 58 1896 526 860 124 198 288 582 1373 2728
internal_value=4.11223e-11 -0.0298486 0.0485003 -0.0516359 -0.00994228 0.0571832 -0.0415517 0.0283724 -0.00374693 -0.0052698 0.0228265 0.0495742 0.0351504 -0.00695181 -0.00945153 -0.0163935 -0.0184104 0.0389684 0.0508036 -0.0181673 0.0254912 0.0234027 0.0327954 -0.0200701 -0.00762212 -0.0113678 0.00181251 -0.0147501 -0.0132205 -0.00446784
internal_weight=7257.48 4492.6 2764.88 2144.96 2347.64 1931.61 1261.71 833.267 1339.04 1175.27 546.983 671.521 52.7423 1026.78 649.158 135.393 129.834 286.285 618.778 1008.61 420.008 326.618 93.3899 652.491 513.765 234.864 47.9616 186.902 176.972 278.902
internal_count=90000 78629 11371 50310 28319 5941 26438 5430 13628 12034 3951 2342 192 10691 6993 1508 1459 1479 2150 14691 2922 2338 584 9897 5485 2565 486 2079 1955 2920
is_linear=0
shrinkage=0.05


Tree=14
num_leaves=31
num_cat=0
split_feature=10 10 10 10 10 10 10 10 6 10 6 5 5 10 7 7 2 5 6 6 4 2 5 7 2 4 4 4 2 1
split_gain=3796.49 752.244 184.783 108.188 42.9552 28.3172 14.8284 8.83379 8.14387 5.05407 4.48345 4.73586 5.45932 4.31435 4.89166 3.33119 2.91242 2.52959 2.46776 2.68057 2.42458 2.24254 2.23419 2.20007 2.1704 2.10927 2.08718 2.80589 2.09072 2.07867
threshold=0.75000000000000011 0.15000000000000005 1.9500000000000002 1.0000000180025095e-35 0.25000000000000006 1.3500000000000003 2.8500000000000001 0.35000000000000003 0.39278086406799245 0.95000000000000007 0.42259181118865125 11.500000000000002 10.500000000000002 0.65000000000000002 1.0000000180025095e-35 1.0000000180025095e-35 0.76445161262609984 5.5000000000000009 0.43745822574105514 0.52344128672781387 100.50000000000001 0.9209908258094367 19.500000000000004 1.0000000180025095e-35 0.89165472301423787 23.500000000000004 177.50000000000003 174.50000000000003 0.36157454899960878 3.1500000000000008
decision_type=2 2 2 2 2 2 2 2 2 2 2 2 2 2 2 2 2 2 2 2 2 2 2 2 2 2 2 2 2 2
left_child=1 3 5 -1 18 9 10 15 -5 -2 21 12 16 14 26 17 -12 -6 -3 -20 -19 -4 -22 -11 -18 -13 27 28 -9 -7
right_child=2 4 6 8 7 29 -8 13 -10 23 11 25 -14 -15 -16 -17 24 20 19 -21 22 -23 -24 -25 -26 -27 -28 -29 -30 -31
leaf_value=-0.065336882545091415 0.016472385051589756 -0.013947201142805996 0.059874015485583978 -0.03450081835868709 -0.0024734843429226102 0.052087269502529537 0.061121126615189231 0.025202591505379429 -0.044102336050764912 0.024075103536907758 0.055113328221369808 0.034820745619868455 0.016833814183194091 0.007079806367021841 0.0093503353885181079 0.001968377459200686 0.028355517030310692 -0.0077364189193192441 -0.025141227081189172 -0.017413887221761383 -0.019146020788343002 0.040397007156060032 -0.0064123761938471597 0.034344823965551975 0.05194462000173386 0.052429965695017955 -0.011725577953422269 0.021689727261252546 -0.003552893453331193 0.038469985924090053
leaf_weight=822.6278959941119 227.04160361737013 348.59893664252013 164.83139709383249 294.93797676917166 84.118337538093328 30.16872363910079 1023.0949010029435 6.4068065062165251 879.13300734013319 237.58460860140622 39.341367304325104 17.889747940003872 21.226562358438969 160.61815943196416 81.717651654034853 63.754631085321307 28.795582793653011 166.55184301547706 145.50841706898063 490.70825271494687 141.02281631715596 16.2342244759202 45.581186575815082 66.817281413823366 14.744046460837124 344.08045249059796 71.457531357184052 11.627718474715946 472.60876714903861 394.3741617500782
leaf_count=23872 1829 4794 542 6936 830 147 3115 57 19502 1703 130 69 92 1594 721 622 100 1786 2504 7393 1663 47 502 419 55 1131 818 102 4933 1992
internal_value=3.03245e-11 -0.0290009 0.0473403 -0.0514326 -0.00944464 0.0298096 0.0573742 -0.00349722 -0.0416903 0.0221183 0.0514506 0.0488567 0.0394587 -0.00025124 -0.00208017 -0.00870887 0.0452531 -0.0102656 -0.0173285 -0.0191812 -0.0121216 0.0581277 -0.0160356 0.0263293 0.0363436 0.0515597 -0.00374193 -0.00257918 -0.00316829 0.0394377
internal_weight=6913.2 4286.98 2626.22 1996.7 2290.28 955.986 1670.24 1305.47 1174.07 531.443 647.143 466.078 104.108 804.437 643.818 501.029 82.881 437.274 984.816 636.217 353.156 181.066 186.604 304.402 43.5396 361.97 562.101 490.643 479.016 424.543
internal_count=90000 78629 11371 50310 28319 6090 5281 13628 26438 3951 2166 1577 377 8225 6631 5403 285 4781 14691 9897 3951 589 2165 2122 155 1200 5910 5092 4990 2139
is_linear=0
shrinkage=0.05


Tree=15
num_leaves=31
num_cat=0
split_feature=10 10 10 10 10 10 10 10 6 10 6 10 7 6 7 6 3 6 6 5 5 2 3 6 2 6 4 1 6 2
split_gain=3418.25 702.669 175.834 103.864 38.6226 26.2756 14.6923 7.90423 4.98974 4.53068 4.08702 4.03858 4.50395 3.52005 2.96548 2.8965 3.62157 2.52037 2.55954 2.33612 3.99081 2.38196 2.30922 2.29651 2.97717 2.26865 2.23566 2.51527 2.4207 2.19251
threshold=0.75000000000000011 0.15000000000000005 1.9500000000000002 1.0000000180025095e-35 0.25000000000000006 1.3500000000000003 2.8500000000000001 0.35000000000000003 0.39278086406799245 0.95000000000000007 0.42259181118865125 0.65000000000000002 1.0000000180025095e-35 0.57636130841348432 1.0000000180025095e-35 0.55410181017320193 0.8944548978871466 0.44509871288111724 0.52344128672781387 11.500000000000002 10.500000000000002 0.84857668112744655 0.55383794686673971 0.47292896231563447 0.71430671098636378 0.45070459741130764 61.500000000000007 3.2500000000000004 0.39492848060567415 0.76445161262609984
decision_type=2 2 2 2 2 2 2 2 2 2 2 2 2 2 2 2 2 2 2 2 2 2 2 2 2 2 2 2 2 2
left_child=1 3 5 -1 17 9 10 14 -5 -2 -4 12 25 15 26 19 -17 -3 -19 20 21 -12 -15 29 -25 -9 27 -6 -28 -11
right_child=2 4 6 8 7 -7 -8 11 -10 23 13 -13 -14 22 -16 16 -18 18 -20 -21 -22 -23 -24 24 -26 -27 28 -29 -30 -31
leaf_value=-0.064727922049696102 0.016027694405673591 -0.013254055170117508 0.057002732260880019 -0.034985312184687485 -0.021714238934818358 0.038433043878600637 0.0603626647367837 0.00086791092703117031 -0.042721408238030945 0.024331299206083914 0.051452630765686541 0.0069591067596142565 0.0090858814411924598 0.03821404747458064 0.001892608567248779 0.047071386486603965 0.014127897308761524 -0.024840158786987372 -0.016884027500939296 0.052219387875663159 0.017627941012321912 0.030657247579384452 0.053400566864454324 0.030812901535513412 0.017494493225851223 -0.0059215951810597653 -0.0030804182185774054 -0.0012773538257965442 -0.014359666328146423 0.038501601698323853
leaf_weight=764.22915903385729 220.53279767744243 353.39861541893333 170.94392332434654 277.63067704811692 17.535287193953991 408.05813546851277 951.45275432616472 185.94212384335697 836.32426814455539 55.869939539581537 46.615781556814909 156.643106225878 79.817434307187796 28.138608258217573 61.926148286089301 15.539341330528258 18.013183802366257 128.20116943307221 477.9710418144241 71.395415842533112 16.210226282477379 19.543276630342007 226.70130854472518 64.244391124695539 120.97101572342217 363.67585525196046 59.19847059994936 106.46302556060255 242.13677583821118 53.377038389444351
leaf_count=23872 1829 4996 589 6936 191 2139 3115 1863 19502 387 160 1594 721 99 622 49 61 2302 7393 246 74 79 809 447 902 4047 603 1123 2864 386
internal_value=-1.94107e-11 -0.0279933 0.0462626 -0.0505323 -0.009035 0.028956 0.0564732 -0.0033265 -0.0407933 0.0214468 0.0504372 -0.00022498 -0.00201283 0.0478989 -0.00833008 0.0426953 0.0293852 -0.0166101 -0.0185667 0.0455997 0.039862 0.0453097 0.0517237 0.0255054 0.0221142 -0.00362463 -0.00981845 -0.00416745 -0.0121438 0.0312548
internal_weight=6598.7 4111.09 2487.61 1878.18 2232.91 923.053 1564.55 1273.34 1113.95 514.995 613.101 786.079 629.435 442.157 487.26 187.317 33.5525 959.571 606.172 153.765 82.3693 66.1591 254.84 294.462 185.215 549.618 425.334 123.998 301.335 109.247
internal_count=90000 78629 11371 50310 28319 6090 5281 13628 26438 3951 2166 8225 6631 1577 5403 669 110 14691 9695 559 313 239 908 2122 1349 5910 4781 1314 3467 773
is_linear=0
shrinkage=0.05


Tree=16
num_leaves=31
num_cat=0
split_feature=10 10 10 10 10 10 10 10 10 7 6 10 10 7 2 6 2 6 2 3 4 4 3 2 1 1 6 5 6 6
split_gain=3080.86 654.301 166.599 101.288 34.6347 22.6547 15.489 6.96005 3.79121 4.14349 3.41189 3.19612 2.7927 2.70869 2.44552 2.41977 4.56682 2.58612 4.77392 3.77607 2.74394 3.49381 3.38476 3.31998 3.47867 3.00448 2.30731 2.16681 2.13347 2.00635
threshold=0.75000000000000011 0.15000000000000005 1.7500000000000002 1.0000000180025095e-35 0.25000000000000006 2.5500000000000003 1.2500000000000002 0.35000000000000003 0.65000000000000002 1.0000000180025095e-35 0.42419464524574563 0.8500000000000002 2.8500000000000001 1.0000000180025095e-35 0.39863991925193693 0.43176769473333804 0.9238063334046438 0.65586819617634939 0.75637243401835774 0.74448419038033431 83.500000000000014 99.500000000000014 0.91379730051521157 0.85012875834703527 3.5500000000000003 3.9500000000000006 0.43745822574105514 5.5000000000000009 0.60407262980892329 0.45070459741130764
decision_type=2 2 2 2 2 2 2 2 2 2 2 2 2 2 2 2 2 2 2 2 2 2 2 2 2 2 2 2 2 2
left_child=1 3 6 -1 26 15 11 13 9 29 -5 -2 -7 27 -8 16 -4 18 -17 -19 22 -22 -20 24 -23 -25 -3 -6 -28 -9
right_child=2 4 5 10 7 12 14 8 -10 -11 -12 -13 -14 -15 -16 17 -18 19 20 -21 21 23 -24 25 -26 -27 28 -29 -30 -31
leaf_value=-0.064189619426848282 0.012498137142072671 -0.012588559441795539 0.053620682286571256 -0.035407904966572513 -0.0020028888425325264 0.053167856663778525 0.0079924157141844573 0.00072341496940799444 0.0068067415179435126 0.0087849851274162585 -0.04162236272272777 0.022205245410510221 0.059685671065983874 0.0019488161026670601 0.034675114342004709 0.048329529616651525 0.021430695739444304 0.033796879352820768 0.028838177684062993 0.053592891694878554 0.0043055963416063847 -0.00024591468829569639 0.056042152953470009 0.062908337603446884 0.03273082997637565 0.030745273232292366 -0.020935731868534094 -0.011152817557150429 -0.014964958188429493 -0.0057302151932492832
leaf_weight=709.54699146701023 117.50406644679606 334.54276118800044 139.46208982914686 313.47553310217336 80.231188418343663 201.89466509222984 8.8230491206049901 181.86027198471129 152.83817545510828 77.932850271463394 747.60972510278225 304.64976380579174 883.68045937269926 60.434731237590313 321.2311552669853 103.11346635222435 11.963413909077643 31.298811245709658 21.076702944934368 104.5802373662591 12.766045518219469 11.213800199329851 24.992713369429111 13.452949386090042 27.880072996020317 15.775418881326912 282.16426654998213 334.30929561145604 318.47792846430093 356.53184052649885
leaf_count=23872 1029 4794 583 8190 830 712 51 1863 1594 721 18248 2415 3115 622 1935 418 37 142 92 407 44 50 93 52 126 70 4966 3951 4931 4047
internal_value=2.8419e-11 -0.0269889 0.0452606 -0.0495655 -0.00864609 0.0543694 0.0258474 -0.00318122 -0.000242439 -0.00199052 -0.0397864 0.0195033 0.0584735 -0.00794022 0.0339618 0.0457613 0.0510775 0.0435628 0.0403348 0.049033 0.0338519 0.0283157 0.0435964 0.0328019 0.0232717 0.045549 -0.0159164 -0.00938192 -0.0177699 -0.00355028
internal_weight=6305.31 3949.96 2355.36 1770.63 2179.32 1603.15 752.208 1244.14 769.163 616.325 1061.09 422.154 1085.58 474.975 330.054 517.576 151.426 366.15 230.271 135.879 127.158 81.0883 46.0694 68.3222 39.0939 29.2284 935.185 414.54 600.642 538.392
internal_count=90000 78629 11371 50310 28319 5941 5430 13628 8225 6631 26438 3444 3827 5403 1986 2114 620 1494 945 549 527 342 185 298 176 122 14691 4781 9897 5910
is_linear=0
shrinkage=0.05


Tree=17
num_leaves=31
num_cat=0
split_feature=10 10 10 10 10 10 10 10 7 6 10 6 5 6 2 3 2 6 4 4 5 6 4 10 5 3 1 7 2 3
split_gain=2786.93 614.521 161.738 96.9559 31.483 22.8184 13.1364 6.34151 6.20755 4.44276 4.02577 3.62359 4.45782 3.13382 2.38986 2.79557 5.33064 3.32491 2.69725 2.51154 2.68953 2.20266 2.20074 3.37337 2.15429 2.05526 2.17484 2.0194 2.00835 2.6351
threshold=0.75000000000000011 0.15000000000000005 1.9500000000000002 1.0000000180025095e-35 0.25000000000000006 1.3500000000000003 2.8500000000000001 0.65000000000000002 1.0000000180025095e-35 0.42419464524574563 0.95000000000000007 0.42259181118865125 12.500000000000002 0.41509568634480065 0.95071266981983149 0.89081978404164464 0.58321874929393291 0.59102130410260834 49.500000000000007 193.50000000000003 15.500000000000002 0.44087670505257764 120.50000000000001 2.2500000000000004 18.500000000000004 0.96138483613577486 4.8500000000000005 1.0000000180025095e-35 0.82309794318479645 0.82589714867351383
decision_type=2 2 2 2 2 2 2 2 2 2 2 2 2 2 2 2 2 2 2 2 2 2 2 2 2 2 2 2 2 2
left_child=1 3 5 -1 21 10 11 8 13 -5 -2 -4 22 -6 15 19 -17 -18 -19 28 -21 -3 23 -13 -23 -20 -27 -12 -15 -30
right_child=2 4 6 9 7 -7 -8 -9 -10 -11 27 12 -14 14 -16 16 17 18 25 20 -22 24 -24 -25 -26 26 -28 -29 29 -31
leaf_value=-0.063709896436815655 0.014965382352572588 -0.012074674091796056 0.055646426602223922 -0.033909105557308181 -0.0012378637557528946 0.036610306581622253 0.059063115291798363 0.0066392502684013187 0.005638977907400416 -0.04119224691740879 0.021903126759616129 0.047809165486356553 0.049942918832427463 -0.0060593218102559573 0.011452382936382163 0.043291792500835681 -0.018413530139878245 0.015582509222299153 -0.015763488146246934 -0.042967469499262834 0.0030530933806096243 -0.01970080871192673 0.042591829476200285 0.014578308381690372 -0.013469639105903351 -0.00667539006582352 0.020853605387510615 0.032280720921779908 0.019412862979779077 -0.0039034078397437869
leaf_weight=659.27821119083092 209.06369286682457 334.4450017362833 151.4266703389585 297.0397533653304 267.55344843119383 376.60711909085512 820.78415394574404 149.34084427915514 135.57473609596491 709.60736167896539 213.64959873259068 12.32486557215452 281.58274579793215 311.68435995653272 15.992668025195597 4.295976858586072 134.31604483909905 11.759110683575271 63.231667706742883 8.7694847770035249 4.9763366170227519 342.44373807962984 82.661628998816013 20.078165385872126 233.14670192450285 51.268241420388222 8.3417316041886789 60.054954148828983 18.955586636438966 33.591869892552495
leaf_count=23872 1829 4918 589 8190 2782 2139 3115 1594 1343 18248 1703 56 1098 3598 172 35 1721 120 783 122 61 5986 339 84 3787 618 80 419 190 409
internal_value=2.97815e-11 -0.0260577 0.0443871 -0.0488048 -0.00826391 0.0273857 0.0550606 -0.00301268 -0.00435941 -0.0390431 0.0201897 0.0490665 0.0465545 -0.00580959 -0.00764294 -0.0081119 -0.0119652 -0.0128479 -0.00729413 -0.00532663 -0.0263069 -0.0153018 0.0382625 0.027218 -0.0171768 -0.00948402 -0.00282302 0.0241801 -0.00453485 0.00450753
internal_weight=6023.85 3795.61 2228.23 1665.93 2129.69 859.375 1368.86 1219.65 1070.31 1006.65 482.768 548.074 396.647 934.737 667.183 651.19 273.213 268.917 134.601 377.978 13.7458 910.035 115.065 32.403 575.59 122.842 59.61 273.705 364.232 52.5475
internal_count=90000 78629 11371 50310 28319 6090 5281 13628 12034 26438 3951 2166 1577 10691 7909 7737 3357 3322 1601 4380 183 14691 479 140 9773 1481 698 2122 4197 599
is_linear=0
shrinkage=0.05


Tree=18
num_leaves=31
num_cat=0
split_feature=10 10 10 10 10 10 10 10 10 7 10 6 6 5 7 10 6 5 4 4 7 4 8 6 3 3 1 6 6 5
split_gain=2524.23 573.955 155.338 93.8292 27.9691 20.8022 13.3214 6.00666 3.89481 3.1165 3.46653 3.04562 2.79281 3.72938 2.76719 2.60272 2.58366 2.67583 2.44661 3.10609 2.41345 2.14903 2.00242 2.7653 1.95897 2.927 1.93225 1.91287 3.55686 3.39169
threshold=0.75000000000000011 0.15000000000000005 1.7500000000000002 1.0000000180025095e-35 0.35000000000000003 2.3500000000000001 1.2500000000000002 0.25000000000000006 2.8500000000000001 1.0000000180025095e-35 0.65000000000000002 0.43508594875348255 0.42851039123149859 11.500000000000002 1.0000000180025095e-35 1.0500000000000003 0.43745822574105514 18.500000000000004 17.500000000000004 41.500000000000007 1.0000000180025095e-35 34.500000000000007 0.41666666666666669 0.31027513376886495 0.97083982762214682 0.98040891547522535 4.8500000000000005 0.42259181118865125 0.3139205909256686 11.500000000000002
decision_type=2 2 2 2 2 2 2 2 2 2 2 2 2 2 2 2 2 2 2 2 2 2 2 2 2 2 2 2 2 2
left_child=1 3 6 -1 7 18 14 16 12 10 -6 -5 -7 -14 15 -2 21 -18 -4 -20 -9 -3 23 -16 26 -26 -21 28 -8 -29
right_child=2 4 5 11 9 8 27 20 -10 -11 -12 -13 13 -15 22 -17 17 -19 19 24 -22 -23 -24 -25 25 -27 -28 29 -30 -31
leaf_value=-0.063273392267825468 0.012986746978199258 -0.019461102035483568 0.022024569276014622 -0.034070566581266705 -0.0031747588800223325 0.059420747895446928 0.027965616379532821 -0.0089703555585407546 0.058502881075034152 0.0082696414691782946 0.0061278460154001535 -0.040137830133237413 0.035462462466545122 0.05203121592806792 0.0062368068758301542 0.022677252068692713 -0.019558045412023939 -0.01249606881596756 0.054616366385425691 0.044414744138544918 0.0019638881102695574 -0.0090932373096074409 0.01727969050622449 0.038296014308204389 0.010888007150926046 0.040064866102472702 0.027694637753605974 0.017638808306537201 0.047376445240288279 0.032878856124660308
leaf_weight=612.9903388726525 212.14340958930552 61.88835447281599 13.717800740152596 301.80477469135076 515.7466326598078 81.826274830847979 45.338205803185701 397.92440940625966 763.04830221831799 96.523054704070091 124.2752976808697 657.33030115906149 43.282587256282568 157.71861158311367 8.0679514817893487 102.90024041943252 333.17861014697701 224.5319196395576 53.658751364797354 234.52439488843083 57.796250383369625 259.77494070027024 35.046555491164327 40.448627598583698 12.206308968365191 29.060167048126459 18.6536232419312 46.822416339069605 49.222950734198093 165.71988512016833
leaf_count=23872 1922 927 77 8743 5910 331 298 4781 3115 949 1366 17695 187 624 64 879 6110 3787 232 1100 622 3867 284 295 54 133 88 315 303 1070
internal_value=7.17124e-12 -0.0252142 0.0434724 -0.0479939 -0.00792722 0.0530702 0.0243272 -0.0122424 0.0566453 -0.000105384 -0.00136844 -0.0382287 0.0516335 0.0484634 0.0182974 0.0161519 -0.0146567 -0.0167149 0.0427364 0.0435526 -0.00758363 -0.011088 0.0263864 0.0329648 0.0415363 0.0314346 0.0431828 0.0321536 0.0380697 0.0295215
internal_weight=5757.17 3643.76 2113.41 1572.13 2071.64 1407.7 705.71 1335.09 1045.88 736.545 640.022 959.135 282.827 201.001 398.607 315.044 879.374 557.711 361.821 348.103 455.721 321.663 83.5631 48.5166 294.444 41.2665 253.178 307.103 94.5612 212.542
internal_count=90000 78629 11371 50310 28319 5941 5430 20094 4257 8225 7276 26438 1142 811 3444 2801 14691 9897 1684 1607 5403 4794 643 359 1375 187 1188 1986 601 1385
is_linear=0
shrinkage=0.05


Tree=19
num_leaves=31
num_cat=0
split_feature=10 10 10 10 10 10 10 10 7 6 6 6 5 5 7 10 6 2 2 3 6 4 8 10 3 3 6 3 4 2
split_gain=2291.76 536.803 148.144 90.626 26.0081 19.6773 12.4758 5.76891 4.91216 3.89053 2.9804 2.94068 3.92439 4.57808 2.9208 3.21852 2.84279 4.0053 3.89096 3.48102 2.95996 2.80796 2.76443 2.43913 2.26064 4.70098 2.6884 2.73519 2.46556 2.32735
threshold=0.75000000000000011 0.15000000000000005 1.9500000000000002 1.0000000180025095e-35 0.35000000000000003 1.4500000000000002 2.8500000000000001 0.25000000000000006 1.0000000180025095e-35 0.44509871288111724 0.43508594875348255 0.42259181118865125 11.500000000000002 10.500000000000002 1.0000000180025095e-35 0.65000000000000002 0.52344128672781387 0.7207237135861756 0.53881514920780571 0.76003401893462941 0.47292896231563447 23.500000000000004 0.41666666666666669 0.95000000000000007 0.98286120515958997 0.93943263222702922 0.56286596761990693 0.91379730051521157 175.50000000000003 0.78240584586340212
decision_type=2 2 2 2 2 2 2 2 2 2 2 2 2 2 2 2 2 2 2 2 2 2 2 2 2 2 2 2 2 2
left_child=1 3 5 -1 7 8 11 -3 9 -2 -5 -4 13 -13 15 -6 18 23 -11 -20 -21 -19 -10 -18 25 26 -23 28 29 -28
right_child=2 4 6 10 14 -7 -8 -9 22 16 -12 12 -14 -15 -16 -17 17 21 19 20 -22 24 -24 -25 -26 -27 27 -29 -30 -31
leaf_value=-0.062878152054834657 0.024889105012390222 -0.014290131054488654 0.053961272147311626 -0.033250133502032639 -0.0030007520982907408 0.03671658518017825 0.057991751983578692 -0.0072687012081971746 0.036029417083706085 -0.019147666249617393 -0.039405486511652432 0.041727688338727364 0.048151656337110382 0.012725357241203106 0.0081834719307840083 0.0060637407746272501 0.014406217560068428 -0.019135443082089639 0.033631032926432304 0.030510257101847835 -0.0026900950253564201 0.046688294033168432 0.020494436923194546 0.034128673668886937 0.031160458281455812 -0.002352260477401058 0.00017050673651390784 0.033692001561216843 -0.015590540330676351 0.023232778736814921
leaf_weight=570.22648759931326 128.09984318725765 845.77986506465822 133.781195204705 286.48469491116703 507.63691757712513 279.17645769566298 709.11113427206874 447.22370297834277 66.28248031809926 13.007921097800134 627.186184826307 66.256008379161358 275.58484697714448 17.123442690819502 94.315546222031116 121.33535517565906 24.271379008889198 6.7124209813773623 13.205740185454486 8.4479026030749065 32.696897322311997 7.7242708913981906 50.420508939772844 44.270723573863506 16.801955029368401 40.152910931035876 17.437009455636144 16.16643656231463 7.8811012003570786 29.357851913198829
leaf_count=23872 1082 14691 589 8743 5910 1677 3115 5403 496 114 17695 285 1200 92 949 1366 230 60 106 71 319 51 397 345 141 370 151 143 74 263
internal_value=-1.95631e-11 -0.0244123 0.0426392 -0.0472371 -0.00761435 0.0259984 0.0537452 -0.0118616 0.0202764 0.017679 -0.0374755 0.0476341 0.045276 0.0357715 -2.1731e-05 -0.00125212 0.0143583 0.0172159 0.00541641 0.0112954 0.00412664 0.0124312 0.0293177 0.0271448 0.0139947 0.0115653 0.0186781 0.0156241 0.0102818 0.0146392
internal_weight=5504.16 3500.19 2003.97 1483.9 2016.29 802.114 1201.86 1293 522.937 406.234 913.671 492.745 358.964 83.3795 723.288 628.972 278.135 210.776 67.3585 54.3505 41.1448 142.234 116.703 68.5421 135.522 118.72 78.5667 70.8424 54.676 46.7949
internal_count=90000 78629 11371 50310 28319 6090 5281 20094 4413 3520 26438 2166 1577 377 8225 7276 2438 1828 610 496 390 1253 893 575 1193 1052 682 631 488 414
is_linear=0
shrinkage=0.05


Tree=20
num_leaves=31
num_cat=0
split_feature=10 10 10 10 10 10 10 7 10 6 6 5 4 2 2 5 10 2 3 3 3 2 4 5 3 2 2 6 1 7
split_gain=2080.07 501.655 137.147 88.0877 24.4293 19.7216 12.9579 5.19835 5.2871 3.37187 2.92416 4.06692 2.82956 2.68365 3.04386 2.66614 2.60731 2.53719 2.38571 5.02244 3.28903 2.72565 2.99803 2.41156 4.41611 2.41891 2.39914 2.29227 2.25576 2.25545
threshold=0.75000000000000011 0.15000000000000005 1.9500000000000002 1.0000000180025095e-35 0.25000000000000006 1.2500000000000002 2.8500000000000001 1.0000000180025095e-35 0.65000000000000002 0.47643458558915419 0.42259181118865125 11.500000000000002 190.50000000000003 0.94405502469770686 0.9428255796024595 10.500000000000002 0.8500000000000002 0.97432539915533523 0.83263252991871572 0.77943771282646435 0.78652237081405885 0.82936154498186399 106.50000000000001 10.500000000000002 0.31805414933142906 0.70256640439046503 0.76579555480315087 0.44509871288111724 3.1500000000000008 1.0000000180025095e-35
decision_type=2 2 2 2 2 2 2 2 2 2 2 2 2 2 2 2 2 2 2 2 2 2 2 2 2 2 2 2 2 2
left_child=1 3 5 -1 27 16 10 8 9 -6 -4 15 13 14 18 -12 -2 -15 19 23 -21 22 -22 24 -11 -26 -25 -3 -7 -30
right_child=2 4 6 -5 7 28 -8 -9 -10 12 11 -13 -14 17 -16 -17 -18 -19 -20 20 21 -23 -24 26 25 -27 -28 -29 29 -31
leaf_value=-0.062508063456354665 0.010689943071048133 -0.010471553212318938 0.053140854038940283 -0.036659041872378319 -0.0012027424886683021 0.046955413157484638 0.057511037242629154 0.0062173189425659241 0.0060519177599478603 -0.035766755468449499 0.039040846222401941 0.047253613092445967 -0.022227204207721063 0.039590311872705702 -0.045394527006879529 0.016537941882386394 0.019987713281992611 -0.0070206336315461436 -0.0099785371615513513 0.052685345669895606 0.019081144854590282 0.028082384405290373 -0.012673750284864546 -0.0065475443247509828 0.037928229291107222 -0.0012245362758435481 -0.024616037097617713 -0.015920371869565554 0.029922273153598647 0.038673668351397593
leaf_weight=529.86804917547852 104.66383793577552 309.15186944976449 126.18102121725678 871.94778777752072 329.99951747059822 28.443593755364418 658.2421979829669 146.34684029221535 118.35590048506856 4.2942386791110065 63.811974732205272 262.22938535548747 31.155903786420822 6.0167039148509485 5.1791858412325373 16.583439748734236 269.68073914013803 5.6717282049357891 277.43011480011046 4.3860625363886347 12.11233500018716 11.467461071908472 19.239010740071535 138.41952197998762 9.2802348397672194 6.861711122095584 21.183398282155395 513.82840417791158 266.3994973115623 101.74199102446437
leaf_count=23872 1029 4996 589 26438 3698 193 3115 1571 1366 56 285 1200 429 53 77 92 2415 69 3620 39 120 119 265 1697 90 84 275 9695 1810 643
internal_value=2.91846e-11 -0.023566 0.0418704 -0.0464296 -0.00729977 0.0256194 0.0529865 -0.0025847 -0.00387149 -0.00520207 0.0466338 0.0442374 -0.00758995 -0.00671555 -0.0072586 0.0343991 0.0173881 0.0169727 -0.00686723 -0.00306881 0.011448 0.00722394 -0.000405507 -0.00687501 0.00929672 0.0212849 -0.0089457 -0.0138735 0.033389 0.0323409
internal_weight=5270.17 3372.2 1897.98 1401.82 1970.38 770.93 1127.05 1147.4 1001.05 882.697 468.806 342.625 552.698 521.542 509.853 80.3954 374.345 11.6884 504.674 227.244 47.2049 42.8188 31.3513 180.039 20.4362 16.1419 159.603 822.98 396.585 368.141
internal_count=90000 78629 11371 50310 28319 6090 5281 13628 12057 10691 2166 1577 6993 6564 6442 377 3444 122 6365 2745 543 504 385 2202 230 174 1972 14691 2646 2453
is_linear=0
shrinkage=0.05


Tree=21
num_leaves=31
num_cat=0
split_feature=10 10 10 10 10 10 10 7 6 6 10 8 10 7 1 4 8 6 7 4 10 3 1 3 2 3 3 2 2 3
split_gain=1885.25 465.77 130.127 86.9831 22.0482 18.5229 13.6647 4.98232 3.80607 3.55344 2.95659 2.94395 2.48625 2.60165 2.46477 2.36378 2.15835 2.14716 2.08523 2.30042 2.00569 1.98914 2.83621 1.83059 4.17873 2.71134 2.07605 2.5285 3.58975 4.44247
threshold=0.75000000000000011 0.15000000000000005 1.9500000000000002 1.0000000180025095e-35 0.35000000000000003 1.3500000000000003 2.5500000000000003 1.0000000180025095e-35 0.47643458558915419 0.52344128672781387 1.0500000000000003 0.83333333333333337 0.65000000000000002 1.0000000180025095e-35 4.8500000000000005 19.500000000000004 0.29166666666666669 0.43508594875348255 1.0000000180025095e-35 38.500000000000007 2.8500000000000001 0.40821179011298775 4.5500000000000007 0.65034432245152829 0.50289489452571556 0.66868706990897464 0.69802075822527421 0.77051366431429569 0.75637243401835774 0.95207678497308945
decision_type=2 2 2 2 2 2 2 2 2 2 2 2 2 2 2 2 2 2 2 2 2 2 2 2 2 2 2 2 2 2
left_child=1 3 5 -1 7 10 14 8 -3 15 18 -9 13 -6 -4 -10 -15 -5 19 -2 -8 -17 -23 24 -7 -25 -27 28 29 -28
right_child=2 4 6 17 12 23 20 11 9 -11 -12 -13 -14 16 -16 21 -18 -19 -20 -21 -22 22 -24 25 -26 26 27 -29 -30 -31
leaf_value=-0.062175588429648189 0.024495989051593364 -0.0085385435651308128 0.044412722855274381 -0.031920126207819907 -0.0026392937773195711 0.025402381149455134 0.050647550555988775 -0.00013481483632275096 0.014633925481599398 -0.012837115380870973 0.023043264602060728 -0.032558235557726821 0.0062067763742745148 0.022754486838241241 0.026831020150422435 -0.04269125050714203 0.0025564618406677302 -0.037393217235984731 0.023514573406974021 0.0098182818292915017 0.057077245798540767 -0.02432216942769001 0.0033298181304976765 0.0036327199868413439 0.052148000526394026 0.055351293710187446 0.034107098917736937 0.035789178326928232 -0.00073488620507140368 -0.0053837066562664694
leaf_weight=492.55348491156474 31.944602431729436 438.77354838699102 273.76849308423698 259.89325425866991 486.61267033591866 23.783595204353333 151.31654788926244 126.62897803261876 4.1449375301599494 537.04867993015796 179.59077745117247 7.4105818178504697 135.59244165942073 17.71868098154664 21.4994484372437 12.41702609695494 52.169315453618765 577.16379341389984 51.86262409389019 162.44590163044631 611.21361665055156 90.191735459491611 10.335787070915101 8.0279031693935377 37.839471127837896 10.107140224426983 58.771915735676885 161.97436999157071 11.666900396347044 8.1034172456711513
leaf_count=23872 293 6628 1341 8743 5910 168 712 1929 76 9185 1577 108 1594 162 113 241 559 17695 452 1629 3115 1727 200 59 238 68 395 1073 81 57
internal_value=-9.07755e-11 -0.0227591 0.0409866 -0.045504 -0.00700028 0.0249969 0.052265 -0.0110254 -0.0121413 -0.0145578 0.0181647 -0.00192739 0.000135569 -0.00134369 0.0431325 -0.0224502 0.00767726 -0.0356939 0.0146068 0.0122303 0.0558013 -0.0238112 -0.0214791 0.034081 0.0418255 0.0322359 0.0331521 0.0322193 0.0248572 0.0293219
internal_weight=5052.57 3248.65 1803.92 1329.61 1919.04 746.119 1057.8 1226.95 1092.91 654.138 425.844 134.04 692.093 556.501 295.268 117.089 69.888 837.057 246.253 194.391 762.53 112.945 100.528 320.275 61.6231 258.652 250.624 240.517 78.5422 66.8753
internal_count=90000 78629 11371 50310 28319 6090 5281 20094 18057 11429 3951 2037 8225 6631 1454 2244 721 26438 2374 1922 3827 2168 1927 2139 406 1733 1674 1606 533 452
is_linear=0
shrinkage=0.05


Tree=22
num_leaves=31
num_cat=0
split_feature=10 10 10 10 10 10 10 7 10 6 10 7 6 4 1 2 10 4 8 6 6 3 10 5 6 4 10 3 2 3
split_gain=1714.14 435.394 121.228 84.5353 20.3502 20.1764 10.7499 4.73222 4.52273 2.97273 2.49842 2.44747 2.30316 2.30082 2.2805 2.18021 2.15545 2.09004 1.92821 2.88156 2.70049 1.99801 1.90965 1.87241 1.85245 1.66908 1.87622 3.02294 5.24856 1.73903
threshold=0.75000000000000011 0.15000000000000005 1.7500000000000002 1.0000000180025095e-35 2.5500000000000003 0.25000000000000006 1.2500000000000002 1.0000000180025095e-35 0.65000000000000002 0.41509568634480065 2.8500000000000001 1.0000000180025095e-35 0.44509871288111724 35.500000000000007 4.8500000000000005 0.83711154561181877 0.8500000000000002 17.500000000000004 0.41666666666666669 0.44509871288111724 0.60155021913193318 0.54213487198908128 0.35000000000000003 18.500000000000004 0.44509871288111724 36.500000000000007 2.3500000000000001 0.90843766294181183 0.77877840497795769 0.97083982762214682
decision_type=2 2 2 2 2 2 2 2 2 2 2 2 2 2 2 2 2 2 2 2 2 2 2 2 2 2 2 2 2 2
left_child=1 3 6 -1 14 11 16 8 9 -7 -6 12 13 -3 17 -16 -2 -4 19 21 -21 -9 -11 -14 -20 -19 29 28 -28 -27
right_child=2 5 4 -5 10 7 -8 18 -10 22 -12 -13 23 -15 15 -17 -18 25 24 20 -22 -23 -24 -25 -26 26 27 -29 -30 -31
leaf_value=-0.061851242870003133 0.010440993513946424 -0.019441304446980747 0.021201232392033486 -0.034918963865872482 0.049300744297566083 -0.00019850131839147856 0.030123627318842761 -0.026977561227617148 0.0058346225463103384 -0.010009370497448076 0.056676603976957257 -0.0045450952493937364 -0.018743449992741194 -0.0077787352971914782 0.038978335038150458 0.011693091636395765 0.019147371665184043 0.052656868880829058 0.011646376951383527 0.034877360367014616 0.010145159983275462 0.0054004842851950435 -0.0043056188404623106 -0.01208733770195515 -0.0080299258915330317 0.041165106559676569 0.053585426066834745 0.061623639158930238 0.017019312349613822 0.028861963884373648
leaf_weight=457.86203015083447 98.726926382631063 52.855915646068752 11.604508154094217 801.21767399413511 143.93912740051746 245.01067356020212 259.10929408669472 5.5802036654204121 112.43611150979996 255.55900713615119 567.32611140795052 79.652161102741957 258.4043893404305 211.5484360344708 17.840850286185745 12.416488055139778 253.94148339703679 38.031160358339548 18.287629188969731 17.29079307615757 30.516825725324452 32.603681121021509 344.66037117317319 178.74266683403403 34.58164413832128 205.88546325266361 27.179151125252247 27.630051534622908 15.359123554080723 33.378538452088833
leaf_count=23872 1029 945 73 26438 712 2782 1986 74 1366 3533 3115 1415 5442 3471 97 73 2415 189 211 171 348 357 4376 3418 410 1149 143 145 67 178
internal_value=-1.81931e-11 -0.0219641 0.040235 -0.0447128 0.0501538 -0.00671033 0.0223912 -0.00233563 -0.0035864 -0.00483962 0.0551839 -0.0128508 -0.0137938 -0.0101101 0.0409641 0.0277815 0.0167101 0.042075 0.00629038 0.0109103 0.0190902 0.000668748 -0.00673414 -0.0160219 -0.00122384 0.0427721 0.0415572 0.0487467 0.0403826 0.0394488
internal_weight=4849.18 3136.81 1712.37 1259.08 1100.59 1877.73 611.778 1096.53 957.666 845.23 711.265 781.204 701.551 264.404 389.325 30.2573 352.668 359.068 138.861 85.9915 47.8076 38.1839 600.219 437.147 52.8693 347.463 309.432 70.1683 42.5383 239.264
internal_count=90000 78629 11371 50310 5941 28319 5430 13628 12057 10691 3827 14691 13276 4416 2114 170 3444 1944 1571 950 519 431 7909 8860 621 1871 1682 355 210 1327
is_linear=0
shrinkage=0.05


Tree=23
num_leaves=31
num_cat=0
split_feature=10 10 10 10 10 10 10 7 10 10 6 6 1 6 10 2 7 6 1 4 4 5 1 4 4 4 2 3 2 4
split_gain=1560.72 404.289 117.241 83.1596 19.4904 18.4304 9.976 4.50736 4.23999 4.06602 2.72704 4.53719 3.3474 2.65645 2.63376 2.31918 2.31679 2.06448 1.97892 1.80737 1.90649 1.79709 4.38698 2.38907 2.32652 4.00744 2.65531 2.15699 1.91208 1.79117
threshold=0.75000000000000011 0.15000000000000005 1.7500000000000002 1.0000000180025095e-35 2.3500000000000001 0.25000000000000006 1.3500000000000003 1.0000000180025095e-35 0.65000000000000002 2.8500000000000001 0.42419464524574563 0.57636130841348432 4.6500000000000012 0.41509568634480065 0.95000000000000007 0.71430671098636378 1.0000000180025095e-35 0.44509871288111724 4.8500000000000005 17.500000000000004 31.500000000000004 21.500000000000004 4.1500000000000012 161.50000000000003 12.500000000000002 27.500000000000004 0.89165472301423787 0.81895494543787739 0.95071266981983149 35.500000000000007
decision_type=2 2 2 2 2 2 2 2 2 2 2 2 2 2 2 2 2 2 2 2 2 2 2 2 2 2 2 2 2 2
left_child=1 3 6 -1 19 16 14 8 13 10 -6 12 15 -7 -2 -12 17 29 -8 -4 -21 24 23 -23 -15 26 27 -26 -27 -3
right_child=2 5 4 -5 9 7 18 -9 -10 -11 11 -13 -14 21 -16 -17 -18 -19 -20 20 -22 22 -24 -25 25 28 -28 -29 -30 -31
leaf_value=-0.061557489509371746 0.012683152716218725 -0.018361638752449894 0.018831623247013086 -0.034034493859120607 0.057269138282523363 -0.00024855041169549844 0.032525125416823057 0.0063311502584465773 0.0057829841062078885 0.056301706403128628 0.052899570760595094 0.051765658696900786 0.0067741979216965264 -0.044253188838447678 0.020845804985808125 0.031405512321684863 -0.0042737594561436274 -0.01551567999072364 0.012836914330166233 0.053266871634785919 0.038243428093672621 0.0032074734861370895 -0.012264152429751684 0.028641953899379333 0.011817876005719867 -0.0090074387263434901 -0.017718398184084612 0.053544056172694747 0.01056510588507132 -0.007772227658766612
leaf_weight=426.11556714097969 175.74254754371941 49.52575642708689 11.021858334541319 771.0769596491009 59.347113091498613 239.67774249985814 178.70149278640747 134.28648205194622 109.50677030067891 526.97208582423627 19.643216364085674 92.22752227447927 9.3454032428562623 4.351565843448042 225.78060460463166 34.753362275660038 78.073282746598125 422.41483578272164 13.74478644132614 22.997437156736851 258.27876378782094 55.862228518351912 49.129628560505807 11.060630630701779 8.6894786246120947 437.26789261493832 4.4838337413966647 4.8125590998679391 12.844754388555883 206.17015257198364
leaf_count=23872 1829 945 77 26438 325 2782 1371 1571 1366 3115 109 481 42 70 2122 185 1415 8860 108 129 1478 714 663 129 100 5965 69 44 155 3471
internal_value=4.66761e-13 -0.021244 0.0394648 -0.0438307 0.0496298 -0.00645281 0.0217592 -0.00223631 -0.00346326 0.0539363 0.048147 0.044676 0.034418 -0.00468585 0.0172731 0.0391673 -0.0124302 -0.0133692 0.031119 0.0386935 0.0394718 -0.00649302 -0.000918193 0.00741114 -0.00786242 -0.00752412 0.0156194 0.0266904 -0.0084489 -0.00982329
internal_weight=4653.91 3025.35 1628.56 1197.19 1034.59 1828.16 593.969 1071.97 937.687 742.289 215.317 155.97 63.742 828.18 401.523 54.3966 756.184 678.111 192.446 292.298 281.276 588.503 116.052 66.9229 472.45 468.099 17.9859 13.502 450.113 255.696
internal_count=90000 78629 11371 50310 5941 28319 5430 13628 12057 4257 1142 817 336 10691 3951 294 14691 13276 1479 1684 1607 7909 1506 843 6403 6333 213 144 6120 4416
is_linear=0
shrinkage=0.05


Tree=24
num_leaves=31
num_cat=0
split_feature=10 10 10 10 10 10 10 7 6 6 6 6 6 6 6 2 3 2 6 4 8 4 4 4 1 4 2 3 1 3
split_gain=1422.88 375.866 111.843 81.5087 17.0352 15.8231 13.1614 4.34121 3.43546 4.26258 3.03364 2.85501 2.77502 3.63142 2.70034 4.06531 2.72876 2.27769 4.83017 2.25419 2.11132 2.10678 3.38295 2.31007 2.06706 2.05727 1.97582 1.94709 2.27329 2.36616
threshold=0.75000000000000011 0.15000000000000005 1.9500000000000002 1.0000000180025095e-35 0.35000000000000003 1.3500000000000003 2.8500000000000001 1.0000000180025095e-35 0.42259181118865125 0.57636130841348432 0.47643458558915419 0.52344128672781387 0.47643458558915419 0.52344128672781387 0.55410181017320193 0.48273822899774982 0.8944548978871466 0.90862640593002519 0.66009665680392837 19.500000000000004 0.83333333333333337 177.50000000000003 161.50000000000003 164.50000000000003 4.1500000000000012 181.50000000000003 0.82019292563459689 0.40821179011298775 3.7500000000000004 0.60068522119598911
decision_type=2 2 2 2 2 2 2 2 2 2 2 2 2 2 2 2 2 2 2 2 2 2 2 2 2 2 2 2 2 2
left_child=1 3 5 -1 7 12 8 10 -4 14 -3 19 26 24 15 -10 -16 -15 -19 -12 -9 22 -6 -24 -14 -17 -2 -21 -29 -30
right_child=2 4 6 -5 21 -7 -8 20 9 -11 11 -13 13 17 16 25 -18 18 -20 27 -22 -23 23 -25 -26 -27 -28 28 29 -31
leaf_value=-0.061276356124424773 0.018253019462774661 -0.0076343123491632511 0.051494516859733025 -0.033204749819154597 8.9974373108517257e-05 0.03239316264977072 0.055950291227446658 0.00043496440087175667 0.0072669229420782898 0.046254510047963368 0.01639793973887551 -0.011635155684499576 -0.0065141018653981572 0.018827651513914051 0.037107439323653249 0.043195455519155726 0.0021935187271208269 -0.01120283277314787 0.03224092671513025 -0.04202274190544103 -0.028660079389788824 -0.0071644185695079856 0.037415788949430713 0.0088107466412093594 0.015164871691519106 0.019419520310211293 0.030678974353951862 -0.027790191567437728 0.037028974416888565 -0.01459003152400141
leaf_weight=396.65243938984349 94.921006623655558 406.07035424187779 101.45801687240601 742.9161365237087 506.70944062434137 284.85008862800896 489.60869977623224 118.35481688380241 10.140925280749796 157.72575970552862 3.9510932955890885 498.62785716820508 30.506089944392443 171.55303043685853 10.354529140517117 83.264563135802746 12.178724333643911 18.819551769644026 9.6935346350073797 10.942491279914973 6.5820285361260167 82.806480452418327 8.2865394055843336 47.605399901047349 17.192285045050085 10.214290592819451 48.254025616683066 44.560546146705747 2.3365634893998495 44.524177122861147
leaf_count=23872 943 6628 589 26438 6428 2139 3115 1929 49 908 76 9185 337 1734 49 457 61 201 88 241 108 1118 90 589 173 53 475 933 43 951
internal_value=-1.24728e-11 -0.0205508 0.0387089 -0.0429757 -0.0062051 0.0234301 0.0505099 -0.00989068 0.0435975 0.0407751 -0.0109773 -0.0132212 0.0168993 0.013697 0.0339242 0.0373355 0.0182372 0.0166527 0.00356665 -0.0206601 -0.00109785 0.000281709 0.00137767 0.0130517 0.00129981 0.0405975 0.0224409 -0.0220905 -0.0197048 -0.0120162
internal_weight=4471.66 2920.93 1550.74 1139.57 1781.36 675.79 874.946 1135.95 385.337 283.879 1011.01 604.943 390.94 247.764 126.153 103.62 22.5333 200.066 28.5131 106.315 124.937 645.408 562.601 55.8919 47.6984 93.4789 143.175 102.364 91.4213 46.8607
internal_count=90000 78629 11371 50310 28319 6090 5281 20094 2166 1577 18057 11429 3951 2533 669 559 110 2023 289 2244 2037 8225 7107 679 510 510 1418 2168 1927 994
is_linear=0
shrinkage=0.05


Tree=25
num_leaves=31
num_cat=0
split_feature=10 10 10 10 10 10 10 7 10 6 1 2 4 3 3 2 2 4 3 3 4 3 7 6 6 5 1 1 3 3
split_gain=1300.29 372.401 85.0197 79.654 20.854 15.8854 4.88343 3.87032 3.6673 3.0316 2.95308 2.78076 3.56062 2.35582 3.50423 4.94345 3.88839 3.87859 3.97497 3.22088 2.85191 2.54492 2.30911 2.21746 2.71547 2.18615 2.14718 1.97406 2.00974 1.96797
threshold=0.8500000000000002 0.15000000000000005 2.3500000000000001 1.0000000180025095e-35 0.35000000000000003 1.3500000000000003 0.65000000000000002 1.0000000180025095e-35 2.8500000000000001 0.44509871288111724 4.8500000000000005 0.83711154561181877 106.50000000000001 0.8973214870850762 0.91379730051521157 0.84516663357427557 0.643856552648708 42.500000000000007 0.94090502314036117 0.85602748652694793 151.50000000000003 0.83263252991871572 1.0000000180025095e-35 0.42419464524574563 0.57636130841348432 18.500000000000004 3.1500000000000008 4.1500000000000012 0.89081978404164464 0.84191923899626242
decision_type=2 2 2 2 2 2 2 2 2 2 2 2 2 2 2 2 2 2 2 2 2 2 2 2 2 2 2 2 2 2
left_child=1 3 5 -1 7 -2 22 9 23 -3 13 12 -12 19 15 -15 -16 -18 20 21 -19 -7 -6 -4 -25 26 -11 -28 -29 -23
right_child=2 4 8 -5 6 10 -8 -9 -10 25 11 -13 -14 14 16 -17 17 18 -20 -21 -22 29 -24 24 -26 -27 27 28 -30 -31
leaf_value=-0.060998403610798994 0.019093569728824984 -0.0068924846059698203 0.056215076697598704 -0.032403755242017107 -0.0024753194364081875 0.038024803171184646 0.0078117081677740513 -0.0011036648236568242 0.055615626671799492 0.010762001014538964 0.011408118374946265 -0.00073642543772477979 0.052197399605226374 0.03748507988204202 -0.00083740434088869263 -0.0065550379203092842 0.055158478252700961 0.061905306789671759 0.026732234115685961 0.052684673410395282 0.028707275887147783 0.0088032101146876263 0.0077553081992032249 0.035794939122101022 0.049924102032782268 -0.0090387637620716003 -0.019673847447540398 -0.0075592028420380574 -0.017593514427368 0.038185544089122246
leaf_weight=369.0723366276361 285.50810327660292 364.61891280952841 51.866090254858136 716.05806705635041 448.43763086479157 192.7283780798316 211.80065278802067 122.7442114725709 454.69636186957359 7.8794060815125695 11.658230604603888 11.036125296726821 9.8881565891206247 11.799559693783523 7.6685799583792678 13.85262471437454 21.630489934235811 16.311672763898972 85.159472486004233 33.969795599579811 10.721269123256205 14.127735365182163 62.889294693246484 57.729921743273735 82.749112207442522 252.79478395078331 164.72185875382274 105.96440924890339 94.315133321098983 9.5518854577094299
leaf_count=23872 2922 5879 325 26438 5910 1358 2623 2037 3115 155 86 88 67 83 48 90 143 102 619 220 81 105 721 336 481 4689 3347 2089 1898 73
internal_value=-3.43447e-11 -0.0189071 0.0399474 -0.0421293 -0.0051834 0.0283191 0.00142744 -0.00947838 0.0531674 -0.0105164 0.034171 0.0196734 0.0301273 0.0353024 0.0307056 0.0137027 0.0337882 0.0357724 0.0320348 0.0383711 0.048739 0.0361242 -0.00121703 0.0473798 0.0441177 -0.0126283 -0.0150618 -0.0156193 -0.0122845 0.0206555
internal_weight=4303.95 2921.3 1382.65 1085.13 1836.17 735.612 723.128 1113.04 647.041 990.295 450.104 32.5825 21.5464 417.521 167.144 25.6522 141.491 133.823 112.192 250.378 27.0329 216.408 511.327 192.345 140.479 625.676 372.881 365.001 200.28 23.6796
internal_count=90000 79658 10342 50310 29348 6085 9254 20094 4257 18057 3163 241 153 2922 1166 173 993 945 802 1756 183 1536 6631 1142 817 12178 7489 7334 3987 178
is_linear=0
shrinkage=0.05


Tree=26
num_leaves=31
num_cat=0
split_feature=10 10 10 10 10 10 10 4 10 10 4 4 6 6 6 6 6 6 6 7 7 5 4 10 2 2 2 6 5 6
split_gain=1185.1 346.748 79.8174 77.7927 19.4224 15.3809 4.69772 4.32556 4.24727 3.75876 3.31804 2.99997 2.93864 4.72567 3.45452 2.30056 2.63425 2.29949 2.42325 2.18339 2.16002 2.18249 2.22818 2.09164 2.03436 2.50222 5.00646 2.01514 1.95468 1.94805
threshold=0.8500000000000002 0.15000000000000005 2.3500000000000001 1.0000000180025095e-35 0.35000000000000003 1.3500000000000003 0.65000000000000002 13.500000000000002 2.8500000000000001 0.25000000000000006 39.500000000000007 47.500000000000007 0.47667340386998452 0.49461816215405091 0.45254635074813465 0.42259181118865125 0.24584355925901633 0.42851039123149859 0.57636130841348432 1.0000000180025095e-35 1.0000000180025095e-35 6.5000000000000009 100.50000000000001 1.9500000000000002 0.89491922040165095 0.54204746209342813 0.67918935736127362 0.43745822574105514 19.500000000000004 0.35025968592892626
decision_type=2 2 2 2 2 2 2 2 2 2 2 2 2 2 2 2 2 2 2 2 2 2 2 2 2 2 2 2 2 2
left_child=1 3 5 -1 9 -2 19 -7 17 27 24 -12 14 -14 15 16 -13 -4 -19 -6 21 -11 -23 -15 25 -9 -27 -3 -24 -18
right_child=2 4 8 -5 6 7 -8 10 -10 20 11 12 13 23 -16 -17 29 18 -20 -21 -22 22 28 -25 -26 26 -28 -29 -30 -31
leaf_value=-0.060733554368969003 0.018642706088826136 -0.0078577438624570697 0.0553804686831115 -0.03162008466447238 -0.0023483618491277353 -0.0028387818251746095 0.0078397554583496381 0.06849743670027994 0.055286979490320957 0.00028062533404947385 0.011681801143331172 0.017594718556082297 0.0003249283358133462 0.028185796329456805 0.0685084325550709 0.019037011553718834 0.053883707889094107 0.034631915103946788 0.048350484748930958 0.0077267212093706213 0.0049393623966894271 -0.0039157319665221136 -0.01686758651619695 0.038035386068524649 0.068566906122603383 0.0088288318235558248 0.045838889978637963 -0.013403631731842469 -0.003276586937782914 0.037002433368303743
leaf_weight=343.5264601202216 277.65409746300429 261.26444498077035 49.338619844987988 690.97394392453134 441.21890527103096 7.9495440796017638 206.36060819402337 7.4650441072881213 422.35033950954676 86.724264655262232 16.556076589971781 10.597463952377437 12.375041237100957 137.11442662123591 9.9401365742087346 14.288274012506006 30.280057674273849 54.435351129621267 78.770295666530728 61.237544072791934 46.253208957612514 119.43035491369665 100.0737161943689 88.813063679262996 7.7877670414745799 11.76850484497845 40.87378403916955 439.05451663769782 35.962123740464449 39.230672873556614
leaf_count=23872 2922 4794 331 26438 5910 57 2623 35 3115 1090 123 78 105 1126 52 105 221 330 481 721 622 1668 1521 542 40 91 304 9897 502 284
internal_value=-7.49008e-12 -0.0182255 0.0391746 -0.0412878 -0.00495318 0.0278371 0.00148817 0.0337052 0.0525325 -0.00914668 0.0343854 0.0324693 0.0334738 0.0304098 0.0404717 0.0375194 0.0408159 0.0461596 0.0427443 -0.00112045 -0.00520203 -0.00657282 -0.00889939 0.0320577 0.0445221 0.0414067 0.0375651 -0.0113347 -0.0132747 0.0443562
internal_weight=4149.67 2832.08 1317.59 1034.5 1797.58 712.694 708.817 435.04 604.895 1088.76 427.09 359.195 342.639 238.303 104.337 94.3965 80.1082 182.544 133.206 502.456 388.444 342.19 255.466 225.927 67.8951 60.1073 52.6423 700.319 136.036 69.5107
internal_count=90000 79658 10342 50310 29348 6085 9254 3163 4257 20094 3106 2636 2513 1773 740 688 583 1142 811 6631 5403 4781 3691 1668 470 430 395 14691 2023 505
is_linear=0
shrinkage=0.05


Tree=27
num_leaves=31
num_cat=0
split_feature=10 10 10 10 10 10 10 7 6 6 2 6 5 1 6 2 2 1 5 4 2 6 10 1 4 4 2 6 7 2
split_gain=1085.41 303.936 93.5271 75.7254 12.9571 12.9269 12.8011 4.00359 3.51148 2.9543 2.95102 2.91325 2.87308 2.98486 2.8115 3.47913 2.65618 2.42481 2.48561 3.29298 2.26446 2.23689 2.20598 2.23966 2.11872 3.11194 2.15913 2.10251 2.06191 1.93302
threshold=0.75000000000000011 0.15000000000000005 1.9500000000000002 1.0000000180025095e-35 2.8500000000000001 0.25000000000000006 1.2500000000000002 1.0000000180025095e-35 0.44833370008005463 0.43176769473333804 0.9238063334046438 0.57636130841348432 21.500000000000004 4.1500000000000012 0.55410181017320193 0.48273822899774982 0.40817364320823396 4.2500000000000009 11.500000000000002 145.50000000000003 0.95071266981983149 0.50637826554149779 0.65000000000000002 3.8500000000000001 45.500000000000007 26.500000000000004 0.84516663357427557 0.44509871288111724 1.0000000180025095e-35 0.4632134874664034
decision_type=2 2 2 2 2 2 2 2 2 2 2 2 2 2 2 2 2 2 2 2 2 2 2 2 2 2 2 2 2 2
left_child=1 3 6 -1 9 27 24 8 22 10 -4 14 16 29 15 -11 -10 18 19 -17 -18 -20 23 -7 25 26 -2 -3 -26 -14
right_child=2 5 4 -5 -6 7 -8 -9 12 11 -12 -13 13 -15 -16 17 20 -19 21 -21 -22 -23 -24 -25 28 -27 -28 -29 -30 -31
leaf_value=-0.060478789917752754 0.018655708808846799 -0.007303057976033981 0.05186553332193268 -0.030896622417785805 0.054963053569965829 -0.0043358164180548643 0.029511010198058036 0.0066376825906769967 0.015492093272708188 0.0055181528685175297 0.019455600589917327 0.043463922769813201 -0.02134828459205966 -0.0074927678855810148 0.015869783409007462 -0.0054097303182218462 -0.0084000918289690498 0.052156729658050328 0.028426847351754121 0.0353253799011908 0.013674858601023236 0.05637803467379339 0.013938016668651099 0.0049734507432603499 0.010631793252635562 0.033140557346509107 -0.014455703508139265 -0.012987682635168769 0.021923549794568148 0.010607332158683846
leaf_weight=320.02095143101178 19.644798311404887 265.86115637142211 84.845911523327231 667.68063908768818 392.60079289227724 141.39120857045054 306.82728993706405 121.99941671639681 12.591679802164434 8.2036715988069755 7.6574120987206689 137.7524620629847 5.1060779299587002 52.744519056752324 20.645352341234684 7.8121420480310944 426.98587937280536 26.064296815544367 13.752022113651039 13.595007801428435 11.942222228273748 14.927724480628966 31.446186670102179 118.97377678751945 194.06052257912233 34.996699525974691 6.5699452199041835 419.01932972855866 51.067158438265324 64.66701980214566
leaf_count=23872 206 4996 596 26438 3115 1852 2646 1571 156 44 39 908 75 750 110 58 6315 149 87 84 151 91 430 1451 2271 369 78 9695 520 877
internal_value=-3.29524e-11 -0.0184884 0.0366788 -0.0404814 0.0487983 -0.00550211 0.0222923 -0.00184224 -0.00303707 0.0415792 0.0491826 0.0386818 -0.00530733 0.00148335 0.032408 0.0364556 -0.00714994 0.0397885 0.0333522 0.0204599 -0.00779948 0.0429754 0.00142887 -8.19469e-05 0.0150621 0.0233833 0.0103573 -0.010781 0.0129842 0.00826878
internal_weight=4001.45 2660.43 1341.02 987.702 727.857 1672.73 613.166 987.848 865.849 335.256 92.5033 242.753 574.037 122.518 105 84.3549 451.52 76.1512 50.0869 21.4071 438.928 28.6797 291.811 260.365 306.339 61.2114 26.2147 684.88 245.128 69.7731
internal_count=90000 78629 11371 50310 5281 28319 6090 13628 12057 2166 635 1531 8324 1702 623 513 6622 469 320 142 6466 178 3733 3303 3444 653 284 14691 2791 952
is_linear=0
shrinkage=0.05


Tree=28
num_leaves=31
num_cat=0
split_feature=10 10 10 10 10 10 10 7 10 4 6 4 6 6 5 7 6 6 6 1 6 6 1 8 3 2 1 3 7 8
split_gain=997.693 300.535 73.6406 71.7392 16.9055 15.024 4.34285 4.2482 4.21669 3.68842 2.84833 2.43289 2.8304 3.8385 2.41016 2.28781 2.18252 5.9179 3.84896 2.66266 2.18038 2.40411 1.99498 1.98522 1.8485 1.83512 1.79595 1.7694 1.76841 1.7519
