tree
version=v4
num_class=1
num_tree_per_iteration=1
label_index=0
max_feature_idx=7
objective=lambdarank
feature_names=watch_hist_cnt athlete_rating total_likes videos_count workout_recommendations years_experience static_score cf_score
feature_infos=[0:42] [3:5] [0:1] [0:0.99999999999999978] [10:199] [1:24] [0.077743625443173953:0.93869214078016161] [0:5]
tree_sizes=3432 3423 3419 3400 3426 3432 3415 3421 3438 3423 3408 3427 3418 3407 3436 3413 3429 3443 3427 3426 3453 3417 3427 3414 3411 3431 3427 3426 3441 3403 3430 3441 3430 3425 3421 3416 3407 3425 3408 3416 3468 3442 3419 3424 3399 3449 3401 3412 3436 3414 3480 3410 3400 3415 3440 3402 3408

Tree=0
num_leaves=31
num_cat=0
split_feature=7 7 7 7 7 7 7 7 0 7 0 0 4 6 6 0 2 5 6 4 6 7 7 7 6 0 0 0 4 6
split_gain=9146.79 162.888 144.196 41.4682 25.026 19.477 19.2945 30.1575 9.96049 9.45383 7.73503 3.96673 6.69816 3.36275 5.21839 3.04421 3.00591 2.38002 2.34529 2.28285 2.26164 2.25776 3.90272 2.16306 2.07413 1.89952 2.0319 1.84642 1.80314 1.77627
threshold=2.0714285714285716 1.1000000000000003 3.0555555555555558 4.9444444444444455 0.41666666666666669 2.8819444444444451 4.0555555555555562 3.9444444444444451 18.500000000000004 2.5277777777777781 1.0000000180025095e-35 1.0000000180025095e-35 86.500000000000014 0.70121359853180443 0.45070459741130547 12.500000000000002 0.95071266981983149 21.500000000000004 0.71731759221661151 155.50000000000003 0.44509871288111813 3.5277777777777781 3.4722222222222228 2.4142857142857146 0.38165678026850919 1.5000000000000002 17.500000000000004 2.5000000000000004 162.50000000000003 0.70499766601758884
decision_type=2 2 2 2 2 2 2 2 2 2 2 2 2 2 2 2 2 2 2 2 2 2 2 2 2 2 2 2 2 2
left_child=1 4 5 6 8 9 7 21 10 23 16 12 -7 14 -6 -12 28 -15 -19 -18 -13 22 -4 -2 27 -9 -27 -3 29 -1
right_child=2 24 3 -5 13 11 -8 25 -10 -11 15 20 -14 17 -16 -17 19 18 -20 -21 -22 -23 -24 -25 -26 26 -28 -29 -30 -31
leaf_value=-0.059818435647466563 0.068350852621284389 -0.018453463167758987 0.096984336520178405 0.070039400169709318 -0.035271074735788104 0.046225230045626085 0.098377516970882942 0.067845024328678727 -0.067359030395771249 0.08777506854044316 -0.053919734310095807 0.051512462819777276 0.0025863635910918998 -0.041827130046666661 -0.050314476591118686 -0.058883035318082692 -0.031174001607072989 0.02949555077825667 -0.024238269249569341 -0.065341253378334879 0.036284659119563946 0.098621950020083518 0.081780022726285789 0.046636426089799426 -0.017014269597348485 0.079111126997650105 0.06547321833022994 0.0014295142177105391 -0.067191193343965172 -0.069097115949055751
leaf_weight=480.56544668413699 16.893453407101333 18.2138367947191 111.31215220503509 226.94170776195824 87.204877182841301 15.946500614285467 784.6377645554021 79.654417304322124 267.54611137276515 32.915489407256246 1167.6003117042128 36.666449449490756 19.602384679019451 22.560047188540921 170.0852876342833 420.09387418208644 13.967435432597997 2.2598325498402145 20.026070412714034 7.5212722122669211 72.784803331829607 242.06868032179773 67.982968466356397 35.714529334567487 202.00312977889553 172.06707069044933 32.464639776386321 32.531199922785163 139.60086290352046 57.780977001413703
leaf_count=3398 211 165 679 2731 1999 76 4165 352 8797 289 33187 670 116 563 4081 14630 88 33 450 54 1423 1256 665 562 4491 2058 477 909 1002 423
internal_value=3.1917e-11 -0.0532176 0.0849654 0.0899502 -0.0566214 0.0478347 0.0929825 0.0869827 -0.0582308 0.0667587 -0.0571629 0.0366729 0.0221619 -0.0430135 -0.0452157 -0.055233 -0.0615439 -0.0303788 -0.0187896 -0.0431329 0.041386 0.0954721 0.0912193 0.0536094 -0.0147441 0.0743954 0.0769464 -0.00570705 -0.0621274 -0.0608143
internal_weight=5057.21 3109.56 1947.65 1717.13 2856.81 230.524 1490.19 705.55 2554.68 85.5235 2287.13 145 35.5489 302.136 257.29 1587.69 699.436 44.846 22.2859 21.4887 109.451 421.364 179.295 52.608 252.748 284.186 204.532 50.745 677.947 538.346
internal_count=90000 74270 15730 12383 68705 3347 9652 5487 61579 1062 52782 2285 192 7126 6080 47817 4965 1046 483 142 2093 2600 1344 773 5565 2887 2535 1074 4823 3821
is_linear=0
shrinkage=0.05


Tree=1
num_leaves=31
num_cat=0
split_feature=7 7 7 7 7 7 7 0 7 7 7 7 7 0 7 0 0 0 7 7 0 7 7 7 6 6 6 0 4 7
split_gain=19555.7 716.664 756.451 481.265 311.609 533.211 134.454 111.967 68.6735 61.7029 54.2077 27.5505 78.1418 26.4549 23.0626 20.4928 18.1265 28.6118 15.7929 21.02 14.6807 14.0604 17.9738 12.0621 11.1671 10.2324 18.5888 9.68382 9.59536 9.53256
threshold=2.5277777777777781 4.9444444444444455 3.0555555555555558 0.41666666666666669 4.0555555555555562 3.9444444444444451 2.8819444444444451 12.500000000000002 3.5277777777777781 3.4722222222222228 2.0714285714285716 4.4722222222222232 4.5277777777777786 11.500000000000002 2.7638888888888893 18.500000000000004 1.0000000180025095e-35 4.5000000000000009 3.3541666666666674 3.3095238095238098 16.500000000000004 3.6904761904761911 3.6458333333333335 1.1000000000000003 0.43745822574105564 0.78948727480700853 0.8136433807807002 22.500000000000004 84.500000000000014 2.2678571428571432
decision_type=2 2 2 2 2 2 2 2 2 2 2 2 2 2 2 2 2 2 2 2 2 2 2 2 2 2 2 2 2 2
left_child=3 2 6 7 5 8 14 16 9 18 13 -6 28 23 -2 -9 -1 -18 19 -4 -7 22 -10 -5 -24 -3 -27 -8 -13 -12
right_child=1 25 4 10 11 20 27 15 21 -11 29 12 -14 -15 -16 -17 17 -19 -20 -21 -22 -23 24 -25 -26 26 -28 -29 -30 -31
leaf_value=-0.05921662651754566 0.041885026034089848 0.011901219522011577 0.082571360188486029 -0.028023113598851186 0.088957006159350982 0.033785189945626071 -0.0034993582692649677 -0.060453400386684036 0.09059792755249324 0.045303049757377617 0.05233743339713294 0.071098436787317656 0.087205005950982017 -0.03622896055755008 0.090754301405275017 -0.069881340757524182 -0.043744452549187761 -0.052611682343502157 0.093008866412208679 0.056065926612783062 0.016680730840917271 0.090044982242849209 0.083061378000848354 -0.016522830678935507 0.061189897534264341 0.067793542964635911 0.0081162136339069779 -0.045291776757806046 0.056650095359388197 0.00034368330419796972
leaf_weight=544.70294722542167 91.778791338205338 616.59861717745662 169.75222681462765 538.98794385790825 1547.176137804985 816.83769914135337 368.22857624664903 1611.5143367983401 174.02536618709564 249.87947256863117 9.4525997117161733 196.36325824260712 1024.8844244256616 661.06431198120117 32.759508311748505 897.31723211705685 1403.3087069578469 2586.4175220765173 109.96002852916718 133.72593392431736 148.21122072264552 645.43564328551292 94.891311183571815 395.17500565573573 151.59907141327858 23.631828099489212 29.13804629445076 14.403074115514753 277.03034175932407 130.7956135161221
leaf_count=4965 241 2557 264 4083 1957 2314 2188 14630 192 665 43 328 1400 5480 48 8797 10894 22293 135 280 573 726 119 3128 219 58 116 97 480 730
internal_value=2.07831e-12 0.0628788 0.0681473 -0.0495389 0.0733193 0.0609333 0.00961476 -0.0553501 0.0775498 0.0649187 -0.0259546 0.0842771 0.0794445 -0.0285747 0.05474 -0.0638254 -0.0506609 -0.0494928 0.0767742 0.0708919 0.0311583 0.0854098 0.0782955 -0.0231582 0.0696098 0.0137097 0.0348414 -0.00507251 0.0626433 0.00384801
internal_weight=15695 6916.31 6246.94 8778.74 5739.77 2694.32 507.17 7043.26 1729.27 663.318 1735.48 3045.45 1498.28 1595.23 124.538 2508.83 4534.43 3989.73 413.438 303.478 965.049 1065.95 420.516 934.163 246.49 669.368 52.7699 382.632 473.394 140.248
internal_count=90000 14957 12226 75043 9652 5487 2574 61579 2600 1344 13464 4165 2208 12691 289 23427 38152 33187 679 544 2887 1256 530 7211 338 2731 174 2285 808 773
is_linear=0
shrinkage=0.05


Tree=2
num_leaves=31
num_cat=0
split_feature=7 7 7 7 7 7 0 7 7 7 7 7 0 0 7 5 7 7 0 0 7 5 4 3 1 7 6 7 6 6
split_gain=15799 466.762 403.455 244.216 165.539 274.249 88.6921 43.1716 43.0572 36.8002 33.0485 43.9595 20.6597 13.3558 10.0732 9.33329 8.2595 8.16317 7.35273 7.19293 7.08561 7.05686 8.3778 7.425 7.1304 7.01632 6.86636 6.46905 6.31382 10.1387
threshold=2.0714285714285716 3.0555555555555558 4.9444444444444455 0.41666666666666669 4.0555555555555562 3.9444444444444451 12.500000000000002 2.8819444444444451 1.1000000000000003 2.6904761904761911 3.5277777777777781 3.4722222222222228 18.500000000000004 1.0000000180025095e-35 4.2361111111111116 2.5000000000000004 2.5277777777777781 2.4142857142857146 20.500000000000004 1.5000000000000002 1.7750000000000001 12.500000000000002 182.50000000000003 0.99334606642222678 3.7500000000000004 3.3541666666666674 0.47153916008177171 1.5500000000000003 0.42112593198498843 0.59502367456795413
decision_type=2 2 2 2 2 2 2 2 2 2 2 2 2 2 2 2 2 2 2 2 2 2 2 2 2 2 2 2 2 2
left_child=3 7 4 6 5 10 13 9 26 16 11 25 -8 -1 -6 -7 17 -2 20 -15 27 22 24 -23 -17 -3 -5 -10 -13 -30
right_child=1 2 -4 8 14 15 12 -9 18 -11 -12 28 -14 19 -16 21 -18 -19 -20 -21 -22 23 -24 -25 -26 -27 -28 -29 29 -31
leaf_value=-0.053893023030876452 0.036553496425397437 0.071770139850229897 0.026558838843513663 -0.028412180963138519 0.086391449445237814 0.055762212352754914 -0.054806571136965049 0.007851785648100764 -0.0090382712465909374 0.074232982909107806 0.081106093929664988 0.062123643542432876 -0.064798105202299977 -0.0377308741902092 0.07811218945429782 0.043068101905838659 0.040771326192937031 0.0093770353918653203 -0.036111263401205268 -0.045703207054979759 -0.01880783611949359 0.043401005574835262 0.0075996849544180513 0.016510792674473748 0.028227021069720894 0.087104066600952115 -0.03848353091903664 0.029313967682341575 0.029038285882862409 0.054222926429546119
leaf_weight=481.52504367381334 40.873856641352177 258.83519005775452 578.45766492933035 244.09214862436056 446.15900541096926 76.501767031848431 1479.410962600261 350.05012502893806 80.338567517697811 48.761114314198494 826.55590798705816 56.791656196117401 795.59678632766008 308.3318778090179 2080.8153372481465 142.67872298508883 59.567404858767986 85.292609237134457 51.742107059806585 3433.851541750133 502.69918090105057 413.19586428999901 31.345791272819042 27.37189382314682 187.01317911595106 104.80815254151821 551.84048523753881 12.738484185189007 73.481133744120598 87.607538044452667
leaf_count=4965 211 544 2731 2171 621 224 14630 2285 673 100 1256 171 8797 2418 3544 449 189 562 480 30769 4318 1355 122 99 638 135 4955 94 233 261
internal_value=3.57903e-11 0.0614115 0.0660125 -0.0462097 0.0707541 0.0610054 -0.0503418 0.0189732 -0.0276059 0.0355752 0.074681 0.0655486 -0.0583007 -0.0460549 0.079574 0.039076 0.0254263 0.0181813 -0.0180317 -0.0450463 -0.0164615 0.0374835 0.0323012 0.0417304 0.0346497 0.0761896 -0.0353949 -0.0037894 0.0477887 0.0427349
internal_weight=13918.3 5976.16 5391.62 7942.17 4813.16 2286.19 6498.72 584.545 1443.45 234.495 1408.08 581.524 2275.01 4223.71 2526.97 878.107 185.734 126.166 647.518 3742.18 595.776 801.605 361.038 440.568 329.692 363.643 795.933 93.0771 217.88 161.089
internal_count=90000 15730 12383 74270 9652 5487 61579 3347 12691 1062 2600 1344 23427 38152 4165 2887 962 773 5565 33187 5085 2663 1209 1454 1087 679 7126 767 665 494
is_linear=0
shrinkage=0.05


Tree=3
num_leaves=31
num_cat=0
split_feature=7 7 7 7 7 7 0 7 7 7 7 0 0 6 7 7 5 7 4 0 7 7 7 7 7 6 6 5 0 7
split_gain=12241 365.908 317.73 173.862 118.204 186.815 93.7023 36.3171 30.4915 29.1899 26.7223 19.6278 14.0033 12.9143 12.703 31.602 12.4184 6.78214 9.32574 5.91214 5.83019 7.07751 5.78718 12.7925 5.80576 5.68043 8.19496 5.62042 6.33961 5.39702
threshold=2.0714285714285716 3.0555555555555558 4.9444444444444455 0.41666666666666669 4.0555555555555562 3.9444444444444451 12.500000000000002 2.8819444444444451 1.1000000000000003 2.6904761904761911 3.6904761904761911 18.500000000000004 1.0000000180025095e-35 0.44087670505257787 4.4722222222222232 4.5277777777777786 12.500000000000002 3.4722222222222228 124.50000000000001 16.500000000000004 4.6458333333333348 4.7638888888888902 3.4722222222222228 3.5277777777777781 3.6458333333333335 0.63761044088329377 0.45070459741130547 2.5000000000000004 14.500000000000002 3.3541666666666674
decision_type=2 2 2 2 2 2 2 2 2 2 2 2 2 2 2 2 2 2 2 2 2 2 2 2 2 2 2 2 2 2
left_child=3 7 4 6 5 10 12 9 19 25 13 -8 -1 -3 -6 -16 17 -15 -19 -5 -17 -22 29 -24 -25 26 -2 -7 -29 -18
right_child=1 2 -4 8 14 27 11 -9 -10 -11 -12 -13 -14 16 15 20 22 18 -20 -21 21 -23 23 24 -26 -27 -28 28 -30 -31
leaf_value=-0.048727735083692741 0.036540908180143543 0.07258617982170501 0.025708628670410006 -0.029374242988844192 0.077581103076653113 0.051914330717225968 -0.049893690013675995 0.0079163600618810514 -0.016550312321144744 0.070968161744882061 0.079035430931662529 -0.060106088546550043 -0.03936564873002861 0.058316149916394333 0.056397824839966228 0.082333237781139115 0.064712147175102444 0.0028369359497819489 0.045549535807893379 -0.040223515807691818 0.068474923715576883 0.080447838778619996 0.045562145615477542 0.08048120900157224 0.059057453466553639 0.039674912316167793 0.010167338354026613 0.040130501874129691 0.029492328678347481 0.084660543499901611
leaf_weight=448.454630471766 45.965651784092188 279.95722806453705 546.38950909301639 590.42257487028837 1201.2695935964584 73.259915582835674 1366.836646027863 326.50632141903043 598.7823164537549 43.336312890052795 466.95241525024176 717.46236750669777 3652.6453271508217 58.1257304251194 302.21569888293743 221.6926334053278 104.26146038621664 16.882271379232407 52.584418021142483 159.48900913074613 349.44842394441366 190.83572667837143 102.66057162731886 60.637607961893082 66.090332545340061 48.905147444456816 81.997371934354305 543.39352379366755 188.6698044128716 50.246437311172485
leaf_count=4965 239 602 2731 5561 1957 224 14630 2285 5565 100 726 8797 33187 137 808 374 246 51 158 1565 696 330 352 93 162 253 470 1912 751 73
internal_value=-1.94592e-11 0.0572876 0.061637 -0.0412299 0.0661716 0.0575152 -0.0447766 0.0184995 -0.0249638 0.0341915 0.0695497 -0.053409 -0.0403894 0.0639531 0.0740571 0.0700792 0.0592278 0.045714 0.0351692 -0.0316816 0.0755055 0.0727039 0.0637193 0.058681 0.0693084 0.0251805 0.019641 0.0387102 0.0373888 0.0711994
internal_weight=12956.4 5422.28 4875.57 7534.09 4329.18 2063.72 6185.4 546.711 1348.69 220.204 1258.4 2084.3 4101.1 791.446 2265.46 1064.19 511.489 127.592 69.4667 749.912 761.977 540.284 383.896 229.389 126.728 176.868 127.963 805.323 732.063 154.508
internal_count=90000 15730 12383 74270 9652 5487 61579 3347 12691 1062 2600 23427 38152 1874 4165 2208 1272 346 209 7126 1400 1026 926 607 255 962 709 2887 2663 319
is_linear=0
shrinkage=0.05


Tree=4
num_leaves=31
num_cat=0
split_feature=7 7 7 7 7 7 0 7 7 7 7 7 0 0 7 7 7 7 7 7 0 7 2 6 6 0 6 2 7 2
split_gain=9918.69 310.002 276.507 133.4 106.652 171.868 101.545 25.806 26.0192 23.5511 22.6224 27.3713 16.9175 15.6731 9.91299 6.1422 18.7425 8.86221 6.14075 7.33976 5.61555 5.46294 5.43948 5.17461 5.38882 5.5342 4.38772 4.36478 4.3439 4.2726
threshold=2.0714285714285716 3.0555555555555558 4.9444444444444455 0.58333333333333337 4.0555555555555562 3.9444444444444451 12.500000000000002 2.8819444444444451 2.6904761904761911 1.1000000000000003 3.5277777777777781 3.4722222222222228 18.500000000000004 1.0000000180025095e-35 4.2361111111111116 4.5277777777777786 4.4722222222222232 4.354166666666667 3.3541666666666674 3.2361111111111116 18.500000000000004 3.8166666666666669 0.92441833429063558 0.27458452429010222 0.29698630972365769 22.500000000000004 0.42112593198498843 0.94964322885126651 1.7750000000000001 0.78732426498751007
decision_type=2 2 2 2 2 2 2 2 2 2 2 2 2 2 2 2 2 2 2 2 2 2 2 2 2 2 2 2 2 2
left_child=3 7 4 6 5 10 13 8 -2 -5 11 18 -8 27 -6 16 17 -16 19 -3 28 22 -12 -7 -25 -26 -15 -1 -11 -4
right_child=1 2 29 9 14 23 12 -9 -10 20 21 -13 -14 26 15 -17 -18 -19 -20 -21 -22 -23 -24 24 25 -27 -28 -29 -30 -31
leaf_value=-0.045869012296007261 0.022381130735812358 0.077067699597643688 0.019981981684583674 -0.028623706908984126 0.078414316364421977 0.048375176551697631 -0.046277898833267314 0.0082713370146209313 0.067660327777299495 -0.0018688178611513671 0.071298527033132331 0.043031840951052974 -0.056077826488468402 -0.032108771204423431 0.066807947429737502 0.07293550602448895 0.055795914324198274 0.078305603252643283 0.079282223259202242 0.05716005038434771 -0.027584641242539832 0.079871442147517582 0.050429062729539599 0.0066369910607681068 0.036327803906375543 0.012879460886520739 -0.035868265585315424 -0.019084160266271532 -0.014865351921858337 0.029016928499431591
leaf_weight=408.63776549696922 161.05951347947121 66.846926063299179 270.61746430397034 669.58581282570958 363.12617532908916 77.048924840986729 1290.6910712942481 309.1284799259156 39.510925132781267 75.904136937111616 444.52195690572262 180.02056263387203 668.46216692775488 1116.3582116141915 452.29412265866995 689.64440436661243 278.84334637969732 266.25609358400106 82.754850164055824 150.63245347887278 74.669319316744804 189.13029642403126 33.581776395440102 16.680356100201607 642.07279184833169 26.189876645803452 2546.362637238577 15.797825332731007 420.30214657820761 253.35997044667602
leaf_count=4845 962 121 1453 6653 621 268 14758 2285 100 721 872 665 8877 10144 871 1400 808 465 135 423 791 311 73 70 2424 125 23275 153 4053 1278
internal_value=1.7898e-11 0.0542837 0.0584841 -0.0371983 0.063001 0.0544982 -0.0402626 0.0173336 0.0313008 -0.0222623 0.0667221 0.0584471 -0.0496216 -0.0357764 0.0709204 0.0693073 0.0667986 0.0710684 0.0676901 0.0632791 -0.014801 0.0726782 0.0698327 0.0360901 0.0347082 0.0354088 -0.0347224 -0.0448721 -0.0128773 0.0243507
internal_weight=12280.1 4993.32 4483.62 7286.77 3959.64 1909.48 6046.31 509.699 200.57 1240.46 1147.49 480.255 1959.15 4087.16 2050.16 1687.04 997.394 718.55 300.234 217.479 570.876 667.234 478.104 761.992 684.943 668.263 3662.72 424.436 496.206 523.977
internal_count=90000 15730 12383 74270 9652 5487 62052 3347 1062 12218 2600 1344 23635 38417 4165 3544 2144 1336 679 544 5565 1256 945 2887 2619 2549 33419 4998 4774 2731
is_linear=0
shrinkage=0.05


Tree=5
num_leaves=31
num_cat=0
split_feature=7 7 7 7 7 7 0 7 7 7 7 7 0 0 7 2 7 7 5 6 7 7 7 7 0 0 6 6 2 2
split_gain=8362.84 267.373 228.736 120.629 100.888 154.882 94.5649 21.5889 19.8133 18.8253 18.7078 25.5377 14.4964 14.3499 8.90118 7.58443 7.141 7.54113 6.28769 5.88542 5.7432 6.28149 5.38963 5.91112 5.15035 4.73104 4.60914 4.97395 4.52939 6.31058
threshold=2.0714285714285716 3.0555555555555558 4.9444444444444455 0.41666666666666669 4.0555555555555562 3.9444444444444451 12.500000000000002 2.8819444444444451 2.7638888888888893 1.1000000000000003 3.5277777777777781 3.4722222222222228 18.500000000000004 1.0000000180025095e-35 4.2361111111111116 0.95071266981983149 2.5277777777777781 2.4142857142857146 3.5000000000000004 0.41509568634480082 3.7638888888888893 3.6458333333333335 3.3541666666666674 3.2361111111111116 11.500000000000002 12.500000000000002 0.78217889086657511 0.44087670505257787 0.72933734784601045 0.70983420862757041
decision_type=2 2 2 2 2 2 2 2 2 2 2 2 2 2 2 2 2 2 2 2 2 2 2 2 2 2 2 2 2 2
left_child=3 7 4 6 5 10 13 8 16 24 11 22 -8 15 -6 -1 17 -2 -7 -15 21 -12 23 -3 26 -18 27 -5 29 -4
right_child=1 2 28 9 14 18 12 -9 -10 -11 20 -13 -14 19 -16 -17 25 -19 -20 -21 -22 -23 -24 -25 -26 -27 -28 -29 -30 -31
leaf_value=-0.043478042670238047 0.034783129232754083 0.073896132163034103 0.021730041956274846 -0.01457111915236791 0.075606077825381979 0.046102722842071203 -0.043693309910732399 0.0083532652501650626 0.073042761744629744 -0.013406119352328539 0.0758390668944533 0.040920262399565213 -0.053090774099674734 -0.029043642495643063 0.066588109175999319 -0.0077916707082013245 0.04878339304315768 0.0067501847034282803 0.032238225317132434 -0.033466369050762119 0.075167888594360716 0.061182032370922748 0.076756217432545973 0.055464904064553601 -0.030787222751048501 0.019360927111181203 -0.0043895474182166451 -0.027395501409081952 0.027525364184761904 -0.0035797992724552821
leaf_weight=385.51406309194863 36.198781590908766 62.969889640808105 150.00690155476332 106.01668373867869 331.57404858618975 93.704208791255951 1215.5761391371489 298.36058121360838 23.370089560747147 548.1373223811388 102.45587301999331 171.91087448969483 619.51722034811974 1080.6370706204325 1565.9302595630288 15.48686404712498 36.947461653500795 71.134060837328434 642.3734921105206 2474.9950081519783 258.17267067730427 255.11476796865463 76.132853269577026 140.70128619298339 296.21651123650372 21.679686971008778 33.655189160257578 263.60035092383623 315.21367927268147 29.46575940772891
leaf_count=4823 211 121 871 1068 621 332 14630 2285 48 5565 192 665 8797 9934 3544 142 147 562 2555 23253 463 601 135 423 3043 94 316 2699 1676 184
internal_value=2.56792e-11 0.0517746 0.0558476 -0.0344466 0.0601157 0.0516482 -0.0374845 0.0167334 0.0299395 -0.0203443 0.0638155 0.0560874 -0.0468658 -0.0331334 0.0681639 -0.0420998 0.0238698 0.0162045 0.0340032 -0.0321222 0.0694849 0.0653818 0.0654061 0.0611634 -0.0257812 0.0379033 -0.0221041 -0.0237171 0.0239152 0.0175747
internal_weight=11722.8 4683.42 4195.73 7039.35 3701.04 1803.54 5791.73 487.691 189.33 1247.63 1067.46 451.715 1835.09 3956.63 1897.5 401.001 165.96 107.333 736.078 3555.63 615.743 357.571 279.804 203.671 699.489 58.6271 403.272 369.617 494.686 179.473
internal_count=90000 15730 12383 74270 9652 5487 61579 3347 1062 12691 2600 1344 23427 38152 4165 4965 1014 773 2887 33187 1256 793 679 544 7126 241 4083 3767 2731 1055
is_linear=0
shrinkage=0.05


Tree=6
num_leaves=31
num_cat=0
split_feature=7 7 7 7 0 7 7 7 7 7 7 7 0 0 7 6 5 7 7 7 7 7 7 7 6 7 2 0 5 0
split_gain=7107.41 233.159 190.955 99.7386 88.2048 85.8909 137.141 18.3246 19.2883 16.4839 21.4091 16.2011 14.4958 12.4205 10.1197 6.8833 5.92927 5.70742 16.1978 11.2919 5.12972 5.2147 4.89262 5.8317 4.8086 4.78335 5.55987 4.74846 4.4364 4.39571
threshold=2.0714285714285716 3.0555555555555558 4.9444444444444455 0.58333333333333337 12.500000000000002 4.0555555555555562 3.9444444444444451 2.8819444444444451 2.6904761904761911 3.5277777777777781 3.4722222222222228 1.1000000000000003 1.0000000180025095e-35 18.500000000000004 4.3095238095238102 0.41509568634480082 3.5000000000000004 4.5277777777777786 4.4722222222222232 4.354166666666667 3.3541666666666674 3.2361111111111116 4.6458333333333348 4.7638888888888902 0.44509871288111813 3.8166666666666669 0.92441833429063558 14.500000000000002 12.500000000000002 15.500000000000002
decision_type=2 2 2 2 2 2 2 2 2 2 2 2 2 2 2 2 2 2 2 2 2 2 2 2 2 2 2 2 2 2
left_child=3 7 5 4 12 6 9 8 -2 10 20 -5 -1 -6 -7 -14 -8 18 19 -16 21 -3 -19 -24 -13 26 -11 -18 -29 -20
right_child=1 2 -4 11 13 14 16 -9 -10 25 -12 24 15 -15 17 -17 27 22 29 -21 -22 -23 23 -25 -26 -27 -28 28 -30 -31
leaf_value=-0.039718103521194995 0.020631429820202826 0.070621302369239983 0.023394318784799348 -0.024022692019208571 -0.040973267118577232 0.071413114766514282 0.044515388610189111 0.0083380133540053719 0.061955391511765018 0.065542826970674636 0.039669626516203163 -0.0046766001810207647 -0.026148722398904062 -0.049861045160381423 0.057525139269025506 -0.030945367035890261 0.033353478515045637 0.073477179839424187 0.053138692570256496 0.073103302650847288 0.074208504764187264 0.052885186119294852 0.059146282648887563 0.07135846759834362 -0.015184852673525146 0.074190355650060158 0.042187133692422371 0.013135352234450143 0.030272914257124164 0.037389109063651171
leaf_weight=383.71770647540689 146.46787314116955 60.449689403176308 469.22834391333163 629.66573234274983 1171.2993857339025 464.48408865183592 90.417965643107891 289.93578541278839 34.982006903737783 386.00042842328548 163.78007090464234 152.55766745097935 1075.0648177079856 591.65098526515067 233.32108718156815 2457.9391807094216 462.67735101282597 174.23062917590141 189.02254991233349 231.9841560870409 70.752376943826675 131.80827923864126 272.4645076431334 152.45708706974983 380.14386719278991 159.68538012355566 27.282159231603146 63.837210312485695 92.458198972046375 57.865039967000484
leaf_count=4998 962 121 2731 6653 14758 975 332 2285 100 872 665 1561 9969 8877 517 23450 1839 374 619 465 135 423 696 330 4004 311 73 306 410 189
internal_value=-2.57088e-12 0.0493761 0.0533386 -0.0319376 -0.0346686 0.0573704 0.0493692 0.0161368 0.0285983 0.0612997 0.0538608 -0.0185932 -0.0304882 -0.043956 0.0650711 -0.0294858 0.0325553 0.0628247 0.0597992 0.0652918 0.0626978 0.0584618 0.0664211 0.0635279 -0.0121754 0.0668408 0.064001 0.0308081 0.0232733 0.0494473
internal_weight=11267.6 4425.59 3954.21 6842.04 5679.67 3484.98 1709.15 471.386 181.45 999.758 426.79 1162.37 3916.72 1762.95 1775.83 3533 709.391 1311.35 712.193 465.305 263.01 192.258 599.152 424.922 532.702 572.968 413.283 618.973 156.295 246.888
internal_count=90000 15730 12383 74270 62052 9652 5487 3347 1062 2600 1344 12218 38417 23635 4165 33419 2887 3190 1790 982 679 544 1400 1026 5565 1256 945 2555 716 808
is_linear=0
shrinkage=0.05


Tree=7
num_leaves=31
num_cat=0
split_feature=7 7 7 7 7 7 0 7 7 7 7 0 0 6 6 5 7 7 6 7 7 7 7 7 2 6 6 2 6 7
split_gain=6210.98 205.698 180.626 92.4194 85.9898 123.224 72.3144 17.1449 16.3322 15.3635 14.7495 11.5829 11.4391 9.19128 9.08701 8.10682 7.62589 6.03641 5.98681 5.85718 5.26669 13.6383 8.51992 5.15612 6.59961 4.9338 4.90733 4.63268 4.54095 5.31216
threshold=2.0714285714285716 3.0555555555555558 4.9444444444444455 0.41666666666666669 4.0555555555555562 3.9444444444444451 12.500000000000002 2.8819444444444451 2.6904761904761911 3.6904761904761911 1.1000000000000003 1.0000000180025095e-35 18.500000000000004 0.41509568634480082 0.44087670505257787 17.500000000000004 4.3095238095238102 3.4722222222222228 0.27458452429010222 3.3541666666666674 4.5277777777777786 4.4722222222222232 4.354166666666667 3.5277777777777781 0.83618808380821685 0.44509871288111813 0.56147295920018514 0.95071266981983149 0.63980550221485155 2.5277777777777781
decision_type=2 2 2 2 2 2 2 2 2 2 2 2 2 2 2 2 2 2 2 2 2 2 2 2 2 2 2 2 2 2
left_child=3 7 4 6 5 9 11 8 28 14 -5 27 -8 -13 -3 17 -6 19 -7 -16 21 22 -18 24 -19 -12 -17 -1 -2 -30
right_child=1 2 -4 10 16 18 12 -9 -10 -11 25 13 -14 -15 15 26 20 23 -20 -21 -22 -23 -24 -25 -26 -27 -28 -29 29 -31
leaf_value=-0.038649064493080504 0.015122839131683705 0.062550808850901765 0.022062141691370076 -0.022389659797842999 0.069187204889474344 0.045038806307441059 -0.038623164720655447 0.0082836684879574792 0.059737114814055241 0.067649816206966459 -0.0034312401081326108 -0.02434694570947845 -0.047396790448168413 -0.029920049614796485 0.044510160498067539 0.030852106660865103 0.056735677947999545 0.036369914850736838 0.029628138198872889 0.073496982114074724 0.065070456665697884 0.048710677736774094 0.070754427637170922 0.046094840193061537 0.00043930730862283996 -0.014222859276012037 0.05946280322202252 -0.0099997669416250524 0.020927210416050935 0.058573496764838653
leaf_weight=352.11351858451962 100.86720170080662 216.85798779129982 461.1967439185828 661.78267436660826 434.80181655660272 70.2009312286973 1117.1984133496881 283.67600669898093 33.246203951537609 334.16908147931099 148.72943299822509 1083.8873489554971 556.60754521004856 2330.5190927200019 60.135024093091488 16.356659062206745 217.5823035389185 40.420226819813251 616.28032276406884 24.538475975394249 555.815364215523 232.5871959477663 215.951500415802 56.906682498753071 18.688967525959015 367.90352646633983 179.04278124496341 14.699642302468417 25.009666595607996 14.985240437090395
leaf_count=4823 711 602 2731 7126 975 268 14630 2285 100 726 1561 9934 8797 23253 193 57 517 168 2619 52 1400 808 465 176 97 4004 529 142 194 57
internal_value=-3.53214e-11 0.0475055 0.0513665 -0.0301451 0.0554741 0.047334 -0.0328881 0.0158643 0.0282155 0.0590252 -0.0174472 -0.0290579 -0.0415407 -0.0281509 0.0543231 0.0498185 0.0635004 0.0427602 0.0312041 0.0529106 0.0614769 0.0584784 0.0637187 0.035352 0.0250095 -0.0111161 0.0570678 -0.037501 0.0207758 0.0350325
internal_weight=10842.8 4209.32 3751.53 6633.44 3290.34 1633.6 5455.03 457.784 174.108 947.116 1178.42 3781.22 1673.81 3414.41 612.947 396.089 1656.74 200.689 686.481 84.6735 1221.94 666.121 433.534 116.016 59.1092 516.633 195.399 366.813 140.862 39.9949
internal_count=90000 15730 12383 74270 9652 5487 61579 3347 1062 2600 12691 38152 23427 33187 1874 1272 4165 686 2887 245 3190 1790 982 441 265 5565 586 4965 962 251
is_linear=0
shrinkage=0.05


Tree=8
num_leaves=31
num_cat=0
split_feature=7 7 7 7 7 7 0 7 7 7 7 7 0 6 7 0 7 7 0 7 7 6 0 6 6 3 3 5 7 7
split_gain=5466.42 186.012 168.732 85.5822 77.4263 112.813 57.7427 14.9116 14.865 13.664 18.8057 13.2118 10.5615 9.48629 6.99237 6.01258 5.13097 5.21016 4.99663 4.77315 6.33919 4.71902 4.62442 4.42683 4.70748 4.40519 6.2406 4.46554 4.27559 5.35958
threshold=2.0714285714285716 3.0555555555555558 4.9444444444444455 0.41666666666666669 4.0555555555555562 3.9444444444444451 12.500000000000002 2.8819444444444451 2.7638888888888893 3.5277777777777781 3.4722222222222228 1.1000000000000003 18.500000000000004 0.41509568634480082 4.2361111111111116 1.0000000180025095e-35 2.5277777777777781 2.4142857142857146 18.500000000000004 3.7638888888888893 3.6458333333333335 0.27458452429010222 16.500000000000004 0.47153916008177171 0.57248706605185007 0.96825285520720372 0.92791303202943032 19.500000000000004 3.3541666666666674 3.3095238095238098
decision_type=2 2 2 2 2 2 2 2 2 2 2 2 2 2 2 2 2 2 2 2 2 2 2 2 2 2 2 2 2 2
left_child=3 7 4 6 5 9 13 8 16 10 28 22 -8 -1 -6 -15 17 -2 -13 20 -11 -7 23 -5 -25 26 -4 -28 29 -3
right_child=1 2 25 11 14 21 12 -9 -10 19 -12 18 -14 15 -16 -17 -18 -19 -20 -21 -22 -23 -24 24 -26 -27 27 -29 -30 -31
leaf_value=-0.024069683859124325 0.030979608268713717 0.062499943418236226 0.019811370064958752 -0.011646532344210632 0.068928902718798174 0.042878485123125261 -0.036307041279138814 0.0081758790136988984 0.067664613066022256 0.07020053137459413 0.036414553194633319 -0.0082576442595059009 -0.04490237081727718 -0.036856752249586885 0.060024530774058033 -0.028712650314767892 0.034494504775326958 0.0065043175833934446 -0.023147458319064566 0.068569434597170548 0.054135126718724128 0.028836162656060538 -0.028992944909985115 -0.029102367448768596 -0.017255683993655156 0.0088982889538322014 0.041116166729704556 0.0098689048878988373 0.070376946738056737 0.044718540273530588
leaf_weight=1164.3033532947302 32.988804806023836 101.4386555403471 309.42456665448844 153.59066474437714 265.71176144480705 66.445566270500422 1084.8159944284707 278.26476145721972 19.868858717381954 86.016592793166637 149.46797782555223 439.80551994685084 532.97808120306581 252.03085791692138 1294.9949841909111 2248.5215291399509 50.607975631952286 63.788347903639078 64.621392389759421 209.07521446794271 214.58575582876801 600.85459688678384 140.24601098150015 136.21768959797919 218.15013852342963 64.532198376953602 64.67013593018055 13.889480020850895 61.819408923387527 72.785122454166412
leaf_count=11363 211 264 1907 1690 621 268 14630 2285 48 192 665 4774 8797 3536 3544 23253 241 562 791 463 601 2619 1565 1494 2377 396 339 89 135 280
internal_value=-1.95801e-11 0.0457333 0.0495291 -0.0285775 0.0536635 0.0457954 -0.0312708 0.0152677 0.0270666 0.0573951 0.0502923 -0.0162334 -0.0391388 -0.0277977 0.0615405 -0.0295335 0.0215936 0.0148473 -0.0101652 0.0627675 0.0587322 0.0302344 -0.0209556 -0.0187365 -0.0218095 0.0209946 0.0230066 0.0355916 0.0590799 0.0550714
internal_weight=10456.5 4021.23 3575.71 6435.28 3123.2 1562.49 5282.65 445.519 167.254 895.189 385.511 1152.63 1617.79 3664.86 1560.71 2500.55 147.385 96.7772 504.427 509.678 300.602 667.3 648.205 507.958 354.368 452.516 387.984 78.5596 236.043 174.224
internal_count=90000 15730 12383 74270 9652 5487 61579 3347 1062 2600 1344 12691 23427 38152 4165 26789 1014 773 5565 1256 793 2887 7126 5561 3871 2731 2335 428 679 544
is_linear=0
shrinkage=0.05


Tree=9
num_leaves=31
num_cat=0
split_feature=7 7 7 7 7 7 0 7 7 7 7 7 0 0 7 6 2 2 6 7 7 2 4 6 6 6 6 0 7 7
split_gain=4844.2 168.546 141.729 74.9337 70.4557 104.547 48.951 13.714 14.7743 13.339 17.446 12.8604 9.3672 8.35108 7.32243 5.63784 4.7066 4.66987 4.14315 4.13415 4.61854 4.07036 6.15933 4.7906 4.01588 3.99336 4.949 3.9603 3.78417 4.94784
threshold=2.0714285714285716 3.0555555555555558 4.9444444444444455 0.41666666666666669 4.0555555555555562 3.9444444444444451 12.500000000000002 2.8819444444444451 2.6904761904761911 3.5277777777777781 3.4722222222222228 1.1000000000000003 18.500000000000004 1.0000000180025095e-35 4.2361111111111116 0.41509568634480082 0.78079823280562821 0.50289489452571556 0.32238468758605821 3.3541666666666674 3.2361111111111116 0.80265038087953455 140.50000000000003 0.40603383128252551 0.44509871288111813 0.44509871288111813 0.67899509868105523 11.500000000000002 3.7638888888888893 3.6458333333333335
decision_type=2 2 2 2 2 2 2 2 2 2 2 2 2 2 2 2 2 2 2 2 2 2 2 2 2 2 2 2 2 2
left_child=3 7 4 6 5 9 13 8 -2 10 19 27 -8 -1 -6 -15 17 18 -7 20 -3 22 23 -18 -13 -9 -27 -5 29 -11
right_child=1 2 -4 11 14 16 12 25 -10 28 -12 24 -14 15 -16 -17 21 -19 -20 -21 -22 -23 -24 -25 -26 26 -28 -29 -30 -31
leaf_value=-0.033958639658074448 0.019140580632327698 0.065542697756323626 0.021120697446063562 -0.016771042634101185 0.067295322171516028 0.045857510628913599 -0.034400982767887243 0.016742938630282412 0.057782967294871861 0.067860957052405468 0.035013793027647754 -0.002313790527404591 -0.042644833052908747 -0.022638868044651473 0.057885593728847766 -0.027131064865233354 0.023778019836105488 0.035765136253126335 0.012364892039419279 0.068743328288893527 0.047587540004611295 0.027090471637280008 0.040103585600134876 -0.01389813566615692 -0.012286175781491854 -0.0014458757047655525 0.016469040889188744 -0.024786875314463205 0.066461340457931478 0.053246187361968303
leaf_weight=338.95278509147465 132.49009821750224 52.272113993763924 433.16033594496548 359.19138558395207 248.39761788398027 11.823810555040835 1052.4361129822209 88.951720351353288 30.413367364555597 81.205958858132362 145.35812615603209 141.46606010757387 512.31869362015277 1022.0907987318933 1233.0375396385789 2205.769915885292 13.684154152870176 279.80874155834317 42.15015471726656 58.034489929676056 113.75868967175484 268.29010484740138 13.588834032416342 22.004167288541794 352.52239092811942 130.35393024235964 54.738349635154009 269.85204436257482 197.10550045222044 201.89426843449473
leaf_count=4965 962 121 2731 4083 621 51 14630 733 100 192 665 1561 8797 9934 3544 23253 54 1205 226 135 423 1191 60 100 4004 1108 444 3043 463 601
internal_value=2.43512e-11 0.0441057 0.0478463 -0.0271669 0.0517278 0.044093 -0.0297271 0.0148659 0.0263549 0.055647 0.0485042 -0.0154682 -0.0371001 -0.0264926 0.0594634 -0.0257086 0.0290219 0.0331677 0.019702 0.0572558 0.0532404 0.0246645 0.0114561 0.000548224 -0.00943033 0.00803639 0.0038522 -0.0202097 0.0611419 0.0574384
internal_weight=10107.1 3852.52 3415.57 6254.6 2982.41 1500.98 5131.57 436.947 162.903 849.629 369.423 1123.03 1564.75 3566.81 1481.44 3227.86 651.35 333.783 53.974 224.065 166.031 317.567 49.2772 35.6883 493.988 274.044 185.092 629.043 480.206 283.1
internal_count=90000 15730 12383 74270 9652 5487 61579 3347 1062 2600 1344 12691 23427 38152 4165 33187 2887 1482 277 679 544 1405 214 154 5565 2285 1552 7126 1256 793
is_linear=0
shrinkage=0.05


Tree=10
num_leaves=31
num_cat=0
split_feature=7 7 7 7 7 7 0 7 7 7 7 0 1 7 0 7 7 7 6 2 6 0 0 6 7 7 7 2 7 1
split_gain=4308.81 142.861 130.007 67.3768 61.2127 94.5636 41.1607 12.2778 11.8955 12.9904 11.4118 8.65024 8.58289 7.95278 6.49152 5.39199 15.1529 9.19011 5.31268 6.1587 7.65643 4.87357 4.7146 4.89042 4.68575 4.5727 5.16818 4.47817 4.15748 3.9326
threshold=2.0714285714285716 3.0555555555555558 4.9444444444444455 0.41666666666666669 4.0555555555555562 3.9444444444444451 12.500000000000002 3.6904761904761911 2.8819444444444451 2.5277777777777781 1.1000000000000003 18.500000000000004 4.8500000000000005 4.3095238095238102 1.0000000180025095e-35 4.5277777777777786 4.4722222222222232 4.354166666666667 0.44087670505257787 0.51487582778198382 0.59745241369341628 20.500000000000004 17.500000000000004 0.28548570658284728 2.7638888888888893 4.6458333333333348 4.7638888888888902 0.95071266981983149 2.2678571428571432 3.9500000000000006
decision_type=2 2 2 2 2 2 2 2 2 2 2 2 2 2 2 2 2 2 2 2 2 2 2 2 2 2 2 2 2 2
left_child=3 8 4 6 5 7 14 12 9 28 -5 -8 18 -6 27 16 17 -15 -3 20 -20 -21 -7 -24 -11 -17 -27 -1 -2 -25
right_child=1 2 -4 10 13 22 11 -9 -10 24 -12 -13 -14 15 -16 25 -18 -19 19 21 -22 -23 23 29 -26 26 -28 -29 -30 -31
leaf_value=-0.033138344182545722 0.051052576393511608 0.058002171128016526 0.020424282632300186 -0.019053597351425755 0.063886295455893569 0.030005963139539182 -0.032477566381344518 0.062516236853211837 0.0085137002904662872 0.034636909805270309 -0.0087743611620597975 -0.040531661288347745 0.02287249917252623 0.050162033675931361 -0.0245383619277579 0.06696016037641099 0.04110720821741206 0.066154874005034794 0.0037263641293168305 0.051326120795049814 0.051090434955109169 0.024303058752456599 0.045365989998557177 0.024240813539243251 0.064441629910316142 0.051696095033822026 0.06460143270396794 -0.0042483296859829557 0.010908626778266296 0.0012609540258244332
leaf_weight=315.7185183968395 6.9746873378753653 179.67560257762671 425.78229596652091 615.29317011870444 359.97254745289683 541.46879512071609 1027.146589288488 281.99096230790019 259.09376497380435 46.328203141689301 481.14011026360095 493.57281756028533 28.423943005502224 179.99447768554091 3159.9365776516497 135.13200043141842 204.98958251625299 179.3169858455658 17.22542030364275 269.4474182240665 16.906941018998623 17.786041676998138 13.368301190435885 36.511062022298574 18.434338852763176 226.88845282420516 117.88556531816721 14.008762393146752 85.662408882752061 37.988808579742908
leaf_count=4823 43 586 2731 7126 975 2410 14630 726 2285 241 5565 8797 109 517 33187 374 808 465 80 970 58 71 56 198 48 696 330 142 730 223
internal_value=-1.80549e-11 0.0426799 0.0461919 -0.0257698 0.0500483 0.0428079 -0.0282266 0.0540887 0.0150998 0.0259412 -0.0145428 -0.0350916 0.0496003 0.0574775 -0.025235 0.0552682 0.0519548 0.0581434 0.0511165 0.0472667 0.0271874 0.0496528 0.0282626 0.0175197 0.0431207 0.0591643 0.0561087 -0.0319109 0.0139311 0.012523
internal_weight=9794.07 3687.25 3270.76 6106.82 2844.97 1440.79 5010.38 811.456 416.493 157.4 1096.43 1520.72 529.465 1404.18 3489.66 1044.21 564.301 359.311 501.041 321.366 34.1324 287.233 629.337 87.8682 64.7625 479.906 344.774 329.727 92.6371 74.4999
internal_count=90000 15730 12383 74270 9652 5487 61579 2600 3347 1062 12691 23427 1874 4165 38152 3190 1790 982 1765 1179 138 1041 2887 477 289 1400 1026 4965 773 421
is_linear=0
shrinkage=0.05


Tree=11
num_leaves=31
num_cat=0
split_feature=7 7 7 7 7 7 0 7 7 7 7 7 0 7 0 2 7 0 6 6 3 4 2 3 0 3 7 7 7 7
split_gain=3814.91 131.149 122.44 60.6075 84.589 57.5622 38.6057 14.3338 16.1312 10.4717 12.0265 9.76049 7.87168 6.88417 6.09021 4.40072 4.2931 4.0579 3.76494 6.77787 5.90937 5.39947 4.97437 4.75866 4.42586 4.10606 3.76089 3.62147 4.35599 12.204
threshold=2.0714285714285716 3.0555555555555558 4.9444444444444455 4.0555555555555562 3.9444444444444451 0.58333333333333337 12.500000000000002 3.5277777777777781 3.4722222222222228 2.8819444444444451 2.6904761904761911 1.1000000000000003 18.500000000000004 4.2361111111111116 1.0000000180025095e-35 0.46048134294270032 3.3541666666666674 18.500000000000004 0.27458452429010222 0.32667321028546903 0.86193340400491958 30.500000000000004 0.50289489452571556 0.9475603006351101 7.5000000000000009 0.87877837617128562 3.3095238095238098 4.7638888888888902 4.4722222222222232 4.5277777777777786
decision_type=2 2 2 2 2 2 2 2 2 2 2 2 2 2 2 2 2 2 2 2 2 2 2 2 2 2 2 2 2 2
left_child=5 9 3 4 7 6 14 8 16 10 -2 -7 -8 -5 -1 -4 26 -13 -6 23 22 -22 -21 24 -20 -23 -3 28 -15 -30
right_child=1 2 15 13 18 11 12 -9 -10 -11 -12 17 -14 27 -16 -17 -18 -19 19 20 21 25 -24 -25 -26 -27 -28 -29 29 -31
leaf_value=-0.030105142620780807 0.018348667939852317 0.056004385667675551 -0.0027149696569537438 0.064573294922629365 0.039333788897416344 -0.017931434646657873 -0.030665557873719232 0.058519631734468218 0.031227586303346152 0.0083835633965383457 0.054851979808870792 -0.0063889549422033003 -0.03842869261947434 0.057451476768351675 -0.022892721323620732 0.020826312659579103 0.066160047397098062 -0.020326410775118292 -0.026299971522325591 0.016239889800885685 -0.0045469177195819315 -0.001492892669090757 0.035979786399912415 0.032303731601387158 0.012667447678110514 0.026081733059228437 0.040054458977233504 0.063451293391677585 0.04089766198671229 0.056559557098235749
leaf_weight=322.58581301663071 123.90818713791668 89.29398300498724 20.89711132645607 216.08930531516671 60.983790468424559 558.06291034258902 1013.1344050709158 430.31054598465562 133.30213625356555 253.75002647377551 27.587810065597296 411.36051155254245 481.8348359586671 455.55688803270459 3158.3749619647861 396.93059880286455 51.021115742623806 59.818782756105065 12.657484997063877 37.279600527137518 17.357409577816725 14.395651705563067 221.76099995523691 13.080325465649365 17.173110667616129 217.07907642796636 63.057666394859552 109.23667313158512 196.75839741155505 338.13140520453453
leaf_count=4998 962 264 144 621 268 6653 14758 1256 665 2285 100 4774 8877 1336 33419 2587 135 791 59 219 95 79 1010 59 84 1014 280 330 808 1070
internal_value=6.10997e-12 0.0413495 0.0448332 0.0487384 0.0414129 -0.0242209 -0.0264473 0.0524736 0.044746 0.0145939 0.024996 -0.0134574 -0.0331676 0.0564146 -0.0235611 0.0196489 0.0536068 -0.00815839 0.0275458 0.0262406 0.0278529 0.0223499 0.0331389 0.00715881 -0.0038669 0.0243668 0.0494028 0.0548114 0.0538585 0.0507984
internal_weight=9522.77 3517.6 3112.35 2694.53 1378.75 6005.17 4975.93 766.985 336.675 405.246 151.496 1029.24 1494.97 1315.77 3480.96 417.828 203.373 471.179 611.767 550.784 507.873 248.832 259.041 42.9109 29.8306 231.475 152.352 1099.68 990.447 534.89
internal_count=90000 15730 12383 9652 5487 74270 62052 2600 1344 3347 1062 12218 23635 4165 38417 2731 679 5565 2887 2619 2417 1188 1229 202 143 1093 544 3544 3214 1878
is_linear=0
shrinkage=0.05


Tree=12
num_leaves=31
num_cat=0
split_feature=7 7 7 7 7 7 0 7 7 7 7 7 0 7 0 7 7 7 0 0 7 2 7 7 6 7 7 7 7 6
split_gain=3398.21 120.282 112.602 54.8611 73.7173 50.2797 34.5676 11.9594 14.5648 9.715 10.7886 9.1717 7.39784 6.55741 5.71512 4.22164 4.18657 4.11482 4.05072 3.93432 3.76715 4.4926 3.57277 3.52239 3.43524 3.42909 9.28901 6.8373 5.66504 3.42094
threshold=2.0714285714285716 3.0555555555555558 4.9444444444444455 4.0555555555555562 3.9444444444444451 1.0000000180025095e-35 12.500000000000002 3.5277777777777781 3.4722222222222228 2.8819444444444451 2.7638888888888893 1.1000000000000003 18.500000000000004 4.2361111111111116 1.0000000180025095e-35 2.5277777777777781 2.4142857142857146 3.3541666666666674 16.500000000000004 16.500000000000004 3.8166666666666669 0.92441833429063558 4.7638888888888902 3.183333333333334 0.44509871288111813 4.4722222222222232 4.5277777777777786 4.6458333333333348 4.354166666666667 0.4779412429552638
decision_type=2 2 2 2 2 2 2 2 2 2 2 2 2 2 2 2 2 2 2 2 2 2 2 2 2 2 2 2 2 2
left_child=5 9 3 4 7 6 14 8 17 10 15 18 -8 -5 -1 16 -2 23 -7 -6 21 -9 25 -3 -13 28 -27 -28 -15 -25
right_child=1 2 -4 13 19 11 12 20 -10 -11 -12 24 -14 22 -16 -17 -18 -19 -20 -21 -22 -23 -24 29 -26 26 27 -29 -30 -31
leaf_value=-0.028676957222753326 0.028503846537994787 0.067458952592136898 0.019179278493027058 0.06336868384051135 0.029066263197695244 -0.014809824677045787 -0.028984991089178742 0.055533068873066575 0.030807301156366415 0.0083027286254165247 0.062768877793711472 -0.00071800017583905935 -0.036682605193108259 0.051484276933005925 -0.021562205566096952 0.032396761603945216 0.0054248727987841585 0.065188351654527854 -0.024897053481702274 0.01819500636745483 0.064782190138074375 0.031535331468211518 0.062422106001725625 0.054586586394841867 -0.010291361088077306 0.040924527187527149 0.06454392888970524 0.049362993305559121 0.063406983992216656 0.037879268929079918
leaf_weight=310.29662813898176 29.940501676872373 20.617707297205925 404.93751141801476 201.0691812299192 483.09019509144127 460.32100863009691 976.98137046117336 279.31368535757065 128.7661438845098 248.70882079936564 16.375592742115259 131.10854785330594 458.6621981523931 273.93748139776289 3123.6198240127414 43.727642610669136 57.173188399523497 48.093347042798996 126.97751364484429 100.54575433582067 107.03800147026777 20.96680149435997 101.34126010537148 54.237714849412441 328.47363888472319 187.65838257968426 117.28504545241594 201.76218477264047 156.57800049334764 70.417528696358204
leaf_count=4964 211 48 2731 621 2314 5584 14619 872 665 2285 48 1561 8793 871 33174 241 562 135 1571 573 311 73 330 198 4004 808 374 696 465 298
internal_value=-1.94942e-11 0.0402097 0.0436742 0.0475599 0.0404379 -0.0227918 -0.024929 0.0510349 0.0438358 0.0143286 0.0245087 -0.0128508 -0.0314442 0.0551039 -0.0222051 0.0197202 0.013357 0.0525117 -0.0169907 0.0271934 0.0567283 0.0538574 0.0535038 0.048315 -0.00756029 0.0525394 0.0497517 0.0549437 0.0558206 0.0451487
internal_weight=9270.02 3353.58 2957.66 2552.72 1313.09 5916.44 4869.56 729.451 322.132 395.926 147.217 1046.88 1435.64 1239.63 3433.92 130.841 87.1137 193.366 587.299 583.636 407.318 300.28 1038.56 145.273 459.582 937.221 506.706 319.047 430.515 124.655
internal_count=90000 15730 12383 9652 5487 74270 61550 2600 1344 3347 1062 12720 23412 4165 38138 1014 773 679 7155 2887 1256 945 3544 544 5565 3214 1878 1070 1336 496
is_linear=0
shrinkage=0.05


Tree=13
num_leaves=31
num_cat=0
split_feature=7 7 7 7 7 7 0 7 7 7 7 0 7 0 6 6 2 2 4 7 7 7 5 5 2 0 7 7 7 4
split_gain=3027.44 109.276 105.09 53.3938 67.8092 43.5989 31.7547 10.674 9.01543 10.7278 8.43056 6.82628 6.27584 5.3418 4.70062 9.29054 5.12831 6.20426 4.6375 4.2643 8.80174 7.94007 4.20262 3.94927 3.73933 3.56809 3.5396 4.26806 3.50516 3.36138
threshold=2.0714285714285716 3.0555555555555558 4.9444444444444455 4.0555555555555562 3.9444444444444451 1.0000000180025095e-35 12.500000000000002 3.7638888888888893 2.8819444444444451 2.7638888888888893 1.1000000000000003 18.500000000000004 4.3095238095238102 2.5000000000000004 0.43991807150772283 0.60407262980892473 0.51487582778198382 0.71319818929369949 181.50000000000003 4.5277777777777786 4.4722222222222232 4.354166666666667 2.5000000000000004 9.5000000000000018 0.95071266981983149 16.500000000000004 4.6458333333333348 4.7638888888888902 2.5277777777777781 76.500000000000014
decision_type=2 2 2 2 2 2 2 2 2 2 2 2 2 2 2 2 2 2 2 2 2 2 2 2 2 2 2 2 2 2
left_child=5 8 3 4 7 6 13 14 9 28 -7 -8 -5 24 -3 16 -16 -18 23 20 21 29 -6 -19 -1 -24 -21 -28 -2 -14
right_child=1 2 -4 12 22 10 11 -9 -10 -11 -12 -13 19 -15 15 -17 17 18 -20 26 -22 -23 25 -25 -26 -27 27 -29 -30 -31
leaf_value=-0.025080893603639343 0.013456455039156488 0.052899422825587475 0.018544794189705123 0.060330956626766165 0.040492655625077881 -0.016119037226247263 -0.027439356411827751 0.061353211909016603 0.0082289295293333699 0.063436820802123817 -0.0069675665525246594 -0.034949947717880493 0.035866479955765258 -0.019781471376045655 0.0080005111778577685 0.050664913106514421 0.054844867380863638 0.053965992421416975 0.0020441180179100694 0.063415695720786799 0.039938724998862203 0.062347141134025924 0.02693692806055082 0.030024244683123404 -0.0053370329313103234 0.0159621050066793 0.048513227240837564 0.061538511097336282 0.03104420300788166 0.051432933257457118
leaf_weight=768.66881501954049 85.570435119792819 182.71331228502095 397.11382425203919 294.02098096162081 48.129370596259832 572.81605299934745 953.96951333805919 152.01651164144278 244.11097117234021 15.411280579864977 448.86318657360971 443.03697491064668 53.191075274720788 2616.9037407562137 16.387913517653942 189.96053066849709 38.378147460520267 21.775532018393278 11.870742477476595 108.60303098708391 178.96517713367939 145.05562640726566 430.5423908829689 82.413780834525824 24.753394793719053 89.445344904437661 190.83507551625371 93.80742359161377 42.34850150719285 99.651093624532223
leaf_count=9937 773 672 2731 975 224 7155 14619 463 2285 48 5565 8793 194 27943 87 744 138 93 53 374 808 465 2129 350 258 534 696 330 241 323
internal_value=-4.23848e-12 0.0389745 0.0423897 0.0462901 0.039173 -0.0214785 -0.023472 0.0496411 0.0140733 0.024027 -0.0120984 -0.0298212 0.0540155 -0.0208711 0.0463653 0.0430562 0.0345952 0.0374173 0.0316544 0.0518815 0.0487028 0.0539679 0.0263574 0.0350281 -0.0244649 0.0250491 0.055736 0.0528059 0.019279 0.0460156
internal_weight=9041.33 3212.32 2824.88 2427.76 1263.63 5829.01 4807.33 695.516 387.441 143.33 1021.68 1397.01 1164.13 3410.33 543.5 360.787 170.826 154.438 116.06 870.109 476.863 297.898 568.117 104.189 793.422 519.988 393.246 284.642 127.919 152.842
internal_count=90000 15730 12383 9652 5487 74270 61550 2600 3347 1062 12720 23412 4165 38138 2137 1465 721 634 496 3190 1790 982 2887 443 10195 2663 1400 1026 1014 517
is_linear=0
shrinkage=0.05


Tree=14
num_leaves=31
num_cat=0
split_feature=7 7 7 7 7 7 0 7 7 7 7 7 0 7 0 7 6 6 0 2 2 2 3 0 0 6 6 7 6 6
split_gain=2702.37 101.92 99.0199 49.8054 65.8304 37.8427 30.9737 12.461 15.7504 7.88806 9.52974 7.66867 6.54529 5.80346 5.42884 3.46502 3.42493 5.43825 3.44207 4.07429 4.14888 3.47893 3.3952 4.74205 3.33758 3.30487 5.15432 3.27211 3.17447 4.26398
threshold=2.0714285714285716 3.0555555555555558 4.9444444444444455 4.0555555555555562 3.9444444444444451 1.0000000180025095e-35 12.500000000000002 3.5277777777777781 3.4722222222222228 2.8819444444444451 2.6904761904761911 1.1000000000000003 24.500000000000004 4.2361111111111116 1.0000000180025095e-35 3.3541666666666674 0.27458452429010222 0.29698630972365769 17.500000000000004 0.83167803766253812 0.84239613230281318 0.48791509798113969 0.52618681996475691 19.500000000000004 20.500000000000004 0.47153916008177171 0.59102130410260856 3.2361111111111116 0.63980550221485155 0.45070459741130547
decision_type=2 2 2 2 2 2 2 2 2 2 2 2 2 2 2 2 2 2 2 2 2 2 2 2 2 2 2 2 2 2
left_child=5 9 3 4 7 6 14 8 15 10 28 25 -8 -5 -1 27 -6 -18 19 21 -21 -19 -10 -24 -13 -7 -27 -3 29 -2
right_child=1 2 -4 13 16 11 12 -9 22 -11 -12 24 -14 -15 -16 -17 17 18 -20 20 -22 -23 23 -25 -26 26 -28 -29 -30 -31
leaf_value=-0.025975315551936159 0.027026074904370992 0.058727618366859795 0.018037344901047254 0.061415115434361456 0.037461001553810762 -0.0093469024591551278 -0.027475485221803955 0.055242777362673759 0.0048289404074597676 0.0081256478814833374 0.052223280611255155 -0.0051209640289929794 -0.04155063889900848 0.051456459284913297 -0.018854216192707815 0.063460473059061787 -0.010016724686741557 0.013159964359185714 0.014328834292956942 -0.0063822657033332014 0.022645340861744037 0.032090316003488654 0.034190184113417094 -0.00053154068813457661 -0.021660400188805207 -0.023683435458447276 -0.012183176378672394 0.041729874431482322 0.030544087680465005 0.0034879461956289757
leaf_weight=292.74595919065177 30.238031836226583 41.059912629425526 389.62729644961655 174.10666909068823 54.843800622969866 168.99836656078696 1270.5707873543724 361.38205634057522 14.553581424057482 239.43666620645672 23.372559763491154 406.55991427227855 88.339399791322649 915.78275215998292 3120.9451983589679 42.20950772613287 11.285724140703676 26.860764462500811 64.453185388818383 13.592947196215389 130.39660191163421 251.61901442892849 94.76844884082675 10.971861869096754 32.976154515519738 187.79826017096639 202.47685089707375 91.200499469414353 32.180381881073117 52.900710374116898
leaf_count=4964 239 121 2731 621 268 2175 21829 1256 76 2285 100 5085 1583 3544 33174 135 70 171 414 75 644 1245 522 67 480 2409 2571 423 251 472
internal_value=-3.42208e-12 0.0379275 0.0413457 0.0452958 0.0383091 -0.0201541 -0.0220063 0.0490198 0.0413903 0.0136219 0.0231106 -0.0113038 -0.0283905 0.0530473 -0.0194649 0.0509874 0.0256018 0.0242963 0.0250916 0.0267336 0.0199051 0.0302644 0.027471 0.0305874 -0.00636183 -0.0151878 -0.017717 0.0470068 0.0172101 0.0120489
internal_weight=8838.25 3066.84 2688.71 2299.09 1209.2 5771.41 4772.6 656.146 294.764 378.128 138.692 998.81 1358.91 1089.89 3413.69 174.47 553.052 498.208 486.923 422.469 143.99 278.48 120.294 105.74 439.536 559.273 390.275 132.26 115.319 83.1387
internal_count=90000 15730 12383 9652 5487 74270 61550 2600 1344 3347 1062 12720 23412 4165 38138 679 2887 2619 2549 2135 719 1416 665 589 5565 7155 4980 544 962 711
is_linear=0
shrinkage=0.05


Tree=15
num_leaves=31
num_cat=0
split_feature=7 7 7 7 7 7 0 7 7 0 7 7 7 7 0 0 7 7 1 7 7 7 7 7 0 6 3 2 7 7
split_gain=2438.04 93.5721 93.9669 44.2095 59.7857 33.2239 30.0594 10.4762 12.5699 9.01324 7.31553 7.20557 8.85026 5.9761 5.78088 3.7528 3.53892 3.76649 3.97467 3.24401 3.93056 9.07344 5.9632 4.61638 3.60743 3.33026 3.17026 5.07082 3.11958 4.63337
threshold=2.0714285714285716 3.0555555555555558 4.9444444444444455 4.0555555555555562 3.9444444444444451 1.0000000180025095e-35 12.500000000000002 3.5277777777777781 3.4722222222222228 18.500000000000004 1.1000000000000003 2.8819444444444451 2.7638888888888893 4.2361111111111116 1.0000000180025095e-35 16.500000000000004 3.3541666666666674 3.3095238095238098 4.3500000000000005 4.7638888888888902 4.4722222222222232 4.5277777777777786 4.6458333333333348 4.354166666666667 15.500000000000002 0.44509871288111813 0.97288830293851603 0.86038207871517591 3.8166666666666669 3.6458333333333335
decision_type=2 2 2 2 2 2 2 2 2 2 2 2 2 2 2 2 2 2 2 2 2 2 2 2 2 2 2 2 2 2
left_child=5 11 3 4 7 6 14 8 16 -8 15 12 -2 -5 -1 -7 17 -3 -19 20 23 24 -23 -15 -22 -24 27 -4 29 -9
right_child=1 2 26 13 -6 10 9 28 -10 -11 -12 -13 -14 19 -16 -17 -18 18 -20 -21 21 22 25 -25 -26 -27 -28 -29 -30 -31
leaf_value=-0.02524735220719326 0.018294836514660545 0.052998869431744325 0.015762875522145697 0.060558446497328777 0.025264201120277992 -0.012410520758946266 -0.024588582756551399 0.063356190039203203 0.028205150117008866 -0.033615510875265785 -0.0058987395690301555 0.008104883960113345 0.060747904419865745 0.048796391539600088 -0.017786408094432819 -0.022403705323432336 0.062718306366747259 0.026015980494510801 0.055009531635591094 0.059601315017017722 0.040864992192604505 0.061696141010996942 0.055987017060753812 0.060638135955137534 0.023562690986963893 0.041176843159563464 0.0051837596085283662 0.030283495906099744 0.062057968475992244 0.047428889000961726
leaf_weight=283.2543295333162 120.86402111314237 72.888621423393488 259.68145128525794 162.47251120209694 534.68475598469377 429.03784136194736 909.97649059165269 59.401132371276617 115.4026910290122 397.24694573506713 431.36830744892359 235.76653355080634 13.664543148130177 232.02145355381072 3112.249976022169 120.28788578510284 39.660098262131214 35.992506833747029 17.601041786372662 81.684954974800348 125.7444066144526 94.785997912287712 56.686976131051779 127.54414759576321 39.61631029099226 114.88350717350841 46.376093273982406 78.23856027238071 87.209556691348553 197.41424206644297
leaf_count=4964 1014 264 1883 621 2887 5584 14619 192 665 8793 5565 2285 48 871 33174 1571 135 198 82 330 619 374 219 465 189 477 346 502 311 753
internal_value=3.95798e-11 0.0368777 0.0402512 0.0442432 0.0375409 -0.0191434 -0.0208891 0.048034 0.0408815 -0.0273317 -0.010772 0.0133735 0.0226069 0.0517535 -0.0184088 -0.0145988 0.0496865 0.0456003 0.035538 0.0501148 0.0491355 0.0459194 0.0516308 0.0529969 0.0367198 0.0460701 0.0174425 0.0191248 0.0538874 0.0511129
internal_weight=8633.71 2950.29 2579.99 2195.69 1160.25 5683.42 4702.73 625.57 281.545 1307.22 980.694 370.295 134.529 1035.44 3395.5 549.326 166.142 126.482 53.5935 872.968 791.283 431.717 266.356 359.566 165.361 171.57 384.296 337.92 344.025 256.815
internal_count=90000 15730 12383 9652 5487 74270 61550 2600 1344 23412 12720 3347 1062 4165 38138 7155 679 544 280 3544 3214 1878 1070 1336 808 696 2731 2385 1256 945
is_linear=0
shrinkage=0.05


Tree=16
num_leaves=31
num_cat=0
split_feature=7 7 7 7 7 7 0 7 7 0 7 7 7 7 0 7 7 7 7 7 2 0 6 7 7 7 7 6 0 5
split_gain=2210 87.752 79.2345 46.8899 56.1865 29.6279 27.0293 9.98979 12.2309 7.73807 6.77387 8.83019 5.1383 4.67811 4.83058 3.84524 8.67301 5.74508 3.53366 3.40783 3.21929 3.10444 3.09235 3.08555 4.21774 4.22163 3.01405 2.9854 2.97151 2.97147
threshold=2.0714285714285716 3.0555555555555558 4.9444444444444455 4.0555555555555562 3.9444444444444451 1.1000000000000003 12.500000000000002 3.5277777777777781 3.4722222222222228 18.500000000000004 2.8819444444444451 2.6904761904761911 4.3095238095238102 1.0000000180025095e-35 1.0000000180025095e-35 4.5277777777777786 4.4722222222222232 4.354166666666667 0.41666666666666669 3.3541666666666674 0.95071266981983149 18.500000000000004 0.70976377170903693 3.8166666666666669 3.6458333333333335 3.6904761904761911 0.87500000000000011 0.44087670505257787 22.500000000000004 2.5000000000000004
decision_type=2 2 2 2 2 2 2 2 2 2 2 2 2 2 2 2 2 2 2 2 2 2 2 2 2 2 2 2 2 2
left_child=5 10 3 4 7 6 13 8 19 26 11 -2 -5 14 20 16 17 -14 -11 -3 -1 -7 27 24 -9 -26 -8 -15 -12 -6
right_child=1 2 -4 12 29 21 9 23 -10 18 28 -13 15 22 -16 -17 -18 -19 -20 -21 -22 -23 -24 -25 25 -27 -28 -29 -30 -31
leaf_value=-0.02492649049147477 0.01647867469721313 0.044587883041197734 0.018015806556078845 0.057621901256581946 0.036803201541187901 -0.0038062566987230903 -0.023388776103468342 0.061950468555360544 0.027099026736675191 -0.032193981369635465 0.0090562304057044459 0.051399092459640222 0.044548177547491442 -0.00528337186631313 -0.016853322758292051 0.053282045243943643 0.03675937399508479 0.059712648743177013 -0.02073158301473612 0.06191082108919424 8.7621077464950165e-05 -0.016810663113518337 0.00086128927068861063 0.061100522649159529 0.037118659836771144 0.052382230405402901 -0.014877940423565337 -0.016509467900032684 -0.023189587243842583 0.023193688473455709
leaf_weight=265.9415027666837 109.69365978613496 121.44756409525871 365.17079651169479 241.32197598740458 43.766073938459158 371.92202370334417 906.36381217557937 55.720494125038385 112.83679162524641 384.00443743914366 224.31104684062302 21.681130144745111 131.49391800537705 84.784557672217488 3103.3473911471665 322.84178883209825 156.91911817900836 118.96131560951471 81.510078772902489 37.052287258207798 13.516375299543141 52.352415596134961 45.984180774539709 81.379546124488115 75.337257046252489 113.62439678050578 117.51442093402147 196.42733351700008 7.3795310985296956 479.79367391765118
leaf_count=4822 962 544 2731 975 224 4774 14768 192 665 8797 2188 100 517 1145 33174 1400 808 465 1070 135 142 791 591 311 338 415 1548 2648 97 2663
internal_value=-3.63486e-11 0.0361169 0.0395065 0.0432569 0.0362888 -0.0181156 -0.0191523 0.0467684 0.0396806 -0.0248421 0.013172 0.0222417 0.0512967 -0.0168681 -0.0174203 0.0492063 0.0459763 0.051751 -0.030187 0.0486374 -0.0237166 -0.00541091 -0.0111592 0.0526666 0.0498615 0.0462968 -0.022412 -0.0131248 0.00802918 0.0243314
internal_weight=8444.4 2820.73 2457.67 2092.5 1120.96 5623.67 5199.39 597.398 271.337 1489.39 363.065 131.375 971.538 3710 3382.81 730.216 407.374 250.455 465.515 158.5 279.458 424.274 327.196 326.062 244.682 188.962 1023.88 281.212 231.691 523.56
internal_count=90000 15730 12383 9652 5487 74270 68705 2600 1344 26183 3347 1062 4165 42522 38138 3190 1790 982 9867 679 4964 5565 4384 1256 945 753 16316 3793 2285 2887
is_linear=0
shrinkage=0.05


Tree=17
num_leaves=31
num_cat=0
split_feature=7 7 7 7 7 7 0 7 7 0 7 7 7 7 0 6 7 7 7 7 7 3 6 4 7 7 7 2 7 1
split_gain=1998.32 80.1963 74.5794 46.0251 53.2806 26.9133 25.1031 10.0733 11.205 6.63432 6.12691 7.80165 4.92099 3.69068 4.33638 4.01523 3.58273 3.44194 7.94306 5.47004 3.39578 3.29698 3.15159 3.54519 3.12025 3.96479 2.89181 2.88331 2.84791 2.90988
threshold=2.0714285714285716 3.0555555555555558 4.9444444444444455 4.0555555555555562 3.9444444444444451 1.1000000000000003 12.500000000000002 3.5277777777777781 3.4722222222222228 18.500000000000004 2.8819444444444451 2.7638888888888893 4.3095238095238102 1.0000000180025095e-35 5.5000000000000009 0.43745822574105564 0.41666666666666669 4.5277777777777786 4.4722222222222232 4.354166666666667 3.3541666666666674 0.42607406196424452 0.664528794101229 145.50000000000003 2.5277777777777781 2.4142857142857146 3.2361111111111116 0.83618808380821685 0.87500000000000011 4.8500000000000005
decision_type=2 2 2 2 2 2 2 2 2 2 2 2 2 2 2 2 2 2 2 2 2 2 2 2 2 2 2 2 2 2
left_child=5 10 3 4 7 6 13 8 20 28 11 24 -5 14 15 -1 -11 18 19 -14 26 -9 -16 27 25 -2 -3 -24 -8 -30
right_child=1 2 -4 12 -6 -7 9 21 -10 16 -12 -13 17 -15 22 -17 -18 -19 -20 -21 -22 -23 23 -25 -26 -27 -28 -29 29 -31
leaf_value=-0.014930476531380396 0.027406247477157305 0.055361311890699816 0.017521949521925328 0.056914699316181511 0.023606231764604697 -0.0049351592034844963 -0.022404039887052453 0.033778549668580377 0.026466948487343839 -0.030820593880507757 0.0080799720570014968 0.059655422651258318 0.04380823647214345 -0.010814061885659185 -0.015903568819854576 -0.02025890915698645 -0.019267428865210781 0.052383926595018317 0.036350075746647358 0.059105382583903403 0.061161650760230057 0.053458742540907545 -0.0018255016230951803 -0.015303088403996835 0.029620872145955109 0.0037424389388661856 0.03819305719416792 -0.015189927394614956 -0.011544706458982619 -0.039307386458191401
leaf_weight=544.8832948282361 27.250301556661725 35.077328369021416 358.51432752050459 226.52594849281013 512.58467666059732 415.87991898227483 889.73629024904221 23.006171055138111 109.84332946129143 371.4015038497746 226.88585812412202 12.286242697387932 123.5122825615108 318.22415624465793 1409.1921596871689 1006.849270472303 81.902744302526116 305.96886994317174 151.27462245151401 110.92349944636226 34.759131819009781 283.84433901123703 131.70687399990857 214.30576763115823 37.334114557132125 50.510106697678566 81.554692110046744 58.188298083841801 104.74309306778014 10.372953834012149
leaf_count=6259 211 121 2731 975 2887 5565 14768 93 665 8797 2285 48 517 4384 15151 12403 1070 1400 808 465 135 1163 1341 2351 241 562 423 633 1404 144
internal_value=1.43009e-11 0.0351878 0.0385212 0.0422876 0.035294 -0.0171695 -0.0181591 0.0458399 0.0386239 -0.0237118 0.0130069 0.0217825 0.0505185 -0.0159608 -0.0164475 -0.0183879 -0.0287332 0.0484238 0.0452824 0.0510461 0.0474445 0.0519832 -0.0147872 -0.0108952 0.0177396 0.0120352 0.0433564 -0.00592067 -0.0214466 -0.0140464
internal_weight=8269.04 2711.66 2357.39 1998.87 1080.67 5557.39 5141.51 568.085 261.234 1458.16 354.267 127.381 918.205 3683.35 3365.13 1551.73 453.304 691.679 385.71 234.436 151.391 306.851 1813.39 404.201 115.095 77.7604 116.632 189.895 1004.85 115.116
internal_count=90000 15730 12383 9652 5487 74270 68705 2600 1344 26183 3347 1062 4165 42522 38138 18662 9867 3190 1790 982 679 1256 19476 4325 1014 773 544 1974 16316 1548
is_linear=0
shrinkage=0.05


Tree=18
num_leaves=31
num_cat=0
split_feature=7 7 7 7 7 7 0 7 6 6 2 0 7 7 7 2 7 0 7 6 6 0 3 2 2 6 2 2 4 4
split_gain=1828.97 74.4345 70.0175 44.8137 50.6984 25.9493 21.0635 10.0245 6.7006 6.25741 7.49614 5.98226 5.65059 7.29718 4.41635 3.84306 3.80985 4.65163 3.78423 2.98307 3.85668 3.71666 3.92901 4.72815 5.31802 5.22471 4.14437 3.67851 3.64463 2.96064
threshold=2.0714285714285716 3.0555555555555558 4.9444444444444455 4.0555555555555562 3.9444444444444451 1.1000000000000003 12.500000000000002 3.6904761904761911 0.44087670505257787 0.60407262980892473 0.48273822899774982 18.500000000000004 2.8819444444444451 2.7638888888888893 4.2361111111111116 0.84857668112744655 1.0000000180025095e-35 1.0000000180025095e-35 0.41666666666666669 0.27458452429010222 0.29909995249647997 17.500000000000004 0.86193340400491958 0.57488731204999766 0.60194824893055054 0.50637826554150045 0.4632134874664034 0.48791509798113969 31.500000000000004 36.500000000000007
decision_type=2 2 2 2 2 2 2 2 2 2 2 2 2 2 2 2 2 2 2 2 2 2 2 2 2 2 2 2 2 2
left_child=5 12 3 4 7 6 16 8 -3 10 -10 -8 13 -2 -5 -12 17 -1 -13 29 -21 22 23 25 -25 26 -22 -27 -24 -6
right_child=1 2 -4 14 19 -7 11 -9 9 -11 15 18 -14 -15 -16 -17 -18 -19 -20 20 21 -23 28 24 -26 27 -28 -29 -30 -31
leaf_value=-0.022289583622231018 0.01745802062610435 0.049669906387926475 0.017148843155332338 0.058134819946050832 0.019133458554800201 -0.0044005938592523563 -0.020434890762615506 0.054912496646517622 -0.014993810640087715 0.043199802542421464 0.037717616124525961 -0.029626919474165722 0.0080772676741186281 0.058891543124099124 0.048253683235511741 0.017724020345165063 -0.010158502231961342 -0.015380910410774865 -0.017758238793585065 -0.0048400926057086497 0.020490019423898911 0.010935757348236673 -0.0072306400293328191 0.064896459029050932 0.030824386399448307 0.0094681882881520046 -0.028473592300539155 0.043839219034702621 0.02098966695179813 0.044405628699642069
leaf_weight=264.88741265796125 113.4447911195457 127.17569514550269 352.88460814021528 133.58362121134996 18.782226391136646 410.74972798489034 989.35835584998131 173.73128664121032 9.6656249798834306 127.15261852927506 71.26935825496912 361.39094544481486 224.16185297816992 11.724810011684893 736.77613346464932 36.263932656496763 312.44767804071307 3038.0318866735324 82.490076202899218 13.24212848767638 7.9288011491298702 59.657390998676419 12.25075478106737 12.50313765183091 136.26278893835843 14.471804026514294 9.4994211904704553 16.845933143049479 173.1253787856549 30.258947756141424
leaf_count=4964 1014 602 2731 621 103 5565 16316 726 58 642 370 8797 2285 48 3544 202 4384 33174 1070 83 63 413 85 46 737 95 58 86 953 165
internal_value=-1.71203e-11 0.0343173 0.0376193 0.0413807 0.0344271 -0.016486 -0.0174692 0.0449983 0.0403623 0.0355181 0.0271839 -0.0225986 0.0128292 0.0213392 0.0497702 0.0309751 -0.0154358 -0.015935 -0.0274213 0.0230093 0.0217485 0.0225441 0.0243528 0.0292597 0.033688 0.0157452 -0.00619807 0.0279565 0.0191247 0.0347267
internal_weight=8082.02 2622.66 2273.33 1920.45 1050.09 5459.36 5048.61 545.259 371.527 244.352 117.199 1433.24 349.331 125.17 870.36 107.533 3615.37 3302.92 443.881 504.829 455.788 442.545 382.888 197.512 148.766 48.746 17.4282 31.3177 185.376 49.0412
internal_count=90000 15730 12383 9652 5487 74270 68705 2600 1874 1272 630 26183 3347 1062 4165 572 42522 38138 9867 2887 2619 2536 2123 1085 783 302 121 181 1038 268
is_linear=0
shrinkage=0.05


Tree=19
num_leaves=31
num_cat=0
split_feature=7 7 7 7 7 7 0 7 7 0 7 7 6 7 5 0 7 7 7 1 0 7 7 2 7 0 7 7 7 7
split_gain=1665.07 68.6688 68.8701 38.5105 46.1771 23.7176 21.6489 8.96901 10.3322 5.99975 5.44963 7.10149 5.06352 4.75933 3.9064 3.81983 3.112 3.03938 3.86775 3.29661 2.95077 2.84657 4.42721 4.89769 3.74383 2.70493 2.66124 3.34661 7.16786 5.04857
threshold=2.0714285714285716 3.0555555555555558 4.9444444444444455 4.0555555555555562 3.9444444444444451 0.58333333333333337 12.500000000000002 3.5277777777777781 3.4722222222222228 24.500000000000004 2.8819444444444451 2.6904761904761911 0.44509871288111813 4.2361111111111116 20.500000000000004 19.500000000000004 1.1000000000000003 3.3541666666666674 3.3095238095238098 4.3500000000000005 1.0000000180025095e-35 3.8166666666666669 3.6458333333333335 0.92441833429063558 3.6904761904761911 18.500000000000004 4.7638888888888902 4.4722222222222232 4.5277777777777786 4.6458333333333348
decision_type=2 2 2 2 2 2 2 2 2 2 2 2 2 2 2 2 2 2 2 2 2 2 2 2 2 2 2 2 2 2
left_child=5 10 3 4 7 6 20 8 17 25 11 -2 15 -5 16 -7 -14 18 -3 -20 -1 22 -9 24 -24 -8 27 -15 -29 -30
right_child=1 2 -4 13 -6 12 9 21 -10 -11 -12 -13 14 26 -16 -17 -18 -19 19 -21 -22 -23 23 -25 -26 -27 -28 28 29 -31
leaf_value=-0.020050342920177201 0.016096077626945361 0.050639686215995378 0.016487584122820791 0.057706275037771641 0.02302585827391844 0.00021015492735631689 -0.020538492341922954 0.061133394920977781 0.025403348043225291 -0.037259254822248303 0.0080611380988036899 0.049567440048742702 -0.016371782123503854 0.050145995123693665 -0.0036822051953811275 -0.0201652045652254 -0.0082799038517107956 0.060087635706124992 0.022220822444797658 0.050651819972002736 -0.014554961982314433 0.059569094412707552 0.036440922652568354 0.013144077521551965 0.052604531344275909 -0.026134530223502761 0.056862930956490254 0.034106007973063367 0.059228766221831292 0.043010007149155663
leaf_weight=265.56125693954527 103.24575778841972 60.92124536819756 349.02612452581525 124.9267499987036 483.81180529110134 215.94606451317668 862.6542221782729 47.817271556705236 102.44044603407383 67.666583421640098 220.42992807924747 18.720135048031807 262.64548401813954 286.98627189360559 159.68170000985265 25.744742067530751 216.97391857765615 31.183541480451822 31.300046367570758 15.12164003588259 3047.5643874611706 67.392558991909027 58.845278233289719 12.043522849678991 91.573388455435634 288.04514833539724 63.648796066641808 140.21379231475294 73.872277125716209 136.90146885439754
leaf_count=4998 962 264 2731 621 2887 2984 14758 192 665 1596 2285 100 3658 1336 2127 404 3045 135 198 82 33419 311 302 61 390 7281 330 808 374 696
internal_value=2.70102e-11 0.0335685 0.0368407 0.0407247 0.0341367 -0.0156318 -0.0170912 0.0445014 0.0374431 -0.0227902 0.0127533 0.0212335 -0.00812521 0.0487148 -0.0104559 -0.00196021 -0.0127111 0.0463466 0.0423548 0.0314821 -0.0149954 0.0506266 0.0477607 0.0438247 0.0462812 -0.0219393 0.0471138 0.0461411 0.0428666 0.0486944
internal_weight=7932.91 2520.42 2178.03 1829 1002.45 5412.48 4531.49 518.639 240.967 1218.37 342.396 121.966 880.992 826.549 639.301 241.691 479.619 138.526 107.343 46.4217 3313.13 277.672 210.279 162.462 150.419 1150.7 701.623 637.974 350.988 210.774
internal_count=90000 15730 12383 9652 5487 74270 62052 2600 1344 23635 3347 1062 12218 4165 8830 3388 6703 679 544 280 38417 1256 945 753 692 22039 3544 3214 1878 1070
is_linear=0
shrinkage=0.05


Tree=20
num_leaves=31
num_cat=0
split_feature=7 7 7 7 7 7 0 7 7 0 7 7 7 7 7 4 7 6 6 4 4 4 3 3 3 6 3 3 3 2
split_gain=1518.94 63.6029 64.294 36.8448 43.9752 22.0145 18.3932 9.19932 9.51056 5.27455 4.9804 6.73933 4.66245 3.43033 3.25397 3.51097 2.96961 2.92348 4.59489 4.60409 3.77696 3.13354 2.96868 4.97383 4.87423 8.71449 3.87727 4.4655 3.31815 3.77043
threshold=2.0714285714285716 3.0555555555555558 4.9444444444444455 4.0555555555555562 3.9444444444444451 1.1000000000000003 12.500000000000002 3.5277777777777781 3.4722222222222228 18.500000000000004 2.8819444444444451 2.5277777777777781 4.2361111111111116 0.41666666666666669 2.4142857142857146 134.50000000000003 3.3541666666666674 0.43508594875348294 0.51946859071949103 194.50000000000003 191.50000000000003 180.50000000000003 0.97842775145044325 0.93884074965395337 0.91773526542150308 0.5628659676199067 0.96138483613577486 0.96773188970820656 0.90085435862665797 0.88647781060137343
decision_type=2 2 2 2 2 2 2 2 2 2 2 2 2 2 2 2 2 2 2 2 2 2 2 2 2 2 2 2 2 2
left_child=5 10 3 4 7 6 17 8 16 -8 11 14 -5 -11 15 -2 -3 -1 19 20 21 -19 23 24 28 -26 -25 -28 29 -20
right_child=1 2 -4 12 -6 -7 9 -9 -10 13 -12 -13 -14 -15 -16 -17 -18 18 22 -21 -22 -23 -24 26 25 -27 27 -29 -30 -31
leaf_value=-0.011899690114871265 0.039233138139561689 0.041354956256921885 0.016190372941103006 0.057101971180846693 0.022460823701641611 -0.0035091328973092966 -0.018668714008101567 0.05021335977154049 0.024915837934506756 -0.027638195910529236 0.0080529453572128051 0.035993381297996743 0.046281545794066424 -0.016212928733368302 0.003644010125251073 0.0012135924763343922 0.059430010726440691 -0.017263862675071129 -0.01405478310604967 -0.039587091847514189 0.016417908196845434 -0.031414662979823336 -0.0079635969649117563 -0.025353610214486056 0.025284408751317874 -0.00938702132951931 -0.0021679359967053508 -0.020714611103546048 -0.023639018763414482 0.0019404062122103851
leaf_weight=1202.3609341951087 16.877586677670482 102.81020346842706 343.2597490157932 116.94309579953551 474.88515202328563 393.29087730310857 961.39812615327537 261.18749430216849 100.15077119506896 335.50213365443051 217.26379786245525 45.159846134483814 669.5805873721838 81.693439353257418 47.43944332934916 9.4847641885280591 29.171360164880753 483.26214305870235 1016.8795529603958 25.633342943154275 7.9016932304948559 42.56718310341239 200.29493877291679 165.15845512412488 20.64789130538702 148.22818306833506 50.582156460732222 90.560670651495457 86.917164131999016 38.227835856378078
leaf_count=13768 132 544 2731 621 2887 5565 16316 1256 665 8797 2285 289 3544 1070 562 79 135 5921 12291 338 84 532 2340 2087 190 1762 562 1125 1091 431
internal_value=-2.96146e-11 0.0327449 0.0359804 0.0398518 0.0333216 -0.0148956 -0.0157989 0.0437765 0.0365339 -0.0207061 0.0125559 0.0207798 0.0478904 -0.0254009 0.0114705 0.0255543 0.04535 -0.0139088 -0.0149252 -0.0188879 -0.0178938 -0.0184094 -0.0137056 -0.0144167 -0.0130764 -0.00514787 -0.0201532 -0.0140679 -0.0142488 -0.0134753
internal_weight=7785.32 2434.21 2097.99 1754.73 968.205 5351.11 4957.82 493.32 232.132 1378.59 336.225 118.962 786.524 417.196 73.8018 26.3624 131.982 3579.22 2376.86 559.364 533.731 525.829 1817.5 1617.2 1310.9 168.876 306.301 141.143 1142.02 1055.11
internal_count=90000 15730 12383 9652 5487 74270 68705 2600 1344 26183 3347 1062 4165 9867 773 211 679 42522 28754 6875 6537 6453 21879 19539 15765 1952 3774 1687 13813 12722
is_linear=0
shrinkage=0.05


Tree=21
num_leaves=31
num_cat=0
split_feature=7 7 7 7 7 7 0 7 7 6 7 7 7 7 5 3 7 7 2 7 1 7 7 7 7 7 4 5 0 0
split_gain=1432.52 58.266 60.6852 34.6789 41.6734 26.1784 14.6896 8.11853 10.0248 5.40244 5.17007 6.52998 4.94284 4.43533 2.88988 4.28181 2.8549 3.77277 3.40084 3.64461 2.98084 2.77623 3.02563 7.51355 4.8197 4.01374 3.02203 2.69563 3.29878 4.21911
threshold=2.0714285714285716 3.0555555555555558 4.9444444444444455 4.0555555555555562 3.9444444444444451 1.0000000180025095e-35 18.500000000000004 3.5277777777777781 3.4722222222222228 0.43508594875348294 2.8819444444444451 2.7638888888888893 4.2361111111111116 1.1000000000000003 20.500000000000004 0.98383472179134523 3.8166666666666669 3.6458333333333335 0.92441833429063558 3.6904761904761911 3.7500000000000004 4.7638888888888902 4.4722222222222232 4.5277777777777786 4.6458333333333348 4.354166666666667 95.500000000000014 2.5000000000000004 14.500000000000002 13.500000000000002
decision_type=2 2 2 2 2 2 2 2 2 2 2 2 2 2 2 2 2 2 2 2 2 2 2 2 2 2 2 2 2 2
left_child=5 10 3 4 7 6 9 8 -3 -1 11 -2 -5 -7 -11 -16 17 -9 19 -19 -21 22 25 26 -25 -14 -24 -6 29 -29
right_child=1 2 -4 12 27 13 -8 16 -10 14 -12 -13 21 -15 15 -17 -18 18 -20 20 -22 -23 23 24 -26 -27 -28 28 -30 -31
leaf_value=-0.013132772986286487 0.017379782341337253 0.045285490728189909 0.01585401742562945 0.056566594566510614 0.034559871387667265 -0.010170736724057383 -0.026586591180636051 0.059087105676971764 0.024113185325633481 -0.018027011078652632 0.0080394712115116462 0.058811366605523024 0.043735433395861903 -0.0031088296622157631 -0.015261909038012425 0.00079066665514205398 0.058486221814594001 0.034481123658670537 0.015681150941907473 0.038927048222904118 0.058335496984601456 0.055666928663664884 0.040449935497890964 0.058116573617403272 0.041538071269707474 0.056678386830303885 0.025217548876649249 0.022097844978502749 0.013655254508584423 0.046976118741913465
leaf_weight=1406.4869328262284 108.22561495937407 128.04918598942459 341.83931936696172 111.88137208484113 39.269545767456293 511.97101037111133 330.80572036467493 43.264623560011387 99.237422594800591 1843.5342554412782 216.95897723641247 10.426377739757298 176.64599712379277 393.03026176057756 633.65500713698566 44.455466415733099 60.877850983291864 55.297351216897368 11.086798552423714 31.791180141270161 52.376468986272812 57.663495499640703 57.227632395923138 66.61692713946104 128.22061574459076 90.632190525531769 75.545000756159425 299.486044049263 115.80268502607942 18.070286713540554
leaf_count=17617 1014 679 2731 621 224 7155 8793 192 665 25773 2285 48 871 5565 8794 573 311 302 61 140 250 330 361 374 696 465 447 1805 751 107
internal_value=4.23157e-11 0.0319484 0.0350946 0.0389206 0.0325656 -0.0148267 -0.0164678 0.0429106 0.0360413 -0.0156156 0.0126288 0.0210205 0.0468566 -0.00710384 -0.0170004 -0.0142095 0.0490408 0.046074 0.0423344 0.0444532 0.0510047 0.0451918 0.0441765 0.0409557 0.0472064 0.0481243 0.031783 0.0220159 0.0208792 0.0235135
internal_weight=7560.43 2396.49 2060.88 1719.04 954.609 5163.94 4258.94 481.981 227.287 3928.13 335.611 118.652 764.433 905.001 2521.64 678.11 254.694 193.816 150.552 139.465 84.1676 652.552 594.888 327.61 194.838 267.278 132.773 472.629 433.359 317.556
internal_count=90000 15730 12383 9652 5487 74270 61550 2600 1344 52757 3347 1062 4165 12720 35140 9367 1256 945 753 692 390 3544 3214 1878 1070 1336 808 2887 2663 1912
is_linear=0
shrinkage=0.05


Tree=22
num_leaves=31
num_cat=0
split_feature=7 7 7 7 7 7 0 7 7 7 7 7 6 0 6 0 4 7 7 7 7 7 4 7 7 6 6 0 5 4
split_gain=1341.59 55.9612 58.3312 34.5551 40.3858 26.3638 16.6238 8.82047 9.10669 5.02588 4.53063 6.1621 4.50122 4.31768 4.16727 4.14873 3.70076 3.50983 6.44006 5.46909 2.73109 2.95094 2.67847 2.67519 3.06071 2.65784 2.6356 3.77569 3.46867 3.31518
threshold=2.0714285714285716 3.0555555555555558 4.9444444444444455 4.0555555555555562 3.9444444444444451 1.0000000180025095e-35 12.500000000000002 3.5277777777777781 3.4722222222222228 4.3095238095238102 2.8819444444444451 2.6904761904761911 0.44509871288111813 11.500000000000002 0.43508594875348294 24.500000000000004 191.50000000000003 4.5277777777777786 4.4722222222222232 4.354166666666667 3.3541666666666674 3.2361111111111116 18.500000000000004 4.6458333333333348 4.7638888888888902 0.44509871288111813 0.27458452429010222 22.500000000000004 12.500000000000002 142.50000000000003
decision_type=2 2 2 2 2 2 2 2 2 2 2 2 2 2 2 2 2 2 2 2 2 2 2 2 2 2 2 2 2 2
left_child=5 10 3 4 7 6 14 8 20 -5 11 -2 -7 16 -1 -8 -14 18 19 -11 21 -3 -6 -19 25 -25 -24 28 29 -28
right_child=1 2 -4 9 22 12 15 -9 -10 17 -12 -13 13 -15 -16 -17 -18 23 -20 -21 -22 -23 26 24 -26 -27 27 -29 -30 -31
leaf_value=-0.011840992718442257 0.015543250112293816 0.053836634010180753 0.015621843715708817 0.05390682408736739 0.0032180400712666247 -0.00090778162515379318 -0.020712951346442583 0.049041470690508293 0.023819112614087271 0.038814676424591243 0.0080468124267455126 0.048143048435158514 -0.0041445110135953428 -0.013589047272762601 -0.015698151443546093 -0.034247243114834874 -0.025178979090630119 0.057570558741496393 0.032070236509210613 0.055893141348959147 0.058394934655707789 0.034701901558892995 0.03440271211974695 0.051632675593283467 0.055445542120745595 0.036114268623159099 0.010941102526034568 -0.0011583130377358769 0.026367471561314283 0.025043669984161028
leaf_weight=1101.6112459348515 100.08573419228196 28.555245488882065 340.13265200518072 173.22918456792831 19.093025948852301 240.56935022957623 1052.9347993731499 240.67550276964903 97.861836323514581 103.16437289863825 215.74352342449129 16.950696336105466 352.70995621196926 281.02823229134083 1922.0040467949584 59.839744986966252 22.228495474904776 62.869394794106483 128.55764579214156 85.91602174565196 26.693867456167936 68.445449406281114 41.124705836176872 41.256948620080948 54.672667913138866 83.300166208297014 99.547983001917601 18.16839993186295 216.5812494661659 71.67859310656786
leaf_count=12662 962 121 2731 975 123 3463 21829 1256 665 517 2285 100 4938 3981 25476 1583 338 374 808 465 135 423 246 219 330 477 616 126 1332 444
internal_value=1.44304e-11 0.0313299 0.0344866 0.0383488 0.0319417 -0.014531 -0.0162158 0.0424145 0.0352157 0.0464644 0.0123438 0.0202648 -0.006758 -0.00890351 -0.0142929 -0.0214408 -0.00539155 0.0441611 0.0407045 0.0465749 0.0442323 0.0403348 0.0215579 0.0486962 0.0455833 0.0412544 0.0223411 0.0211193 0.0221629 0.0168447
internal_weight=7367.23 2334.3 2001.52 1661.39 928.426 5032.93 4136.39 462.232 221.556 732.966 332.78 117.036 896.536 655.967 3023.62 1112.77 374.938 559.737 317.638 189.08 123.695 97.0007 466.194 242.099 179.23 124.557 447.101 405.976 387.808 171.227
internal_count=90000 15730 12383 9652 5487 74270 61550 2600 1344 4165 3347 1062 12720 9257 38138 23412 5276 3190 1790 982 679 544 2887 1400 1026 696 2764 2518 2392 1060
is_linear=0
shrinkage=0.05


Tree=23
num_leaves=31
num_cat=0
split_feature=7 7 7 7 7 7 0 7 7 7 7 7 7 6 7 7 7 7 6 6 5 0 2 0 2 2 0 7 7 7
split_gain=1247.03 52.2018 56.9727 34.3083 37.5412 24.2445 14.9132 8.4363 7.04794 5.17996 4.30237 5.87928 4.26997 3.85889 3.07612 2.96377 6.43008 4.73575 2.87261 4.60471 2.85936 2.78122 2.74562 3.00941 2.69077 3.36499 2.5347 2.52287 2.88561 2.46279
threshold=2.0714285714285716 3.0555555555555558 4.9444444444444455 4.0555555555555562 3.9444444444444451 1.0000000180025095e-35 15.500000000000002 3.5277777777777781 3.4722222222222228 1.1000000000000003 2.8819444444444451 2.7638888888888893 4.3095238095238102 0.43508594875348294 3.3541666666666674 4.5277777777777786 4.4722222222222232 4.354166666666667 0.4779412429552638 0.61134508141978461 3.5000000000000004 24.500000000000004 0.7397495318297217 6.5000000000000009 0.71430671098636378 0.76673830921579034 5.5000000000000009 4.6458333333333348 4.7638888888888902 3.8166666666666669
decision_type=2 2 2 2 2 2 2 2 2 2 2 2 2 2 2 2 2 2 2 2 2 2 2 2 2 2 2 2 2 2
left_child=5 10 3 4 7 6 13 8 14 -7 11 26 -5 -1 18 16 17 24 -3 -20 22 -8 -6 -24 -14 -26 -2 -17 -29 -9
right_child=1 2 -4 12 20 9 21 29 -10 -11 -12 -13 15 -15 -16 27 -18 -19 19 -21 -22 -23 23 -25 25 -27 -28 28 -30 -31
leaf_value=-0.012151057432363378 0.027802794549298734 0.048403877874681506 0.015133246616929781 0.053082495922202266 0.046912421539278118 -0.0099709393016051504 -0.021559401307035812 0.045350743231215421 0.02434540344655093 -0.0022326652976621948 0.0080529194793001729 0.057250841695191658 0.050060777921897649 -0.015667902443194062 0.058040765628175388 0.057074002835795203 0.031939420180708979 0.055668220957526861 0.015147478126034114 0.044460334716284945 0.019767535843173208 -0.033165366779989422 0.0018591020566411768 0.033659067651924127 0.0094007041720636786 0.03874325106540441 0.011234294469058451 0.040732209817172606 0.054933585993346516 0.057481899086751158
leaf_weight=1223.7729203272611 34.171122133731842 40.875373968854547 337.97934877686203 164.54840082675219 19.678330212831497 495.12378525547683 620.50213978625834 176.41736060008407 95.542713368311524 383.9739606231451 213.84963201358914 9.7205216288566572 37.43901027739048 2150.9875175235793 25.28145008161664 59.189332745969296 125.08742487058043 81.022999864071608 25.051503797993064 28.799624079838395 403.15950380265713 56.303203452378511 10.949872549623249 23.209994487464428 12.069845413789151 51.294698629528284 71.140582963824272 116.98518435284495 51.523928720504045 54.843214947730303
leaf_count=15344 315 219 2731 975 113 7155 13943 945 665 5565 2285 48 188 30680 135 374 808 465 158 167 2555 1583 71 148 61 268 699 696 330 311
internal_value=-2.88856e-11 0.0306678 0.033789 0.0377225 0.0312889 -0.0141179 -0.0157511 0.0415947 0.0344783 -0.006591 0.0122472 0.0200446 0.0460394 -0.0143926 0.0425454 0.0438715 0.0406649 0.0466677 0.0384099 0.030824 0.0212128 -0.0225249 0.0320357 0.0234657 0.0394333 0.033154 0.0166104 0.0481937 0.0450745 0.0482276
internal_weight=7200.49 2269.83 1940.95 1602.97 903.809 4930.66 4051.57 446.811 215.551 879.098 328.882 115.032 699.161 3374.76 120.008 534.612 306.914 181.827 94.7265 53.8511 456.998 676.805 53.8382 34.1599 100.804 63.3645 105.312 227.698 168.509 231.261
internal_count=90000 15730 12383 9652 5487 74270 61550 2600 1344 12720 3347 1062 4165 46024 679 3190 1790 982 544 325 2887 15526 332 219 517 329 1014 1400 1026 1256
is_linear=0
shrinkage=0.05


Tree=24
num_leaves=31
num_cat=0
split_feature=7 7 7 7 7 7 0 7 7 7 7 7 7 7 4 6 0 7 7 1 5 7 7 7 6 5 0 7 7 4
split_gain=1161.84 49.3587 53.3825 34.8218 35.3148 23.574 15.0506 8.1041 7.05097 4.92353 3.9688 5.7509 3.85331 3.53981 3.46024 3.36987 2.99969 2.9784 2.9847 3.2122 2.57382 2.47188 3.31847 3.20136 2.45893 3.05327 2.43688 2.40434 2.63343 2.43624
threshold=2.0714285714285716 3.0555555555555558 4.9444444444444455 4.0555555555555562 3.9444444444444451 1.0000000180025095e-35 12.500000000000002 3.5277777777777781 3.4722222222222228 1.1000000000000003 2.8819444444444451 2.5277777777777781 4.2361111111111116 2.3666666666666671 131.50000000000003 0.43508594875348294 24.500000000000004 3.3541666666666674 3.3095238095238098 4.5500000000000007 2.5000000000000004 3.8166666666666669 3.6458333333333335 3.6904761904761911 0.38762240493025174 15.500000000000002 18.500000000000004 1.7750000000000001 1.5500000000000003 20.500000000000004
decision_type=2 2 2 2 2 2 2 2 2 2 2 2 2 2 2 2 2 2 2 2 2 2 2 2 2 2 2 2 2 2
left_child=5 10 3 4 7 6 15 8 17 -7 11 13 -5 14 -2 -1 -8 18 -3 -20 -6 22 -9 24 -24 -26 27 28 -11 -29
right_child=1 2 -4 12 20 9 16 21 -10 26 -12 -13 -14 -15 -16 -17 -18 -19 19 -21 -22 -23 23 -25 25 -27 -28 29 -30 -31
leaf_value=-0.01130671178782177 0.040645600575754892 0.045906226912384926 0.015034468441769555 0.054969980314585269 0.033589281192910617 -0.009610408330126094 -0.019931947902494137 0.057582098011144028 0.023544077038986463 0.0048516778114316489 0.0080101162038933929 0.034338487251707073 0.044120474938695503 0.0026527282470358987 0.0024783675363775968 -0.014833422113234849 -0.032059447834052221 0.057728818079316485 0.019736596485384523 0.052485422702584432 0.019640230413357041 0.056981511546114583 0.048177440629817249 0.047368556021317336 0.011537775066314839 0.039386576325835768 -0.012859431852601806 0.01704406521959638 0.037548836712288765 -0.0034514436315153116
leaf_weight=1066.6161226825789 15.495532695204021 51.265890643000603 334.85022791381925 95.52438591234386 35.932262279093266 488.90693856310099 981.47557244729251 37.757520971819758 94.060727948322892 43.872065039351583 212.28527687583119 41.765430983155966 571.18119992502034 45.678440852090716 9.6280962359160167 1855.9952186774462 53.782663889229298 23.831806737929583 30.606333835981786 9.9129151515662652 415.08644554577768 51.79168514534831 15.943785857409237 77.054113196209073 20.500123292207718 18.931076414883137 45.695858627557755 15.325885305181144 7.1635312326252452 268.78848028276116
leaf_count=12662 119 264 2731 621 224 7155 21829 192 665 635 2285 289 3544 570 84 25476 1583 135 226 54 2663 311 90 415 128 120 791 206 86 3847
internal_value=2.45694e-11 0.0300344 0.0331377 0.0370502 0.0305356 -0.0137435 -0.0153814 0.0407586 0.0337095 -0.00629015 0.0120345 0.019624 0.045675 0.010944 0.0260188 -0.0135463 -0.020562 0.0419796 0.0378904 0.0277485 0.0207515 0.047417 0.0445064 0.0407783 0.0316079 0.0249081 -0.0020278 -0.00055097 0.00944116 -0.00234586
internal_weight=7036.71 2209.08 1884.23 1549.38 882.675 4827.62 3957.87 431.656 209.678 869.753 324.853 112.568 666.706 70.8021 25.1236 2922.61 1035.26 115.617 91.7851 40.5192 451.019 221.978 170.187 132.429 55.375 39.4312 380.846 335.15 51.0356 284.114
internal_count=90000 15730 12383 9652 5487 74270 61550 2600 1344 12720 3347 1062 4165 773 203 38138 23412 679 544 280 2887 1256 945 753 338 248 5565 4774 721 4053
is_linear=0
shrinkage=0.05


Tree=25
num_leaves=31
num_cat=0
split_feature=7 7 7 7 7 7 0 7 7 7 7 7 7 6 0 7 7 7 7 7 7 7 6 5 3 3 3 6 2 5
split_gain=1078.8 45.2535 50.0213 32.1299 34.5463 22.0298 13.1654 7.96297 7.07816 4.50219 4.12179 5.79673 4.01196 2.81356 2.70838 2.69549 2.59306 2.42096 2.91358 5.75734 4.14504 3.06129 2.30095 4.48248 3.46894 3.31349 2.7906 2.28047 2.26551 2.26232
threshold=2.0714285714285716 3.0555555555555558 4.9444444444444455 4.0555555555555562 3.9444444444444451 1.0000000180025095e-35 12.500000000000002 3.5277777777777781 3.4722222222222228 1.1000000000000003 2.8819444444444451 2.7638888888888893 4.2361111111111116 0.43508594875348294 24.500000000000004 3.3541666666666674 3.2361111111111116 4.7638888888888902 4.4722222222222232 4.5277777777777786 4.6458333333333348 4.354166666666667 0.44509871288111813 13.500000000000002 0.64496559550700217 0.98383472179134523 0.92666558579420266 0.42112593198498843 0.9269735340980314 1.5000000000000002
decision_type=2 2 2 2 2 2 2 2 2 2 2 2 2 2 2 2 2 2 2 2 2 2 2 2 2 2 2 2 2 2
left_child=5 10 3 4 7 6 13 8 15 -7 11 -2 -5 28 -8 16 -3 18 21 -20 -21 -14 -12 24 -24 26 -25 -11 -1 -6
right_child=1 2 -4 12 29 9 14 -9 -10 27 22 -13 17 -15 -16 -17 -18 -19 19 20 -22 -23 23 25 -26 -27 -28 -29 -30 -31
leaf_value=-0.011741325575156707 0.016444564332779934 0.051504136404809213 0.014781805710424249 0.054539431642959081 0.039518326101235179 -0.0092518544629208443 -0.019224797052224352 0.047156183193783285 0.02306978978650941 0.0049715186113429358 0.015563927726777433 0.057992460912555194 0.042318336688655325 -0.014379657897159299 -0.030981069660676586 0.05727800726429412 0.032476320654976701 0.054077891077485563 0.030351510370161747 0.056307897889332874 0.03930028614648786 0.05478470707939237 -0.034739527541590993 0.012452553601479708 -0.0012560797062231104 0.037027876514945643 -0.010244744245831435 -0.0041473058114904074 -0.0022966598069703629 0.019631834501695675
leaf_weight=981.00445990543813 102.411287445575 25.004450116306543 329.71585262753069 90.255129881203175 14.793565990403293 482.07410052418709 960.6860695630312 211.27563425898552 92.348522482439876 90.467496881261468 67.535783708095551 9.1447105798870307 149.50195829663426 1825.0828491831198 51.622819560114294 22.476659741252661 63.062131608836353 46.529528854414821 117.86149971187115 53.229396879673004 109.56360224448144 73.434019075706601 9.4575053192675096 62.694095938466489 42.477937335148454 10.823228042572735 17.273303173482418 283.16487788967788 67.887968547642231 429.87455029692501
leaf_count=11884 1014 121 2731 621 92 7155 21829 1256 665 1324 733 48 871 25476 1583 135 423 330 808 374 696 465 100 677 469 85 221 4241 778 2795
internal_value=1.57932e-11 0.0293718 0.0324142 0.036292 0.0299714 -0.0133217 -0.0149208 0.0403622 0.0332874 -0.00605896 0.0120818 0.0198504 0.0447688 -0.0131937 -0.0198243 0.0418232 0.0378788 0.0431658 0.0421575 0.0387679 0.0448614 0.0464247 0.00796017 0.00436218 -0.00735346 0.0110639 0.00754984 -0.00193937 -0.01113 0.0202934
internal_weight=6892.73 2150.74 1828.93 1499.21 858.836 4741.99 3886.28 414.167 202.892 855.706 321.818 111.556 640.375 2873.98 1012.31 110.543 88.0666 550.12 503.59 280.654 162.793 222.936 210.262 142.726 51.9354 90.7906 79.9674 373.632 1048.89 444.668
internal_count=90000 15730 12383 9652 5487 74270 61550 2600 1344 12720 3347 1062 4165 38138 23412 679 544 3544 3214 1878 1070 1336 2285 1552 569 983 898 5565 12662 2887
is_linear=0
shrinkage=0.05


Tree=26
num_leaves=31
num_cat=0
split_feature=7 7 7 7 7 7 0 7 7 7 7 7 7 0 2 7 7 6 5 1 0 7 7 2 7 3 4 6 0 6
split_gain=1007.45 39.7578 47.3667 31.4634 32.116 20.9988 11.5021 7.64384 6.96104 4.21323 3.96712 2.99004 5.279 2.741 3.79074 2.6505 2.6324 2.50062 3.85677 4.23142 2.44265 2.33645 2.63247 2.85918 3.22794 2.33891 2.335 2.99158 2.68878 2.38509
threshold=2.0714285714285716 3.0555555555555558 4.9444444444444455 4.0555555555555562 3.9444444444444451 1.0000000180025095e-35 12.500000000000002 3.5277777777777781 3.4722222222222228 1.1000000000000003 4.3095238095238102 2.8819444444444451 2.6904761904761911 1.0000000180025095e-35 0.94964322885126651 3.3541666666666674 4.7638888888888902 0.4779412429552638 21.500000000000004 4.3500000000000005 24.500000000000004 3.8166666666666669 3.6458333333333335 0.92441833429063558 3.6904761904761911 0.8944548978871466 191.50000000000003 0.70121359853180443 16.500000000000004 0.47292896231563319
decision_type=2 2 2 2 2 2 2 2 2 2 2 2 2 2 2 2 2 2 2 2 2 2 2 2 2 2 2 2 2 2
left_child=5 11 3 4 7 6 13 8 15 26 -5 12 -2 14 -1 17 -12 -3 19 -19 -8 22 -9 24 25 -24 27 28 29 -7
right_child=1 2 -4 10 -6 9 20 21 -10 -11 16 -13 -14 -15 -16 -17 -18 18 -20 -21 -22 -23 23 -25 -26 -27 -28 -29 -30 -31
leaf_value=-0.019942480520432154 0.014556140949994037 0.047117855152117305 0.014542675756948379 0.051578187629615184 0.019985530635179438 -0.0015571785866514323 -0.018550503674284891 0.05571221477593466 0.02241666409499327 -0.0017640809060887911 0.040834721142256919 0.0085850159452347946 0.046743168637099965 -0.012422122763868646 0.0092441244813546656 0.057007637422900007 0.053704208513071894 0.0067931815838776534 0.054266470245489619 0.041147854983122178 -0.029913640193709193 0.056197589017872453 0.04094979626103229 0.013224639261784663 0.049189524094022302 0.017798946717933591 -0.023328775643334316 0.001968768391159296 -0.017300004414308564 -0.010851264523032518
leaf_weight=200.82831401890144 94.467554586008191 36.861421409994364 326.44651663303375 141.44443582370877 438.74090149439871 109.71301334910095 943.89738568244502 34.191498383879662 91.132648054510355 368.35583322588354 427.60637056268752 197.39440875779837 14.724424308165906 2614.4627464767545 11.777317795902489 21.306733097881079 43.80514707788825 20.620697166770697 12.135066749528049 15.854236938059328 49.788518471177667 46.628651425242424 28.208605051040649 9.2068567052483541 67.147209573537111 17.790499890223145 26.433517114259303 64.050198191776872 89.393515329807997 186.15099111199379
leaf_count=4812 962 219 2731 975 2887 1680 21829 192 665 5565 2860 2285 100 33174 152 135 330 148 79 98 1583 311 185 61 390 117 418 938 1273 2846
internal_value=8.76569e-12 0.0288871 0.0317527 0.0356202 0.0293342 -0.0129158 -0.0144925 0.0395606 0.0325669 -0.0057786 0.0442341 0.0122575 0.0188965 -0.0128661 -0.0183257 0.0412299 0.0420306 0.0372968 0.0298493 0.0217258 -0.0191199 0.0463732 0.0434468 0.0400193 0.0421996 0.031996 -0.00888695 -0.00803731 -0.00970085 -0.00740481
internal_weight=6750.57 2085.71 1779.13 1452.68 839.825 4664.85 3820.75 401.084 197.911 844.097 612.856 306.586 109.192 2827.07 212.606 106.778 471.412 85.4714 48.61 36.4749 993.686 203.173 156.545 122.353 113.146 45.9991 475.741 449.308 385.258 295.864
internal_count=90000 15730 12383 9652 5487 74270 61550 2600 1344 12720 4165 3347 1062 38138 4964 679 3190 544 325 246 23412 1256 945 753 692 302 7155 6737 5799 4526
is_linear=0
shrinkage=0.05


Tree=27
num_leaves=31
num_cat=0
split_feature=7 7 7 7 7 7 0 7 7 7 7 7 7 6 7 7 7 6 6 4 3 6 3 4 0 2 2 3 2 0
split_gain=928.644 36.7005 44.5035 28.4192 31.3927 18.7143 10.3949 7.42517 7.51471 4.10012 3.99927 2.87957 5.02978 2.73766 2.70702 2.28886 2.6054 2.28793 5.33564 2.6387 2.26521 3.55308 2.85715 2.64313 2.2608 2.24582 2.19946 2.19079 2.16806 2.1583
threshold=2.0714285714285716 3.0555555555555558 4.9444444444444455 4.0555555555555562 3.9444444444444451 1.0000000180025095e-35 12.500000000000002 3.5277777777777781 3.4722222222222228 1.1000000000000003 4.3095238095238102 2.8819444444444451 2.7638888888888893 0.43508594875348294 4.7638888888888902 3.3541666666666674 3.2361111111111116 0.59502367456795413 0.42112593198498843 122.50000000000001 0.86193340400491958 0.27458452429010222 0.83639310898021424 25.500000000000004 24.500000000000004 0.47724016727908608 0.48273822899774982 0.19937247915521503 0.93426353200235424 20.500000000000004
decision_type=2 2 2 2 2 2 2 2 2 2 2 2 2 2 2 2 2 2 2 2 2 2 2 2 2 2 2 2 2 2
left_child=5 11 3 4 7 6 13 8 15 -7 26 12 -2 28 25 16 -3 18 -10 -20 22 -22 -6 -23 -8 -12 -5 -15 -1 -11
right_child=1 2 -4 10 20 9 24 -9 17 29 14 -13 -14 27 -16 -17 -18 -19 19 -21 21 23 -24 -25 -26 -27 -28 -29 -30 -31
leaf_value=-0.010730880344371786 0.015608792678709002 0.05208595646535219 0.014274632302804798 0.028320023664436356 0.021078919876616267 -0.0086754593481075584 -0.017760417912028627 0.046161883911644642 0.03441619279528297 -0.00052804867573155517 0.05210528803428284 0.0085078606887231869 0.05649403049490085 -0.026376274554075815 0.053289871208344067 0.056629761403505591 0.03225587815120378 0.031440898909635411 -0.010275719611051379 0.018735226574532023 0.03840421450598433 -0.01375179951814144 0.038920975858427242 0.015213875512839368 -0.028891651992771557 0.038711013059914222 0.052705986315655387 -0.013261606973231558 0.00088529193735580828 -0.015512217550985455
leaf_weight=978.01296684984118 98.726985100656748 23.019922818988562 321.87203962635249 9.9932406935840827 196.82899265736341 467.948501419276 929.9927535764873 193.0964024849236 21.432027667760849 337.34023108892143 34.124464362859726 194.52417488675565 8.1428226921707374 32.431185459718108 41.027208747342229 20.134150587022305 59.062612416222692 35.834446433931589 18.259443230926994 13.733008809387682 16.134368766099215 8.2261529974639398 25.324899483472109 184.87920836824924 47.968678313773125 377.45555418543518 123.74031878262758 1758.6077394019812 41.888905457220972 25.875163759104908
leaf_count=12191 1014 121 2731 73 1342 7155 21829 1256 171 5085 237 2285 48 475 330 135 423 261 123 110 101 67 161 1216 1583 2623 902 25001 471 480
internal_value=1.22744e-11 0.0282278 0.0310417 0.0348902 0.0288564 -0.0123759 -0.0138663 0.0392435 0.0322666 -0.00558155 0.043287 0.0121303 0.018724 -0.0123216 0.0410424 0.0415228 0.0378172 0.0216666 0.0151105 0.00217745 0.0195966 0.0158633 0.0231129 0.01398 -0.0183064 0.0398215 0.0508837 -0.0134991 -0.0102538 -0.00159551
internal_weight=6645.64 2025.57 1724.18 1402.31 815.966 4620.07 3788.9 384.572 191.476 831.164 586.341 301.394 106.87 2810.94 452.607 102.217 82.0825 89.2589 53.4245 31.9925 431.394 209.24 222.154 193.105 977.961 411.58 133.734 1791.04 1019.9 363.215
internal_count=90000 15730 12383 9652 5487 74270 61550 2600 1344 12720 4165 3347 1062 38138 3190 679 544 665 404 233 2887 1384 1503 1283 23412 2860 975 25476 12662 5565
is_linear=0
shrinkage=0.05


Tree=28
num_leaves=31
num_cat=0
split_feature=7 7 7 7 7 7 0 7 1 7 7 6 6 2 0 4 6 0 6 1 6 5 0 2 0 3 2 4 5 6
split_gain=866.863 34.8494 42.8272 26.3474 30.0223 17.9408 8.88733 6.43551 5.50591 4.29072 3.84007 3.33073 5.13589 6.21902 4.43226 2.66936 3.4161 4.21412 3.02473 2.80796 2.5936 3.06761 2.51545 2.54446 2.46192 3.91762 2.43869 2.25836 2.2167 2.17998
threshold=2.0714285714285716 3.0555555555555558 4.9444444444444455 4.0555555555555562 3.9444444444444451 1.0000000180025095e-35 12.500000000000002 3.6904761904761911 4.8500000000000005 4.2361111111111116 1.1000000000000003 0.44087670505257787 0.61924971611861113 0.48273822899774982 17.500000000000004 176.50000000000003 0.67899509868105523 14.500000000000002 0.48101077426759098 4.4500000000000011 0.56147295920018514 15.500000000000002 1.0000000180025095e-35 0.94964322885126651 14.500000000000002 0.94411272697960269 0.89491922040165095 121.50000000000001 8.5000000000000018 0.44509871288111813
decision_type=2 2 2 2 2 2 2 2 2 2 2 2 2 2 2 2 2 2 2 2 2 2 2 2 2 2 2 2 2 2
left_child=5 15 3 4 7 6 22 8 11 -5 -7 -3 13 -13 -15 16 17 -2 -17 28 -11 24 23 -1 -22 -26 -23 -18 -20 -12
right_child=1 2 -4 9 -6 10 -8 -9 -10 20 29 12 -14 14 -16 18 27 -19 19 -21 21 26 -24 -25 25 -27 -28 -29 -30 -31
leaf_value=-0.018774427549203943 0.015334717938889651 0.044417058118476134 0.014005486691578223 0.053721537763388331 0.019375799676198034 -0.0083354490552355609 -0.017622900893990472 0.049216151616338494 0.0054947046878872918 0.044306343154941821 0.0047534861877058764 -0.020402721251456077 0.04200731667260383 0.032825122608830123 -0.00056130045664492991 0.025372538385274115 0.012517679611618183 -0.0006349661721859692 -0.040893469283142997 0.015200821140918759 0.034004570112944874 0.038492579376293565 -0.011617495155821819 0.0052402223405771603 0.033088191523851403 -0.012690459902531887 0.056942101476404085 0.034687659726685027 -0.0065006433446578513 -0.0038909914243759045
leaf_weight=191.78894714266062 152.82941796211526 86.074520993046463 319.33688333071768 75.523500107228756 422.50535841472447 462.16450812853873 961.91804316267371 106.97055062931031 15.230421425774692 261.27441976219416 101.71322387922555 7.1972869858145705 73.709022224880755 69.979411918669939 11.586856273934243 9.0199325345456582 19.139908028766513 56.612307263538241 6.8856721799820724 9.4477203190326673 52.86317241564393 133.50658837985247 2560.084541243501 11.703255308791993 10.656406216323377 8.3239486031234247 20.686553368344903 28.728338059037924 14.659077886492012 257.73448592517525
leaf_count=4812 1678 586 2731 621 2887 7155 23412 726 109 1916 1561 60 530 499 90 99 218 682 90 96 375 987 33174 152 80 46 140 291 193 4004
internal_value=-1.89693e-11 0.0276795 0.030479 0.0343583 0.0284877 -0.0120087 -0.0134836 0.0388717 0.0346766 0.0426322 -0.00532088 0.0364648 0.0322519 0.0241511 0.0280824 0.0119041 0.0137723 0.0110181 -0.000109985 -0.00752632 0.0409135 0.0369918 -0.0120428 -0.0173933 0.0284585 0.0130117 0.0409678 0.0258231 -0.0174925 -0.00144486
internal_weight=6519.85 1972.75 1675.42 1356.09 793.253 4547.11 3725.49 370.748 263.778 562.835 821.612 248.547 162.473 88.7636 81.5663 297.322 257.31 209.442 40.0124 30.9925 487.311 226.037 2763.58 203.492 71.8435 18.9804 154.193 47.8682 21.5448 359.448
internal_count=90000 15730 12383 9652 5487 74270 61550 2600 1874 4165 12720 1765 1179 649 589 3347 2869 2360 478 379 3544 1628 38138 4964 501 126 1127 509 283 5565
is_linear=0
shrinkage=0.05


Tree=29
num_leaves=31
num_cat=0
