tree
version=v4
num_class=1
num_tree_per_iteration=1
label_index=0
max_feature_idx=6
objective=lambdarank
feature_names=watch_hist_cnt athlete_rating total_likes videos_count workout_recommendations years_experience static_score
feature_infos=[0:42] [3:5] [0:1] [0:0.99999999999999978] [10:199] [1:24] [0.077743625443174244:0.93869214078016072]
tree_sizes=3556 3566 3548 3590 3583 3581 3563 3576 3580 3606 3569 3565 3587 3574 3554 3597 3578 3565 3546 3593 3560 3569 3574 3565 3556 3567 3569 3557 3573 3579 3551 3587 3591 3586 3574 3585 3589 3581 3567 3584 3560 3555 3561 3549 3571 3577 3549 3585 3535 3563 3567 3571 3574 3542 3533 3561 3541 3545 3528 3562 3566 3567 3522 3599 3519 3518 3525 3550 3542 3526 3503 3507

Tree=0
num_leaves=31
num_cat=0
split_feature=0 0 0 0 0 0 0 0 4 4 6 6 2 3 4 4 6 6 5 3 6 4 3 1 4 3 0 3 2 2
split_gain=1448.95 1529.08 189.11 165.013 92.7333 46.6345 35.6375 18.8245 14.0765 22.1394 18.2712 18.2404 22.6937 20.3621 21.4795 15.1356 14.9996 26.7991 18.7309 14.3815 13.7379 13.3369 12.9473 11.0628 10.9096 11.1937 10.16 9.75804 12.1 11.0264
threshold=1.0000000180025095e-35 18.500000000000004 15.500000000000002 22.500000000000004 3.5000000000000004 12.500000000000002 27.500000000000004 20.500000000000004 186.50000000000003 176.50000000000003 0.45967649888319728 0.72280871459738461 0.71319818929369949 0.36005915420316303 66.500000000000014 152.50000000000003 0.64052696669871956 0.75689426786508762 13.500000000000002 0.95868672597428417 0.70744100363761719 153.50000000000003 0.80331969732376995 3.2500000000000004 146.50000000000003 0.14688304903247354 5.5000000000000009 0.76456548213228592 0.75768251681313648 0.65978350384164064
decision_type=2 2 2 2 2 2 2 2 2 2 2 2 2 2 2 2 2 2 2 2 2 2 2 2 2 2 2 2 2 2
left_child=8 2 4 7 -2 20 -5 -3 9 10 19 12 13 14 -12 -14 18 -18 -11 24 23 -13 27 -6 25 -1 -25 28 29 -22
right_child=1 3 -4 6 5 -7 -8 -9 -10 16 11 21 15 -15 -16 -17 17 -19 -20 -21 22 -23 -24 26 -26 -27 -28 -29 -30 -31
leaf_value=0.0062619952484449393 0.0041326399990458092 -0.0076883427861038928 -0.0011080492128054777 -0.021117999782897207 0.01146235663895807 0.0053826912578068204 -0.034866754460658199 -0.013091087692354562 -0.0061066973758504769 -0.017926143190381785 0.012207781940524621 -0.0044363960326950086 -0.011646390675803996 -0.01722906856152066 -0.011778116316709138 -0.0051920582318161976 -0.00057996031982696908 -0.019840136590468738 -0.040183758217517802 -0.013268168547915829 0.010896484413722367 -0.011933224275696763 0.013961085636592627 0.0067752009274466389 -0.0020344920837096951 -0.0085719402528472814 0.0091774457579617535 -0.00039318989449004703 0.020360643050778324 0.00057175977919556096
leaf_weight=129.90353312902153 17339.420441661729 3881.2682935196208 7769.1425473612035 2995.2837546223309 3824.7500821389258 9294.4017396510462 559.34097573626786 2757.8446941291913 1774.1336544556543 833.33039494976401 115.88716545514762 1435.8847966659814 6332.6110214795917 3011.2692313389853 479.65181099437177 1060.4186777723953 337.63320791348815 388.34526749420911 106.61713899672031 1306.3513952000067 1001.4290046896785 1010.9280508607626 2916.1795204950031 5929.5665984745137 793.97256543207914 6054.6758214673027 17079.663391997572 258.64492759853601 242.51244593411684 348.61158466106281
leaf_count=694 235722 97171 192814 76516 88123 230710 14495 69321 9948 4909 582 7877 36423 17794 2749 5903 1862 2325 701 7590 23136 5776 65586 121043 4358 34413 421109 6522 5199 8629
internal_value=-4.11217e-12 0.00343578 0.0062193 -0.0145874 0.00719684 0.00849603 -0.0232814 -0.00993261 -0.0104006 -0.0107262 -0.0103004 -0.0114384 -0.0123069 -0.0155584 -0.00711065 -0.0107206 -0.0162812 -0.0108827 -0.0204508 -0.00845334 0.00941171 -0.00753379 0.011885 0.00897229 -0.00755202 -0.00826036 0.00855838 0.00861463 0.0100776 0.0082304
internal_weight=101370 76198.1 66004.3 10193.7 58235.2 40895.8 3554.62 6639.11 25171.6 23397.5 21731.6 13446.7 10999.8 3606.81 595.539 7393.03 1665.93 725.978 939.948 8284.9 31601.4 2446.81 4767.38 26834 6978.55 6184.58 23009.2 1851.2 1592.55 1350.04
internal_count=1800000 1656096 1398593 257503 1205779 970057 91011 166492 143904 133956 124159 77104 63451 21125 3331 42326 9797 4187 5610 47055 739347 13653 109072 630275 39465 35107 542152 43486 36964 31765
is_linear=0
shrinkage=0.05


Tree=1
num_leaves=31
num_cat=0
split_feature=0 0 6 1 0 0 0 0 3 0 0 1 0 6 0 4 5 2 1 2 5 2 5 2 2 5 3 6 4 4
split_gain=2166.5 982.875 996.94 1233.96 580.487 539.679 683.878 420.404 386.645 300.612 197.565 99.777 84.1918 82.4925 81.5919 65.5505 93.4343 104.661 59.6461 59.146 86.2455 55.8851 55.6383 60.7275 77.1594 87.0945 72.2944 51.6175 50.6874 46.4817
threshold=3.5000000000000004 19.500000000000004 0.71005739817721114 3.2500000000000004 12.500000000000002 5.5000000000000009 7.5000000000000009 12.500000000000002 0.82589714867351383 16.500000000000004 23.500000000000004 4.0500000000000007 8.5000000000000018 0.70121359853180187 13.500000000000002 175.50000000000003 20.500000000000004 0.50037508468448344 4.4500000000000011 0.96353981067614536 18.500000000000004 0.92065677459666484 19.500000000000004 0.86060717213884774 0.86637014984140015 22.500000000000004 0.96563594023744104 0.59124786678522445 93.500000000000014 194.50000000000003
decision_type=2 2 2 2 2 2 2 2 2 2 2 2 2 2 2 2 2 2 2 2 2 2 2 2 2 2 2 2 2 2
left_child=-1 2 3 7 8 -5 -7 13 18 12 -3 21 -8 15 -14 16 -2 -18 -4 20 -13 -10 -22 -24 -25 26 -26 -19 -29 -17
right_child=1 10 4 5 -6 6 9 -9 11 -11 -12 19 14 -15 -16 29 17 27 -20 -21 22 -23 23 24 25 -27 -28 28 -30 -31
leaf_value=0.0092762448456372125 -0.0060848557107217021 -0.0094687562069752096 0.00056236002106381587 0.0099016223305652736 0.0046063586183449409 -0.0039014613898250457 0.0012407271205856858 0.0041305352699258736 -0.0037121848757846508 -0.0029325946236506374 -0.020879088717965767 -0.017501539621252424 0.0060753815557330702 0.0221287440381992 0.0026702939296114709 -0.014575796941394751 0.0075370351734230165 -0.018584449956494983 -0.005733508284975937 0.0017801721156411405 -0.0040723525203481027 -0.014599563774080924 -0.0097997267781103521 -0.028750718741581634 -0.020156407122226466 -6.4837925628719753e-05 -0.0093719716342262633 0.0012838973306577952 -0.013189376218563469 -0.0057259549814361148
leaf_weight=53800.415702926461 27066.558286737651 13373.839000768494 9537.277369950898 21921.535380652174 10027.799635995179 42521.123826622963 16868.905656171963 8182.3516467111185 5722.827652528882 15812.575337059796 5295.829813985154 7431.5795940086246 61613.475448365323 222.46709991246462 24623.372448147275 6154.5073243454099 603.10720736533403 3374.3696942776442 6212.3709007315338 708.82494597882032 2388.1416649371386 1484.3815554231405 11603.170637384057 956.03268088400364 3853.1414124667645 1017.0007665529847 2604.3454541862011 784.98855999857187 2637.2975759729743 1955.0336104854941
leaf_count=379626 55083 139172 27848 121639 68877 121665 60692 56411 8998 128892 66320 12389 299216 361 162886 13154 1087 7362 17209 1057 3735 2488 18821 1673 6529 1531 4203 1511 5623 3942
internal_value=9.54711e-12 -0.00157654 -0.000879054 0.000627206 -0.00643368 0.00254034 0.00154077 -0.00625371 -0.00850224 0.00348672 -0.0127054 -0.0112466 0.0044712 -0.00823902 0.00510312 -0.00839769 -0.00744604 -0.0124249 -0.00192101 -0.0124946 -0.0128335 -0.00595453 -0.0112863 -0.0121462 -0.0153758 -0.0136651 -0.015807 -0.0141963 -0.00986956 -0.0124423
internal_weight=370359 316558 297889 234342 63546.9 183361 161439 50980.7 53519.1 118918 18669.7 37769.4 103106 42798.3 86236.8 42575.9 34466.3 7399.76 15749.6 30562.2 29853.4 7207.21 22421.8 20033.7 8430.52 7474.49 6457.49 6796.66 3422.29 8109.54
internal_count=1800000 1420374 1214882 1039524 175358 894990 773351 144534 106481 651686 205492 61424 522794 88123 462102 87762 70666 15583 45057 49938 48881 11486 36492 32757 13936 12263 10732 14496 7134 17096
is_linear=0
shrinkage=0.05


Tree=2
num_leaves=31
num_cat=0
split_feature=6 0 0 0 1 0 1 0 0 0 1 0 3 5 0 3 0 6 0 0 0 0 0 3 3 2 0 3 3 3
split_gain=2552.91 2488.71 4922.82 2411.24 1733.12 943.671 880.108 644.748 502.233 259.665 398.697 206.004 148.753 111.98 110.165 102.813 79.9543 78.767 78.0815 74.7534 73.3073 80.1827 60.0269 56.8575 55.8953 56.6569 55.0805 49.1729 62.9445 35.5627
threshold=0.71005739817721114 3.5000000000000004 5.5000000000000009 8.5000000000000018 3.2500000000000004 10.500000000000002 3.2500000000000004 19.500000000000004 17.500000000000004 12.500000000000002 3.2500000000000004 15.500000000000002 0.80331969732376995 18.500000000000004 24.500000000000004 0.66868706990897464 1.0000000180025095e-35 0.7370579394907365 4.5000000000000009 2.5000000000000004 13.500000000000002 3.5000000000000004 6.5000000000000009 0.38881605905798289 0.44788677426177081 0.49701279010361737 23.500000000000004 0.91280126488062108 0.92224451344601943 0.8585775070758852
decision_type=2 2 2 2 2 2 2 2 2 2 2 2 2 2 2 2 2 2 2 2 2 2 2 2 2 2 2 2 2 2
left_child=1 16 4 22 -3 6 23 9 12 10 -7 -11 15 27 -9 17 -1 -2 -6 -18 21 -15 -4 -5 -19 -26 -10 -14 -29 -8
right_child=8 2 3 5 18 7 29 14 26 11 -12 -13 13 20 -16 -17 19 24 -20 -21 -22 -23 -24 -25 25 -27 -28 28 -30 -31
leaf_value=0.010881313539775827 0.022022840607472942 0.022917937139045011 0.016228842872302366 -0.00037694841487458477 -0.017445792084193293 0.016974708873325466 -0.010612224258795773 -0.0076177837848380977 -0.0024648476210650892 0.0069793310136546981 -0.0025757115006882114 0.00088021099085826152 -0.0010515799151387089 0.01460696385697606 -0.019650833378612856 0.0047553777760604814 0.005214117748488574 0.0026988771960036596 -0.014133753047128984 0.0095950503709743267 0.011108688547241834 0.022381719754236428 0.011617438568699703 0.021333144345870924 0.024383238716736304 0.010672354700163887 -0.019306458345736164 0.036730181802432586 0.010133019124383271 -0.0078398539755353391
leaf_weight=15431.166137444321 1984.446896199137 2985.5530884228647 10270.193514975719 340.74469119310379 39665.442187406123 2827.781647128053 23775.074075175449 10065.540164187085 3530.278966656886 32269.244651569985 33518.315081752837 24247.721233363263 921.20646990742534 5176.3521030824631 2345.2808695416898 6018.60949694179 28848.557099170983 1651.8445585798472 32273.864497980103 14698.473645388149 3097.0988918431103 9228.5537757547572 22555.924234678037 2623.9301563566551 938.23352749459445 3825.9653233801946 562.88673776201904 238.25125329941511 3353.4885454629548 22527.722375670448
leaf_count=122258 10445 19653 70950 1539 60603 19064 62577 135431 36093 197404 119390 209254 7209 26950 40140 34182 130467 10893 61036 70918 19636 56567 141020 18254 4957 23203 9786 1321 20020 58780
internal_value=3.64822e-12 -0.00149174 -0.00357851 0.000753105 -0.0144107 -0.00186104 -0.00757238 0.000811828 0.0118254 0.00224231 -0.00105466 0.0043626 0.0136911 0.0162766 -0.00989168 0.00974342 0.0077887 0.0133171 -0.0159599 0.00669282 0.0180874 0.0195879 0.0130602 0.0188379 0.0106245 0.0133725 -0.00478088 0.0092541 0.0118973 -0.00926338
internal_weight=361798 321271 262292 187367 74924.9 154541 49267.5 105274 40527.2 92863.1 36346.1 56517 36434.1 22015 12410.8 14419.1 58978.2 8400.49 71939.3 43547 17502 14404.9 32826.1 2964.67 6416.04 4764.2 4093.17 4512.95 3591.74 46302.8
internal_count=1800000 1538738 1215095 1073803 141292 861833 141150 720683 261262 545112 138454 406658 215383 131703 175571 83680 323643 49498 121639 201385 103153 83517 211970 19793 39053 28160 45879 28550 21341 121357
is_linear=0
shrinkage=0.05


Tree=3
num_leaves=31
num_cat=0
split_feature=0 6 0 0 1 0 0 0 0 0 0 0 0 0 0 3 3 5 0 5 4 0 4 4 4 4 3 4 6 6
split_gain=805.787 402.079 222.896 934.02 229.834 508.069 224.435 576.879 192.859 297.083 138.638 131.736 135.666 127.869 93.5455 74.0399 116.312 71.4566 61.5162 60.4613 59.6044 55.4308 48.8221 46.0109 149.099 87.4653 75.8186 63.5077 63.3464 60.0499
threshold=18.500000000000004 0.71005739817721114 2.5000000000000004 3.5000000000000004 3.2500000000000004 5.5000000000000009 8.5000000000000018 12.500000000000002 7.5000000000000009 6.5000000000000009 1.0000000180025095e-35 5.5000000000000009 8.5000000000000018 22.500000000000004 12.500000000000002 0.98383472179134523 0.99658271073196403 20.500000000000004 6.5000000000000009 18.500000000000004 148.50000000000003 16.500000000000004 197.50000000000003 153.50000000000003 134.50000000000003 169.50000000000003 0.8987412668440149 176.50000000000003 0.79897578102987443 0.78072234295356602
decision_type=2 2 2 2 2 2 2 2 2 2 2 2 2 2 2 2 2 2 2 2 2 2 2 2 2 2 2 2 2 2
left_child=1 2 -1 -4 11 -6 8 -8 9 -7 -3 17 18 -2 -14 19 20 -5 -13 22 -17 -9 -12 24 28 26 29 -27 -21 -25
right_child=13 10 3 4 5 6 7 21 -10 -11 15 12 14 -15 -16 16 -18 -19 -20 23 -22 -23 -24 25 -26 27 -28 -29 -30 -31
leaf_value=0.0045318104623338863 -0.0076684413941511438 0.0058819184604704837 -0.0075541190767552313 -0.0082207486787312881 0.011716298656226282 -0.002353594560857957 0.0083954355556295716 0.00083679921655473036 -0.0045575014914092373 0.0080574202448636962 0.002842124531401446 0.00071989716678790667 -0.0041385974704350103 -0.017069196661952297 0.0027247734118732549 -0.021504931703494965 0.00059642300515508979 0.0059441419306669047 0.010699587419496254 -0.0056099386485181889 -0.0091183954178066535 -0.0033557923413244637 -0.014439430148339663 -0.012857148068503535 0.0040137065120968802 0.0020013671580611301 -0.020897486938369205 -0.0047253749778544277 0.0019272892238042238 -0.0025487841382293968
leaf_weight=48552.663338511251 13255.030312932562 4354.8241820409894 29031.831586368382 8063.2591852173209 14987.555291730445 16757.341094216332 35405.290686624125 36855.191193958744 19489.793476810679 11592.537804309279 6368.4712803959846 2592.4016920458525 13568.388791460544 4974.914285753388 7829.4040808267891 1255.1243860349059 2788.9404038004577 1000.8530395757407 3818.9278532490134 15298.676926169544 4293.7545547448099 10028.894071489573 436.71216508559883 2561.4294980857521 7742.7221470046788 4720.0051710326225 1221.1629633624107 13673.383274251595 3408.7832892537117 3150.4028593730181
leaf_count=252725 166492 21646 70918 16076 121639 61124 240747 221355 60692 60541 27249 9826 38857 91011 50179 3663 6785 3577 19787 43333 12650 90706 2221 6532 21015 13957 3966 39102 7757 13872
internal_value=-1.75889e-11 0.000563893 0.00147726 0.000774461 0.00210307 0.00299875 0.00199471 0.00357796 -0.000728659 0.00190357 -0.00276251 -0.00142191 0.000284312 -0.0102339 -0.00162731 -0.00332505 -0.00773345 -0.00665667 0.00666433 -0.00269761 -0.0119202 -6.00308e-05 0.00173311 -0.00327996 -0.00182146 -0.00480317 -0.00958916 -0.0029992 -0.00423654 -0.00717149
internal_weight=349079 330849 259574 211022 181990 145117 130129 82289.4 47839.7 28349.9 71274.4 36873.2 27809.1 18229.9 21397.8 66919.6 8337.82 9064.11 6411.33 58581.7 5548.88 46884.1 6805.18 51776.6 26450.2 25326.4 6933 18393.4 18707.5 5711.83
internal_count=1800000 1542497 1318749 1066024 995106 856804 735165 552808 182357 121665 223748 138302 118649 257503 89036 202102 23098 19653 29613 179004 16313 312061 29470 149534 72105 77429 24370 53059 51090 20404
is_linear=0
shrinkage=0.05


Tree=4
num_leaves=31
num_cat=0
split_feature=0 0 0 0 0 0 6 1 6 6 6 6 0 1 0 0 4 6 0 6 0 0 6 4 2 4 2 5 5 2
split_gain=461.928 338.534 848.541 1248.41 611.14 451.403 255.5 252.232 220.289 210.192 191.394 162.286 103.198 91.0122 82.3789 77.9348 61.053 41.3054 45.0273 41.6743 39.6527 50.4781 38.0852 62.806 37.0565 34.6162 33.3955 30.0262 28.8484 28.8154
threshold=19.500000000000004 2.5000000000000004 6.5000000000000009 7.5000000000000009 1.0000000180025095e-35 10.500000000000002 0.69325515331221899 3.2500000000000004 0.69863563443417243 0.72026905073616221 0.72026905073616221 0.71005739817721114 8.5000000000000018 3.2500000000000004 24.500000000000004 3.5000000000000004 120.50000000000001 0.54087358183363066 12.500000000000002 0.61106248157365461 13.500000000000002 16.500000000000004 0.78825078480482669 189.50000000000003 0.57587948150592227 185.50000000000003 0.71495845058413998 9.5000000000000018 17.500000000000004 0.78407873266302852
decision_type=2 2 2 2 2 2 2 2 2 2 2 2 2 2 2 2 2 2 2 2 2 2 2 2 2 2 2 2 2 2
left_child=1 4 6 10 9 7 15 12 -9 -1 -4 -6 -5 17 -2 -3 -11 18 -7 -19 -15 25 23 28 -8 -22 -21 -20 -13 -28
right_child=14 2 3 5 11 13 24 8 -10 16 -12 22 -14 20 -16 -17 -18 19 27 26 21 -23 -24 -25 -26 -27 29 -29 -30 -31
leaf_value=0.0059829838387918362 -0.008137000958861584 0.011616059630363627 -0.0098612378880902681 -0.0071051607035906407 -0.0067525954780574271 0.010748679318039535 -0.0043113284847567934 0.0093357360873927344 0.0010258438520449804 -0.010912618444007096 0.002516679468244376 -0.0049733324182672468 0.0031043503146171488 -0.0018027554674963572 -0.019458936531947121 0.0068818215337288699 -0.00079288629169495153 -0.0085677739854985082 0.00023334666738402196 -0.0061655007188768027 0.00089897312826798994 -0.0022481757746237382 -0.0027815932084799587 -0.010654749246784997 0.0019056932748111903 0.0073992254105609669 0.021576977844512749 0.0069833809770097552 0.0082571315968821644 0.0037167372414682988
leaf_weight=21064.719548414461 8777.556206502486 11379.810998558067 33600.837029619142 4739.6531406436116 45788.903096582741 2726.8963842596859 2899.0849983878434 29868.562924344093 10880.381296154112 2246.5889725871384 3443.0086814630777 471.83135749958456 5180.5648371735588 51901.697842387017 1966.5859712078236 36819.229620348196 4428.0631712395698 1192.4604253750294 3837.1723609725013 778.69789798930287 28449.908824515529 14095.893627571873 3683.6958116106689 616.12838923186064 13835.281736614183 2207.0215740744025 259.74205760005862 2887.1060528503731 3249.90686513111 1729.9431632515043
leaf_count=123342 158328 68816 70899 10318 130467 14370 9228 178550 37942 4819 11351 1123 20440 211767 47164 206141 15743 8204 24589 3643 181174 153615 9940 1339 46881 12777 1283 17619 9917 8211
internal_value=-9.2583e-12 0.000318625 0.00119219 -0.000436011 -0.00249558 0.00147103 0.00615151 0.00537631 0.00711691 0.00353298 -0.00871078 -0.00560331 -0.00177352 -0.000326767 -0.0102093 0.00799958 -0.00419904 0.00353296 0.00532925 -0.000753274 -0.000862351 0.000228274 0.000957058 0.0041319 0.000828648 0.00136693 0.00261276 0.00313151 0.00657981 0.00604829
internal_weight=355007 344263 262713 197780 81549.8 160736 64933.4 50669.2 40748.9 27739.4 37043.8 53810.5 9920.22 110067 10744.1 48199 6674.65 13412 9451.17 3960.84 96654.5 44752.8 8021.56 4337.87 16734.4 30656.9 2768.38 6724.28 3721.74 1989.69
internal_count=1800000 1594508 1297818 966752 296690 884502 331066 247250 216492 143904 82250 152786 30758 637252 205492 274957 20562 77919 56578 21341 559333 347566 22319 12379 56109 193951 13137 42208 11040 9494
is_linear=0
shrinkage=0.05


Tree=5
num_leaves=31
num_cat=0
split_feature=0 0 0 6 1 0 0 0 0 0 6 0 0 6 6 4 6 0 0 0 6 4 6 0 0 6 0 6 0 3
split_gain=480.99 1536.06 373.899 331.347 252.647 475.256 214.967 410.718 412.874 160.045 246.795 123.941 334.416 117.517 110.915 101.793 101.52 82.7531 90.9866 81.2429 76.5035 75.488 70.582 61.4992 55.7998 53.1604 48.8335 46.7488 45.3024 38.8752
threshold=2.5000000000000004 3.5000000000000004 19.500000000000004 0.69422356295422183 3.2500000000000004 5.5000000000000009 8.5000000000000018 7.5000000000000009 6.5000000000000009 1.0000000180025095e-35 0.69863563443417243 6.5000000000000009 9.5000000000000018 0.69422356295422183 0.72280871459738461 183.50000000000003 0.68916457990728142 12.500000000000002 10.500000000000002 14.500000000000002 0.42900669542459113 146.50000000000003 0.49433079413515985 23.500000000000004 4.5000000000000009 0.69863563443417243 8.5000000000000018 0.73088786618911517 10.500000000000002 0.99124026330220971
decision_type=2 2 2 2 2 2 2 2 2 2 2 2 2 2 2 2 2 2 2 2 2 2 2 2 2 2 2 2 2 2
left_child=9 3 4 -2 11 24 7 8 16 21 -11 29 26 -9 -10 -12 -7 18 -14 28 -20 27 -23 -4 25 -6 -13 -1 -8 -3
right_child=1 2 23 -5 5 6 19 13 14 10 15 12 17 -15 -16 -17 -18 -19 20 -21 -22 22 -24 -25 -26 -27 -28 -29 -30 -31
leaf_value=0.0027469243720220412 -0.012013532811425032 -0.0060340340107420268 -0.0067736149452714113 0.0031865217428551761 0.011861903806162664 -0.0040886499703145758 0.001337401104279488 -0.0081112651708320424 0.011420733945683097 0.0095912388109269022 -0.0026227819886098899 0.012648538474371805 0.0013486958284725248 0.0016019060956607139 0.00083661499285065516 0.014480138351622429 0.0049280563752116284 -0.00061086635285101246 -0.013067131297294421 -0.0002714915520627775 -0.003239118664932498 -0.0077715697724311727 0.00095736373183370196 -0.015910240792640022 0.005563482704858771 0.0046342068658989863 0.0038812477746813859 0.01268998569234972 0.0036575100575371648 -0.019194808650771358
leaf_weight=17534.979861009866 32926.163495240733 12742.832124622539 7114.9789300407283 4023.4774256851524 9811.5324053280056 17828.083392513916 35955.992189766839 21206.902494592592 9778.7354060574435 21185.143011728302 7301.6672305548564 3920.3101611854509 2611.5955576319247 3649.9477162845433 3314.1806303560734 987.67918041348457 3784.4034425523132 10570.804486189969 5215.1933975368738 31455.816238538828 3192.0887713758275 3419.5777593441308 7175.0491551896557 2485.062341417186 15425.606188136153 3434.6446054829285 2670.010551655665 1267.6011050771922 50717.954476444982 586.9578056409955
leaf_count=94347 69074 29116 139172 13862 59387 58830 144369 58970 61204 128218 19997 20434 10245 13153 10930 4571 13982 58232 10351 279594 9336 9669 33479 66320 72635 12868 10195 6409 279739 1312
internal_value=-1.18869e-11 -0.000824967 0.000543159 -0.0103584 0.000918134 0.00163406 0.000670211 -0.00177894 0.00173489 0.00412574 0.0067293 -0.00264107 -0.000761998 -0.006685 0.0087416 -0.000584962 -0.0025098 -0.00377135 -0.00680332 0.0019051 -0.00933562 0.00151534 -0.00186003 -0.00913872 0.00760749 0.00998781 0.00909655 0.00341725 0.00269503 -0.00661355
internal_weight=353295 294423 257474 36949.6 247874 206364 177692 59562.3 34705.4 58871.7 29474.5 41509.8 28180 24856.9 13092.9 8289.35 21612.5 21589.7 11018.9 118130 8407.28 29397.2 10594.6 9600.04 28671.8 13246.2 6590.32 18802.6 86673.9 13329.8
internal_count=1800000 1503310 1420374 82936 1214882 1065661 920771 217069 144946 296690 152786 149221 118793 72123 72134 24568 72812 88164 29932 703702 19687 143904 43148 205492 144890 72255 30629 100756 424108 30428
is_linear=0
shrinkage=0.05


Tree=6
num_leaves=31
num_cat=0
split_feature=0 0 1 6 0 0 0 6 0 6 0 1 0 0 6 5 0 6 5 1 1 3 6 2 3 6 6 3 4 2
split_gain=478.416 2153.84 856.961 514.258 336.469 266.05 301.729 149.985 138.833 153.512 109.567 82.8709 243.905 231.199 111.623 81.2298 74.043 42.4184 41.9984 63.6929 46.3249 46.5946 80.97 43.0051 54.8064 39.5423 39.3965 39.2547 35.7931 33.871
threshold=3.5000000000000004 5.5000000000000009 3.2500000000000004 0.68916457990728142 18.500000000000004 6.5000000000000009 7.5000000000000009 0.68596101358997663 2.5000000000000004 0.69863563443417243 4.5000000000000009 3.2500000000000004 8.5000000000000018 10.500000000000002 0.69325515331221899 20.500000000000004 23.500000000000004 0.72026905073616221 11.500000000000002 4.6500000000000012 4.1500000000000012 0.83732356125504315 0.49433079413515985 0.76534801116674955 0.72853456366528069 0.41172293045278641 0.2398279372555398 0.98040891547522535 13.500000000000002 0.92303615635845015
decision_type=2 2 2 2 2 2 2 2 2 2 2 2 2 2 2 2 2 2 2 2 2 2 2 2 2 2 2 2 2 2
left_child=8 2 15 10 5 7 17 -3 29 -10 -4 13 14 -8 -13 -2 -6 -7 19 20 21 26 25 -20 -25 -23 -14 -22 -26 -1
right_child=1 4 3 -5 16 6 11 -9 9 -11 -12 12 18 -15 -16 -17 -18 -19 23 -21 27 22 -24 24 28 -27 -28 -29 -30 -31
leaf_value=0.0027200702178776718 0.018398685688633998 0.010997562072598735 -0.014422705447278467 0.00064507491496646537 -0.0047375023957735209 -0.0042149972878145047 -0.0053021946846573123 0.00059689637448265894 0.011154033020134771 0.00023089228662580703 -0.009781510998288865 0.012152101970927393 -0.00051459404445950959 0.0046044509445498727 0.001869616165696193 0.003143601786112372 -0.01484116261518427 0.0018048199034218612 -0.00011466694466443942 0.007144849287630004 0.00093323708075444291 0.0013755556452501412 0.012625612100280785 0.01507275621380354 -0.012584973637327841 -0.006254643945568553 0.0068427261806627048 -0.0078879918228915574 0.0022828429646126981 -0.0013508475325638783
leaf_weight=61290.108730341308 2696.8849381264299 11958.316783468239 28921.047842860222 8878.928576182574 10071.986278816126 23593.312662474811 12025.395102153532 4881.1856434224173 10219.113531178329 4693.983046262525 22695.073703223839 9369.312665393576 2173.3855728590861 11542.191955892369 3674.4481057301164 1290.0339196696877 2211.4128578878008 3340.7165471035987 31309.377004615963 8368.2685552872717 12839.387890025973 7535.9210373098031 1373.3689540876076 834.78830017242581 409.47892727330327 2191.8293650764972 11175.401719324291 1398.543753198348 35458.228448841721 5574.2670391444117
leaf_count=272307 16201 67802 58178 27983 191183 70899 30758 15158 69688 13248 58729 58842 14403 71495 13281 4079 66320 11351 177663 48469 78598 44495 6681 4032 2586 13219 69631 8586 189752 24383
internal_value=1.23026e-11 -0.00100747 -0.00899026 -0.01047 0.00147041 0.00197487 0.00140845 0.00798277 0.00335363 0.00771591 -0.012382 0.00227443 0.0027757 -0.000450429 0.00925551 0.0134626 -0.00655649 -0.00346834 0.00204117 0.00318957 0.00233404 0.00365434 0.00126083 0.00124662 0.00240787 -0.000343659 0.00564484 6.67577e-05 0.00211311 0.00238069
internal_weight=353996 272218 64482 60495.1 207736 195453 178613 16839.5 81777.5 14913.1 51616.1 151679 128112 23567.6 13043.8 3986.92 12283.4 26934 115068 47056.1 38687.8 24449.9 11101.1 68011.9 36702.5 9727.75 13348.8 14237.9 35867.7 66864.4
internal_count=1800000 1420374 165170 144890 1255204 997701 914741 82960 379626 82936 116907 832491 730238 102253 72123 20280 257503 82250 658115 284082 235613 148429 64395 374033 196370 57714 84034 87184 192338 296690
is_linear=0
shrinkage=0.05


Tree=7
num_leaves=31
num_cat=0
split_feature=0 0 0 0 6 0 1 6 1 0 0 6 0 1 0 6 1 0 5 1 5 4 5 3 3 3 6 6 6 6
split_gain=365.873 1405.37 567.119 436.314 423.619 328.93 215.18 182.867 139.696 260.173 147.23 108.113 84.8119 75.9478 71.8764 68.6877 63.3749 78.441 59.854 63.3124 55.9765 55.349 51.1674 46.4441 45.085 40.4754 40.3185 39.691 33.4049 32.9777
threshold=5.5000000000000009 6.5000000000000009 7.5000000000000009 8.5000000000000018 0.68774001104185145 17.500000000000004 3.2500000000000004 0.69325515331221899 3.2500000000000004 3.5000000000000004 3.5000000000000004 0.70744100363761719 22.500000000000004 4.6500000000000012 13.500000000000002 0.69863563443417243 3.2500000000000004 10.500000000000002 14.500000000000002 4.1500000000000012 20.500000000000004 121.50000000000001 1.5000000000000002 0.36005915420316303 0.8568806929407472 0.99704132926446787 0.62965766312387073 0.38350904650084577 0.45350238742161814 0.44046253882697695
decision_type=2 2 2 2 2 2 2 2 2 2 2 2 2 2 2 2 2 2 2 2 2 2 2 2 2 2 2 2 2 2
left_child=8 4 11 6 -2 13 -4 -8 9 -1 -10 -3 -7 14 16 -12 17 -5 19 21 -11 24 -15 -24 -18 29 27 -16 -19 -23
right_child=1 2 3 5 -6 12 7 -9 10 20 15 -13 -14 22 26 -17 18 28 -20 -21 -22 25 23 -25 -26 -27 -28 -29 -30 -31
leaf_value=0.0039463226577542984 -0.012025972806096144 0.011986622613801212 0.0086837760135792738 0.012905723160194255 0.004896972045675109 -0.0040471210428390013 -0.0088302788413044814 0.0036009753667446535 0.0019255284662321433 -0.0089142131059548931 0.0081314780964505794 0.0019121949683919199 -0.013184912183148626 -0.015974065529608537 0.0020242479366207335 0.0022973131185709868 -0.0003910104588900617 0.0073335223984046655 0.0045400436636285658 0.0044241018562056816 0.0021640741048333458 0.00039357619716166089 0.0096723598784453756 -0.00082769867533795448 0.0055874496218540383 0.017890155006306679 0.0032493742641587797 -0.0021245562913116411 -1.0160442743659164e-05 -0.0046788430530108711
leaf_weight=10440.974959353916 32684.535317303613 11977.173193872906 2316.1063916590065 3506.8789336206391 4169.7375923153013 13945.769529603887 22784.46392358467 3399.7497291434556 74411.881757068913 8422.5323537364602 17105.903857935686 3424.4289767332375 3104.5994335482828 537.4961178470403 8960.6520177461207 7155.3031706698239 6865.606685468927 3004.8432023283094 23927.902011041529 11576.056877560914 1318.7891627494246 5404.775295978412 1098.8398375650868 25323.277031891048 5832.4728284720331 245.1364314481616 9037.3411021530628 16163.716067668051 3195.159596321173 7870.2465248517692
leaf_count=46081 68069 70042 10318 20440 14891 224907 58842 13281 333545 16201 119288 12208 91011 1890 64263 25602 28389 16500 112229 64614 4079 20583 5754 110971 29339 1278 56914 115179 12893 30399
internal_value=5.40967e-12 -0.00116252 0.000541856 -0.000254144 -0.0101113 0.000826031 -0.00592408 -0.00721621 0.0022531 -0.00153713 0.00302835 0.00974665 -0.00571097 0.0016669 0.00227166 0.00641082 0.00317382 0.00692935 0.0025832 0.0013443 -0.00741442 -1.55161e-05 -0.000701704 -0.000391023 0.00235501 -0.00224191 0.000385331 -0.000644878 0.00354897 -0.00261366
internal_weight=349212 230357 193503 178101 36854.3 149601 28500.3 26184.2 118855 20182.3 98673.1 15401.6 17050.4 132550 105591 24261.2 71429.1 9706.88 61722.2 37794.3 9741.32 26218.2 26959.6 26422.1 12698.1 13520.2 34161.7 25124.4 6200 13275
internal_count=1800000 1255204 1172244 1089994 82960 1007553 82441 72123 544796 66361 478435 82250 315918 691635 573020 144890 336664 49833 286831 174602 20280 109988 118615 116725 57728 52260 236356 179442 29393 50982
is_linear=0
shrinkage=0.05


Tree=8
num_leaves=31
num_cat=0
split_feature=0 0 0 0 1 0 6 0 6 6 0 1 2 6 0 2 6 6 0 0 4 6 0 3 0 4 4 3 2 4
split_gain=308.719 1033.34 277.148 244.355 202.912 316.386 199.803 149.75 103.275 89.5026 71.3756 68.2949 82.8149 62.1225 53.6799 53.5299 68.7813 61.3905 43.6783 41.0587 50.936 38.6111 37.5526 36.4512 35.7879 35.7118 41.5905 34.6603 32.1844 30.4343
threshold=6.5000000000000009 7.5000000000000009 18.500000000000004 2.5000000000000004 3.2500000000000004 8.5000000000000018 0.72026905073616221 10.500000000000002 0.69325515331221899 0.68596101358997663 1.0000000180025095e-35 4.5500000000000007 0.85554773670196815 0.32166362335703008 23.500000000000004 0.9238063334046438 0.81536331606079981 0.75689426786508762 12.500000000000002 10.500000000000002 140.50000000000003 0.51946859071949358 12.500000000000002 0.88108553170491843 14.500000000000002 152.50000000000003 99.500000000000014 0.99977367497301872 0.82750977767191003 198.50000000000003
decision_type=2 2 2 2 2 2 2 2 2 2 2 2 2 2 2 2 2 2 2 2 2 2 2 2 2 2 2 2 2 2
left_child=3 6 4 10 7 8 -2 21 -6 -5 -1 12 24 -13 -4 17 -17 -12 -9 20 23 25 27 -14 -7 26 -3 -15 -26 -27
right_child=1 2 14 9 5 11 -8 18 -10 -11 15 13 19 22 -16 16 -18 -19 -20 -21 -22 -23 -24 -25 28 29 -28 -29 -30 -31
leaf_value=0.0017135699816860734 -0.010119448196362004 -0.0081277675161866934 -0.0056697016940440142 0.0051383840855464824 0.01191504135951192 0.00180345884643962 0.0029720667656277233 0.0048604734035569887 0.0020814667230295287 0.00099861479131022773 -0.0025160581503040911 0.013143924088883345 0.0017352700261120684 0.0039019607685975809 -0.014795926196190226 0.0083686861770658014 -0.02141255479505853 0.0038397713159987754 -0.0012443165217184337 -0.00061631250177548319 0.00082186390499454094 -0.0021939653685749206 0.00047663347646257758 -0.0085182294020763917 -0.0018141780547271853 -0.00095781165881173892 -0.017317256264974532 0.028608481995196368 0.006522022065930555 -0.025961799857021475
leaf_weight=30175.047963433899 32610.174550001509 6411.8803891595453 9065.4738957057707 48363.788003803231 9306.0439956812188 51397.012960226275 3200.5330841578543 4208.1724759312347 3744.3024569442496 17884.563223527744 37247.199867350981 1432.3541504223831 1015.9268250055611 15342.846166830044 1959.5606636302546 2218.5365591133013 212.44153649732471 4230.7812658599578 9646.2684992970899 17112.916803965345 2962.6738222483546 3393.2291969694197 12880.249627673067 5903.9798799948767 12671.48190359911 1943.8237310228869 1523.8953103516251 143.28008266910911 1274.2778071658686 129.8265329003334
leaf_count=143904 70899 11877 191183 270385 58842 230913 11351 19687 13281 60681 126032 7557 3340 67655 66320 11392 561 14801 51808 105862 9975 10121 88758 16436 116790 5396 3111 357 10472 253
internal_value=1.6714e-11 -0.00121667 0.000379662 0.00181444 0.000900319 0.00169381 -0.00894941 -0.00303518 0.00909367 0.0040208 -0.000158557 0.000903138 0.000231479 0.00298443 -0.00729177 -0.00144512 0.00576612 -0.00186776 0.000609963 -0.00209815 -0.00466413 -0.0068032 0.00247142 -0.00701289 0.00119393 -0.00836575 -0.00989241 0.00413055 -0.00105247 -0.00252325
internal_weight=349613 209280 173469 140332 162444 135187 35810.7 27257.1 13050.3 66248.4 74084 122137 92338.3 29798.7 11025 43909 2430.98 41478 13854.4 26995.5 9882.58 13402.7 28366.4 6919.91 65342.8 10009.4 7935.78 15486.1 13945.8 2073.65
internal_count=1800000 1172244 1089994 627756 832491 730238 82250 102253 72123 331066 296690 658115 493788 164327 257503 152786 11953 140833 71495 135613 29751 30758 156770 19776 358175 20637 14988 68012 127262 5649
is_linear=0
shrinkage=0.05


Tree=9
num_leaves=31
num_cat=0
split_feature=0 0 0 0 2 0 0 1 0 6 1 6 6 6 1 6 0 6 6 0 0 4 0 2 2 4 6 1 5 1
split_gain=197.031 112.669 438.25 256.04 176.291 226.123 244.263 225.514 216.939 134.001 132.895 117.413 111.379 85.9227 77.1725 71.3507 69.3373 64.2724 46.1347 44.6154 69.3567 41.7946 39.4704 38.473 38.4114 49.4099 40.9358 40.0645 42.0639 35.5122
threshold=19.500000000000004 7.5000000000000009 8.5000000000000018 5.5000000000000009 0.92303615635845015 2.5000000000000004 1.0000000180025095e-35 3.2500000000000004 3.5000000000000004 0.68596101358997663 3.2500000000000004 0.58400184188666404 0.69098415423569504 0.71731759221660873 4.2500000000000009 0.67998011794873381 4.5000000000000009 0.58083053408529339 0.5964146309767816 3.5000000000000004 1.0000000180025095e-35 193.50000000000003 15.500000000000002 0.87196755810508941 0.79695033142150329 174.50000000000003 0.56551767057886304 4.1500000000000012 19.500000000000004 4.8500000000000005
decision_type=2 2 2 2 2 2 2 2 2 2 2 2 2 2 2 2 2 2 2 2 2 2 2 2 2 2 2 2 2 2
left_child=1 3 10 4 5 6 -1 -7 15 -5 -3 19 -12 -8 22 -9 -10 -16 -19 20 -6 -20 23 24 -4 26 -26 28 -28 -13
right_child=-2 2 14 9 11 7 13 8 16 -11 12 29 -14 -15 17 -17 -18 18 21 -21 -22 -23 -24 -25 25 -27 27 -29 -30 -31
leaf_value=-0.00026040475204171736 -0.0080828911501486887 0.0045805093761521901 0.0020740081969667155 0.0072014533476055676 0.00017027124665161872 -0.0071733214379397061 0.0076946614371423971 -0.0051126049674179389 0.0055230651176030468 -2.7425177742010589e-05 -0.0085143769675297895 0.002021028407409435 0.00047100061079465385 0.0012104918262403333 -0.0027739044933697259 0.002320597562445118 0.00066967905283971162 0.007574026809471961 0.00041068612492268651 -0.0025816965063875357 -0.014352359883239975 -0.0093232364429387798 -0.0012123477113944626 0.0041504958413728218 0.00028562119068131086 0.0049065984545560238 -0.010705007242139228 0.011893555363716661 -0.0021536260600418648 -0.0085321326675655822
leaf_weight=28873.9536723122 7380.6475802569184 2620.1191118080169 42942.558531047311 22680.460870435461 1001.9723477149382 13060.699763687328 22567.246326649562 16940.983632726595 13924.509163750336 8936.7187061030418 23606.946222431958 4461.866567174904 4038.8820270141587 6604.1672572838143 26974.435602508485 3988.4586582556367 15607.262724795379 2176.8938472792506 28192.159708001651 1742.8774368893355 4580.2406842298806 1147.6611007768661 12762.859995359089 14089.237483293749 9052.2817587815225 3287.6117752473801 2593.5330048240721 332.02603537589312 3227.8189374543726 970.58105847984552
leaf_count=132123 205492 10318 203304 135041 6741 28347 120069 52289 66127 30169 58542 14622 13581 20115 139010 14397 66478 12047 144151 8020 11440 5796 153058 68638 40628 9856 12466 1087 12020 4028
internal_value=4.08197e-12 0.000173934 -0.000703411 0.00110998 0.00015712 0.000743909 0.00299977 -0.00131746 0.000198189 0.00515818 -0.00618169 -0.00543442 -0.00720167 0.0062267 0.000426214 -0.00369608 0.0029581 -0.000982344 0.000551011 -0.00956524 -0.0117456 2.99325e-05 0.00135939 0.00179398 0.00125356 -0.000651579 -0.00185331 -0.00499991 -0.00596344 0.000135562
internal_weight=350368 342987 177045 165942 134325 121567 58045.4 63521.9 50461.2 31617.2 30265.9 12757.5 27645.8 29171.4 146779 20929.4 29531.8 58491.2 31516.7 7325.09 5582.21 29339.8 88287.9 75525.1 61435.8 18493.3 15205.7 6153.38 5821.35 5432.45
internal_count=1800000 1594508 884502 710006 544796 499945 272307 227638 199291 165210 82441 44851 72123 140184 802061 66686 132605 301004 161994 26201 18181 149947 501057 347999 279361 76057 66201 25573 24486 18650
is_linear=0
shrinkage=0.05


Tree=10
num_leaves=31
num_cat=0
split_feature=0 0 6 0 0 0 1 0 6 1 2 6 2 6 6 0 0 6 6 2 4 4 2 4 1 1 0 0 6 0
split_gain=513.791 746.01 354.816 285.918 202.131 146.519 161.978 101.305 88.2977 75.8021 63.9496 61.4607 43.3097 50.5526 42.3302 40.155 36.4932 33.0714 32.2664 26.6527 26.2199 25.9058 52.7083 40.9111 39.0103 36.4235 33.9007 34.639 55.9407 32.8502
threshold=2.5000000000000004 1.0000000180025095e-35 0.69422356295422183 3.5000000000000004 19.500000000000004 4.5000000000000009 3.2500000000000004 5.5000000000000009 0.6726115281902656 3.2500000000000004 0.9283492690677464 0.51946859071949358 0.92550017368840498 0.58083053408529339 0.61106248157365461 16.500000000000004 27.500000000000004 0.6471475219210574 0.7757531192395094 0.92184444121878129 193.50000000000003 175.50000000000003 0.90495935756062162 164.50000000000003 4.6500000000000012 4.8500000000000005 6.5000000000000009 8.5000000000000018 0.83293534910653633 7.5000000000000009
decision_type=2 2 2 2 2 2 2 2 2 2 2 2 2 2 2 2 2 2 2 2 2 2 2 2 2 2 2 2 2 2
left_child=1 -1 9 8 5 6 -5 18 19 11 17 -3 -11 -14 -13 21 -6 -8 -7 -2 -4 23 24 26 -23 -25 -9 28 29 -28
right_child=3 2 20 4 16 7 10 15 -10 12 -12 14 13 -15 -16 -17 -18 -19 -20 -21 -22 22 -24 25 -26 -27 27 -29 -30 -31
leaf_value=0.003565181209305802 0.010693715160892852 -0.0092201194989312146 0.0040905771682532106 0.010983980216093347 -0.006734615753729945 0.0058234934820625269 -0.0060963807648859569 -0.00087923929007330953 0.0018013328602415378 -0.0073860561530961297 0.0093438338206627176 -0.023430594600315921 0.010769777540732158 -0.0059147099014525764 -0.011508407626439459 -0.001701355262140478 -0.021877061436197096 -0.0016960456099772477 -0.00098025793130754649 0.0025305322342233766 -0.0068032550096292672 9.2614855855125598e-05 -0.00387173875476005 0.0048725207304717863 0.0057754244893030264 -0.009068941996325219 0.0018234303664723711 0.0010785043956479073 -0.011167873246385886 0.0053569533212543567
leaf_weight=27166.408458849415 10383.774418748915 6322.5612792801112 7548.4963144818321 1927.768433008343 6655.4786327118054 15075.320007591508 13792.363425517455 16869.426219075918 4747.1148580741137 40926.690263957717 840.62246783077717 1609.4281201511621 719.43615438230336 1230.5358369592577 1385.4189628586173 12688.450057495851 423.18609954742715 6184.6180781666189 1970.3370319437236 1106.4583187438548 595.95194517076015 17429.382874457166 7223.4208812508732 11277.302460734732 3652.8100830800831 488.80181716941297 14269.661913258024 100814.17857747525 670.87020843476057 12201.964110122994
leaf_count=143904 59794 12387 23878 10174 190997 75759 48961 66166 17135 101064 4360 3037 5220 2996 2502 175082 14495 18934 6982 6007 1702 77900 28619 49715 17542 2887 64630 500559 1901 64711
internal_value=4.39355e-12 -0.00331512 -0.00641286 0.00111276 0.000686 0.000934281 -0.00288163 0.00133867 0.0075377 -0.00792744 -0.00416562 -0.012015 -0.00703919 0.00024098 -0.0179154 0.00101961 -0.00763988 -0.00473409 0.00503704 0.00990764 0.00329345 0.00120633 -0.000185703 0.00145796 0.00107725 0.00429335 0.0012276 0.00150536 0.00309083 0.00345219
internal_weight=348198 87504.9 60338.5 260693 244456 237377 22745.4 214632 16237.3 52194.1 20817.6 9317.41 42876.7 1949.97 2994.85 197586 7078.66 19977 17045.7 11490.2 8144.45 184898 28305.6 156592 21082.2 11766.1 144826 127957 27142.5 26471.6
internal_count=1800000 296690 152786 1503310 1420374 1214882 82429 1132453 82936 127206 72255 17926 109280 8216 5539 1049712 205492 67895 82741 65801 25580 874630 124061 750569 95442 52602 697967 631801 131242 129341
is_linear=0
shrinkage=0.05


Tree=11
num_leaves=31
num_cat=0
split_feature=0 0 0 0 6 0 1 0 1 6 2 1 6 6 2 0 4 0 3 2 3 3 1 4 3 0 6 6 4 2
split_gain=185.081 504.05 328.831 317.437 312.336 284.278 250.362 201.19 181.655 163.698 119.361 114.19 84.3316 66.2634 70.6958 50.7131 46.2341 34.0523 25.0424 24.7662 24.5625 33.5666 29.1317 24.9794 33.4995 26.0123 24.3403 36.7761 28.1157 28.884
threshold=5.5000000000000009 2.5000000000000004 3.5000000000000004 4.5000000000000009 0.6726115281902656 1.0000000180025095e-35 3.2500000000000004 17.500000000000004 3.2500000000000004 0.69325515331221899 0.92065677459666484 3.2500000000000004 0.70499766601758707 0.68774001104185145 0.93748131027041692 22.500000000000004 168.50000000000003 11.500000000000002 0.98286120515958997 0.92065677459666484 0.93222567864504202 0.94090502314036117 3.5500000000000003 158.50000000000003 1.0000000180025095e-35 6.5000000000000009 0.43137920607179098 0.41172293045278641 167.50000000000003 0.48273822899774982
decision_type=2 2 2 2 2 2 2 2 2 2 2 2 2 2 2 2 2 2 2 2 2 2 2 2 2 2 2 2 2 2
left_child=1 5 4 6 8 -1 16 17 -3 -7 26 19 -13 14 -8 -9 -4 20 -6 -5 23 22 -22 24 -2 -26 27 -10 -28 -30
right_child=7 2 3 11 18 9 13 15 10 -11 -12 12 -14 -15 -16 -17 -18 -19 -20 -21 21 -23 -24 -25 25 -27 28 -29 29 -31
leaf_value=-0.0013043520126780834 0.023286587665613326 0.00042515842037639859 -0.0088271173492142328 0.0068801494337040695 0.0052207373350198179 0.0077966749791672785 0.010265731675387295 -0.0034408951330593867 -0.011042492207333382 -0.00024541612774717469 0.0046593444417982275 -0.0072252657236065686 0.0011167985082391817 0.0015019200070928143 -0.0030545886530870679 -0.011306512620528111 0.004367455020593501 0.00053680144965573598 -0.0062550283322977034 -0.0097007603341617531 -0.006269816814937647 0.0025907599790611587 0.01025545363352497 -6.1715098956982583e-05 0.0042188563049985394 0.0014457867641310227 -0.014135032540100274 -0.0010269089749074436 -0.02181195930428417 -0.0062345199325039872
leaf_weight=32221.416971889324 183.36402377486229 3863.3594312239438 3847.2841076590121 2275.6061080880463 4359.0833458192647 21516.441131200641 9477.0868833139539 11257.661187304882 8089.7518156543374 8963.8440075945109 1132.1238255426288 19838.077070001513 3575.6408268911764 4293.637923354283 1113.0975982956588 2505.2910991359968 802.37742925807834 72716.128489509225 533.58485008217394 249.94319838285446 300.15632977895439 30759.826918955892 2392.016562294215 20471.093205029145 10045.5507329721 53464.269195238128 12672.221258923411 1033.651966676116 344.56907614320517 2182.1720650494099
leaf_count=143904 743 9366 7581 9326 15188 126698 55187 224907 17035 26088 5418 60449 12186 14292 2776 91011 2593 445720 1947 780 1377 128381 10407 78126 46185 228347 26801 2084 749 4348
internal_value=-7.33432e-13 -0.00138355 -0.0040225 -0.00123653 -0.00772563 0.0019701 0.00357754 0.000965222 -0.00967731 0.0054316 -0.0112106 -0.00486175 -0.0059513 0.00674141 0.00886568 -0.00487269 -0.00655017 0.00138736 0.00396921 0.00523921 0.00191322 0.00305933 0.00841301 0.00145769 0.00194603 0.00188441 -0.0119493 -0.00990776 -0.0131748 -0.0083588
internal_weight=346480 142385 79683.3 45472.8 34210.5 62701.7 19533.5 204095 29317.8 30480.3 25454.5 25939.3 23413.7 14883.8 10590.2 13763 4649.66 190332 4892.67 2525.55 117616 33452 2692.17 84164.3 63693.2 63509.8 24322.4 9123.4 15199 2526.74
internal_count=1800000 544796 248106 165170 82936 296690 82429 1255204 65801 152786 56435 82741 72635 72255 57963 315918 10174 939286 17135 10106 493566 140165 11784 353401 275275 274532 51017 19119 31898 5097
is_linear=0
shrinkage=0.05


Tree=12
num_leaves=31
num_cat=0
split_feature=0 0 0 0 1 6 2 2 6 1 0 0 0 3 6 0 0 4 3 0 0 5 5 4 6 2 1 0 0 6
split_gain=141.578 76.4861 157.676 329.737 203.961 169.887 119.245 76.1612 64.9732 58.0458 171.062 96.7584 84.255 78.5826 66.7113 63.5206 59.4087 45.5241 38.7174 37.9567 36.496 31.117 28.885 28.7281 28.2934 27.658 27.6554 68.7034 46.315 150.403
threshold=20.500000000000004 1.0000000180025095e-35 4.5000000000000009 3.5000000000000004 3.2500000000000004 0.69722004467525067 0.93850767207819696 0.93748131027041692 0.58737743382843843 3.2500000000000004 5.5000000000000009 6.5000000000000009 8.5000000000000018 0.9475603006351101 0.69325515331221899 8.5000000000000018 10.500000000000002 174.50000000000003 0.91280126488062108 2.5000000000000004 17.500000000000004 7.5000000000000009 5.5000000000000009 152.50000000000003 0.62511618097124277 0.32467870405464977 3.1500000000000008 2.5000000000000004 2.5000000000000004 0.6726115281902656
decision_type=2 2 2 2 2 2 2 2 2 2 2 2 2 2 2 2 2 2 2 2 2 2 2 2 2 2 2 2 2 2
left_child=1 -1 3 6 -5 7 26 -6 19 12 14 13 17 18 -11 -13 -14 -4 23 -8 -17 22 -18 -12 -20 -25 27 -3 -28 -30
right_child=-2 2 9 4 5 -7 8 -9 -10 10 11 15 16 -15 -16 20 21 -19 24 -21 -22 -23 -24 25 -26 -27 28 -29 29 -31
leaf_value=0.0026879502256061316 -0.0084085096577768952 0.0026856172922572483 -0.0051753823251250415 0.0077594576552888128 -0.0095288492242022963 0.0023254986832452608 -0.018645318945323487 0.007348304112019876 -0.0013190752348155137 0.0085177143543118238 -0.0042544172852523208 0.0029723004611403158 0.0057845613755645202 0.0034975361083598292 0.00071763381593994741 0.00067516369474409374 -0.00099048339129732734 0.0029891792996333912 -0.012483740206971565 -0.00076468579129414054 -0.0030258299165278682 0.00082266933376826861 -0.0094490689663373068 0.026184756364035784 -0.0017599513216478178 0.00035050351552791084 0.00012185637150798107 -0.0082420887258524405 0.0068493515219804554 -0.0031534424561723848
leaf_weight=26756.633558708243 4934.644932604162 3013.0767697654665 12931.695412795059 2407.3109504915774 22624.696347031742 3835.4754229448736 1501.5742791239172 688.81134772859514 1570.5344942733645 9874.5887316670269 10824.525174707174 31717.826737522148 4721.1910840906203 4174.5150297181681 3794.5877089574933 114933.59618700668 2603.8054105252959 1967.0214075753465 2101.9836777858436 369.91650031879544 7070.9474730412476 10193.598369671963 1648.147900223732 107.45349699258804 869.51026552543044 2890.6554831322283 36442.844659383409 2752.0787817966193 10644.397836586693 5808.7293908838183
leaf_count=143904 160332 11585 31920 10174 56368 13111 3711 2776 3895 59212 35000 144257 20440 16897 13423 606772 16427 8768 6669 1959 136553 57446 9583 331 2778 11137 135010 6223 57205 16134
internal_value=6.17274e-12 0.000121737 -9.68766e-05 -0.00184203 -0.0061891 -0.00742593 0.000226845 -0.0090302 -0.00881802 0.000622283 0.000965782 0.000544291 -0.00127705 -0.00264183 0.0063524 0.000978897 0.000915309 -0.00409745 -0.00416789 -0.0151111 0.000460667 -0.000676092 -0.00426921 -0.00305479 -0.00934578 0.00127641 0.000757565 -0.00253088 0.00111597 0.00331789
internal_weight=345776 340842 314085 91659.4 29556.3 27149 62103.2 23313.5 3442.03 222426 188360 174691 34065.5 20968.6 13669.2 153722 19166.7 14898.7 16794.1 1871.49 122005 14445.6 4251.95 13822.6 2971.49 2998.11 58661.1 5765.16 52896 16453.1
internal_count=1800000 1639668 1495764 318151 82429 72255 235722 59144 9565 1177613 1033029 960394 144584 72812 72635 887582 103896 40688 55915 5670 743325 83456 26010 46468 9447 11468 226157 17808 208349 73339
is_linear=0
shrinkage=0.05


Tree=13
num_leaves=31
num_cat=0
split_feature=0 3 6 1 6 4 5 0 0 0 1 1 4 4 1 5 4 4 6 4 4 3 3 6 6 5 6 2 1 6
split_gain=123.812 47.2248 97.7338 96.3652 75.7833 66.62 60.7056 47.7384 205.616 141.758 109.091 63.0484 46.4359 68.6459 126.528 74.4549 60.1978 45.8496 43.7836 42.8065 41.7805 40.564 48.4779 38.5828 43.8375 116.897 93.1229 88.0002 66.1285 51.5527
threshold=19.500000000000004 0.92288141266986679 0.65286919646253372 3.4500000000000006 0.63445951284542645 12.500000000000002 23.500000000000004 5.5000000000000009 4.5000000000000009 6.5000000000000009 3.2500000000000004 3.4500000000000006 23.500000000000004 41.500000000000007 3.6500000000000008 8.5000000000000018 53.500000000000007 63.500000000000007 0.67874786960414546 33.500000000000007 170.50000000000003 0.94353298564128629 0.92791303202943032 0.63213904909479923 0.56796327010003511 11.500000000000002 0.4322940209265706 0.91645846188562552 4.3500000000000005 0.2458435592590166
decision_type=2 2 2 2 2 2 2 2 2 2 2 2 2 2 2 2 2 2 2 2 2 2 2 2 2 2 2 2 2 2
left_child=1 5 4 -4 6 -1 12 8 11 20 -10 -7 21 14 15 19 -15 -5 -12 -14 -9 22 -3 24 26 -26 29 -28 -29 -18
right_child=-2 2 3 17 -6 7 -8 9 10 -11 18 -13 13 16 -16 -17 23 -19 -20 -21 -22 -23 -24 -25 25 -27 27 28 -30 -31
leaf_value=-0.0070788572997361292 -0.0069744464005637302 -0.010418116996286834 -0.0067690559418155096 -0.0053724079093254995 -0.012831091721866035 -0.0014961965005293528 0.017208747711359065 0.0080987639903615533 0.0060708712469259357 0.00074335733151709995 -0.0076490920394328074 0.0018053944604048766 -0.015109955168902667 0.0037720404875911089 -0.008460011602027355 0.0088886170296088706 0.0038759025387761535 0.0028416218102209363 -0.00083393239450811662 0.0012207654056197654 0.00065099729015395246 0.00020816530058047927 0.013063475953751381 0.0073466837317095555 0.0025667166211800268 -0.006670781908857077 0.0039747523233099966 0.0031306531091901363 -0.012235844863188645 -0.0041673172821494065
leaf_weight=2830.9304083166644 6248.5473090214655 262.04670673422515 3182.0341065926477 1803.3226274363697 1494.3816343760118 19705.564160203561 432.87278155051172 9101.8716309163719 1964.215874530375 121027.92746702116 13047.78038773872 54320.24844562728 670.56027686130255 5481.6157378396019 9038.786776157096 2047.5737701645121 2259.9947753949091 29333.995508437045 2876.1586730945855 999.21475498005748 2374.2461369298398 5103.8078753286973 1363.3842129278928 1142.8827894097194 4794.1206564181484 11990.554322282318 11881.61993832048 1207.8990733819082 1665.4967967094854 16812.141018034425
leaf_count=16504 205492 1488 14794 7679 7235 72613 1753 46877 7329 652374 38356 238834 3220 25186 43584 7316 9687 116448 10134 4848 9201 21729 4474 4371 19208 60741 48734 6803 10886 82102
internal_value=-1.84604e-11 0.000128095 -0.000707411 0.00151893 -0.0016789 0.000543436 -0.0014629 0.000639587 -0.000235999 0.00124695 -0.00504679 0.000926516 -0.00156824 -0.00194966 -0.00526652 0.00249849 -0.00121043 0.00236591 -0.00641815 -0.00533744 0.00655793 0.00239893 0.00927785 -0.00173815 -0.0019433 -0.00403232 -0.00090675 0.00207585 -0.00577618 -0.00321422
internal_weight=346466 340217 112968 34319.4 78649 227249 77154.6 224418 91914 132504 17888.2 74025.8 76721.7 69992.5 12756.1 3717.35 57236.3 31137.3 15923.9 1669.78 11476.1 6729.24 1625.43 51754.7 50611.8 16784.7 33827.2 14755 2873.4 19072.1
internal_count=1800000 1594508 502286 138921 363365 1092222 356130 1075718 367266 708452 55819 311447 354377 326686 58968 15384 267718 124127 48490 8068 56078 27691 5962 242532 238161 79949 158212 66423 17689 91789
is_linear=0
shrinkage=0.05


Tree=14
num_leaves=31
num_cat=0
split_feature=0 0 0 0 6 0 1 1 3 4 0 3 0 6 6 1 5 2 1 3 4 4 3 4 2 3 6 1 2 1
split_gain=156.094 38.5694 38.4989 103.814 69.39 41.1929 79.6596 64.1353 56.7622 54.9498 46.0847 41.6376 37.2574 35.1496 30.682 42.5763 36.1747 26.5454 24.7706 33.4293 24.7258 24.4137 27.234 22.6105 22.3877 21.6523 26.007 23.8564 21.5783 21.4963
threshold=17.500000000000004 23.500000000000004 4.5000000000000009 7.5000000000000009 0.68774001104185145 5.5000000000000009 3.2500000000000004 3.3500000000000001 0.92288141266986679 172.50000000000003 6.5000000000000009 0.97083982762214682 12.500000000000002 0.3771096787678197 0.35537413198007556 4.5500000000000007 12.500000000000002 0.35866441491147577 4.1500000000000012 0.93884074965395337 97.500000000000014 152.50000000000003 0.9475603006351101 151.50000000000003 0.976937238163747 0.96138483613577486 0.22379505131513552 3.2500000000000004 0.85918543564180749 4.4500000000000011
decision_type=2 2 2 2 2 2 2 2 2 2 2 2 2 2 2 2 2 2 2 2 2 2 2 2 2 2 2 2 2 2
left_child=2 -2 13 4 5 7 10 20 -9 11 21 -8 24 14 15 16 17 -1 -19 -20 -4 22 -7 -10 25 -5 27 -27 -13 -16
right_child=1 -3 3 12 -6 6 9 8 23 -11 -12 28 -14 -15 29 -17 -18 18 19 -21 -22 -23 -24 -25 -26 26 -28 -29 -30 -31
leaf_value=-0.015945086782260882 -0.00436426614544317 -0.012598163729559875 -0.0017196166847775396 0.0014341245244583281 0.001571211453311178 -0.005889641520265141 -0.0053768992722537804 0.0049037837535725846 -0.00022798132724874705 0.001917273897502242 0.00849008199442902 -0.0035082932159600311 -0.00050691125918311028 0.00051269766638141142 0.0076986282228716941 0.0091328975524383477 0.031060259910043377 0.0019824165623199357 -0.0069260305424047666 0.004862362636505092 -0.0089252202622491211 0.0076229281221481954 0.010550794654314081 -0.0079085206660835551 0.010366060957290115 -0.002176669614004961 -0.00011335107709597569 -0.021153776055732855 0.0041374198725536229 -0.0042185228839262878
leaf_weight=230.81562565267086 11207.737930656178 1628.9455206207931 2476.2690903004259 79960.601228610147 12799.258774686605 1963.263777019456 29481.026434613857 6241.0511216660962 3546.8044231478125 3407.8198123667389 2007.3562572728842 1874.6283042393625 52270.270900595933 85084.411470187828 3861.1386482063681 1811.4624722413719 99.977110942825675 14011.542892379686 1895.99558256194 880.76336205378175 2292.9935131017119 592.95134394057095 288.97482683882117 1312.9311537649482 653.86384479235858 398.02010020241141 17090.273698875681 283.61710538342595 1817.5757874846458 419.52247707918286
leaf_count=912 249598 66320 7298 338016 44401 5221 90972 37099 13194 13219 9428 5596 365109 358697 16490 7853 469 62076 8695 4657 6598 2562 1666 3799 3268 846 66015 822 6898 2206
internal_value=7.57784e-13 -0.00540913 0.000211014 -0.000167782 -0.00175729 -0.00250074 -0.00333041 -0.000334649 0.00174878 -0.0041289 0.00268903 -0.00475001 0.000571843 0.000983186 0.00270783 0.00184339 0.00107205 0.000895887 0.00112743 -0.00318686 -0.00518397 -0.00140377 -0.00378024 -0.002303 0.00114496 0.00108327 -0.00049534 -0.0100727 0.000255492 0.0065307
internal_weight=341892 12836.7 329055 220760 70102.9 57303.6 41433.6 15870 11100.8 36581.1 4852.55 33173.2 150657 108296 23211.2 18930.6 17119.1 17019.1 16788.3 2776.76 4769.26 2845.19 2252.24 4859.74 98386.4 97732.5 17771.9 681.637 3692.2 4280.66
internal_count=1800000 315918 1484082 1022027 247951 203550 135562 67988 54092 116685 18877 103466 774076 462055 103358 84662 76809 76340 75428 13352 13896 9449 6887 16993 408967 405699 67683 1668 12494 18696
is_linear=0
shrinkage=0.05


Tree=15
num_leaves=31
num_cat=0
split_feature=0 0 6 0 3 5 0 2 5 2 5 5 2 2 2 1 6 2 1 3 3 6 5 6 2 2 6 6 3 2
split_gain=156.051 44.6672 40.5824 33.5803 28.1716 27.642 25.781 20.7253 45.4724 37.9526 59.2718 26.8546 25.3805 64.2675 47.2157 48.6738 50.8604 122.063 44.0385 43.2458 57.6385 54.1288 43.9391 38.9401 54.1475 43.9599 38.5187 37.8857 36.6488 41.3942
threshold=16.500000000000004 22.500000000000004 0.13758743519568956 1.0000000180025095e-35 0.99886655699033866 13.500000000000002 14.500000000000002 0.85918543564180749 9.5000000000000018 0.86637014984140015 2.5000000000000004 11.500000000000002 0.82122100699902678 0.82326153113437295 0.79148667383268334 4.6500000000000012 0.54927657289550014 0.79695033142150329 4.7500000000000009 0.84373166981952363 0.81895494543787739 0.29332942417658853 10.500000000000002 0.35537413198007556 0.51487582778198382 0.78407873266302852 0.44451110293508317 0.42266310057065432 0.27193362017366129 0.50037508468448344
decision_type=2 2 2 2 2 2 2 2 2 2 2 2 2 2 2 2 2 2 2 2 2 2 2 2 2 2 2 2 2 2
left_child=2 -2 -1 -4 6 -6 7 12 9 10 -9 -10 14 -14 19 16 -16 -18 -17 20 21 22 28 24 -23 -25 27 -22 -5 -30
right_child=1 -3 3 4 5 -7 -8 8 11 -11 -12 -13 13 -15 15 18 17 -19 -20 -21 26 23 -24 25 -26 -27 -28 -29 29 -31
leaf_value=-0.0079183291724621175 -0.0036022740379174421 -0.011100593349728832 -0.0012201845702985296 0.016044492088223363 0.0088264068961104222 -0.00090103070034576742 -0.0014504241889938658 -0.013234547134646597 0.0052590927330240997 -0.0012255552423843798 0.0081260650370120844 0.0017211094687025329 -0.0086108217180090804 -0.00035588122059986146 0.0013394382542754281 -0.01304440858446837 0.018229044805601165 0.0034943909385875107 3.1853755774276083e-05 -0.0012987539709180928 0.0064712672905935832 0.0050313903454442376 -0.0088754351028204302 0.00046619171944323288 -0.0051133955898506576 -0.0058621418813310502 0.0024013717330200368 0.021036817716582376 -0.0024698797521819759 0.0049106136810321728
leaf_weight=1513.1824206337333 15465.785174769815 2278.7327504372224 33059.618734796531 603.18370541930199 1952.6041333507746 1166.6841964237392 17471.388744257856 378.29035093262792 6218.6921901013702 20798.887934962288 2294.956071941182 39000.531360649504 2597.4731426918879 25550.821336183697 11979.661165954545 784.15517830848694 1734.9764653462917 7402.4622579393908 3599.366321478039 37857.004588540643 1994.2930799014866 1607.5299262218177 697.38960472121835 74487.426485793665 7236.0752589041367 2849.1820623930544 5922.5182511988096 575.20196514390409 2386.148956283927 9321.0068343849853
leaf_count=5779 289563 91011 143347 2189 6503 5045 141634 2270 23490 99366 7674 159148 12636 97772 48960 2626 5644 28691 11963 161834 6861 6810 2304 316558 29319 14121 24683 2233 11335 38631
internal_value=-8.17067e-12 -0.0045652 0.000250765 0.000289211 0.000462193 0.00518813 0.000410532 0.000531907 0.00128082 -0.000504757 0.00510333 0.00220766 0.000273636 -0.00111763 0.000502603 0.00248723 0.00348249 0.00629214 -0.00230732 0.000154861 0.000665909 0.000327427 0.0033339 -0.00012636 -0.00326935 0.000233048 0.00461942 0.00973188 0.00402557 0.00340632
internal_weight=340785 17744.5 323041 321528 288468 3119.29 285349 267877 68691.4 23472.1 2673.25 45219.2 199186 28148.3 171038 25500.6 21117.1 9137.44 4383.52 145537 107680 99187.9 13007.7 86180.2 8843.61 77336.6 8492.01 2569.5 12310.3 11707.2
internal_count=1800000 380574 1419426 1413647 1270300 11548 1258752 1117118 291948 109310 9944 182638 825170 110408 714762 97884 83295 34335 14589 616878 455044 421267 54459 366808 36129 330679 33777 9094 52155 49966
is_linear=0
shrinkage=0.05


Tree=16
num_leaves=31
num_cat=0
split_feature=0 0 3 4 6 4 4 3 3 3 4 1 1 2 2 1 4 6 3 1 6 2 4 5 6 2 6 6 4 5
split_gain=198.242 49.7802 33.2943 38.962 40.1786 37.7847 37.3862 34.0392 39.5482 27.018 28.08 25.6802 29.9653 64.421 44.5679 53.1076 27.2875 59.1997 49.0589 57.3173 52.5643 45.081 45.182 44.5397 42.3575 53.9436 41.2861 41.805 37.1092 49.7019
threshold=15.500000000000002 20.500000000000004 0.8585775070758852 70.500000000000014 0.73088786618911517 71.500000000000014 34.500000000000007 0.91967882257994948 0.87877837617128562 0.9464169404852899 68.500000000000014 4.9500000000000011 4.4500000000000011 0.45061750787780203 0.5212462636130718 4.5500000000000007 123.50000000000001 0.3028157931887791 0.6566253784072813 4.1500000000000012 0.36293210829059752 0.6238324354280641 144.50000000000003 23.500000000000004 0.4322940209265706 0.75044765135307046 0.61106248157365461 0.66157223788581609 69.500000000000014 20.500000000000004
decision_type=2 2 2 2 2 2 2 2 2 2 2 2 2 2 2 2 2 2 2 2 2 2 2 2 2 2 2 2 2 2
left_child=2 -2 11 4 6 -5 -4 8 -8 10 -9 12 16 -14 15 -15 28 -18 21 20 -20 22 -19 24 -22 -26 -27 -28 29 -1
right_child=1 -3 3 5 -6 -7 7 9 -10 -11 -12 -13 13 14 -16 -17 17 18 19 -21 23 -23 -24 -25 25 26 27 -29 -30 -31
leaf_value=-0.00093157273268189419 -0.0032380902442278731 -0.0089914935477861026 0.0010891191009686136 0.013045765418132065 0.010287500582979331 0.0013177744037888729 0.0034842253897253194 0.004487147326007284 -0.0056303143599204242 -0.0015513419776958257 -0.012015461199565133 -0.0045703734895021974 -0.0074555992597147751 0.022860386747050317 0.0010358865632704745 0.0046176525986061923 0.01434552285670705 0.0065675818994424973 -0.0081012879875206733 -0.0052019702671899848 0.0052715422549950734 0.0053139546397166018 -0.00054291769819799971 0.020115130321184265 -0.0039921011700146079 -0.0027335731641378144 0.010584742849886405 0.0015477647142186914 -0.0023203729976670521 0.0036061679002784837
leaf_weight=29615.745448803529 19978.582070183475 4631.1515275293496 19687.759518529754 691.25104976817966 871.76498805731535 105853.75318125822 1404.1969692409039 3494.7636932358146 7807.0987843070179 12642.214900442399 278.29708711802959 3239.728206991218 1993.8119378415868 441.91840312071145 26739.480354449712 4102.9670002525672 751.89634855091572 2628.5447287838906 1810.1489305775613 6780.0137100592256 3775.8993311189115 6826.6674259267747 14888.429226387292 293.93727007135749 6803.0198736637831 3177.5755607197061 1842.759537987411 4188.5848042797297 32466.301920373924 7578.5790610983968
leaf_count=124903 289985 160332 87348 1949 2817 445642 6657 16213 38432 54460 1772 15458 12193 1891 122434 16363 2679 9351 9495 35443 13584 27469 60406 688 33064 16046 6162 16723 136841 33200
internal_value=4.96705e-12 -0.00432079 0.000340074 0.00086807 -0.000344866 0.00139386 -0.000549414 -0.00180823 -0.00424087 -0.000443169 0.00326993 -0.000164104 -7.30095e-05 0.00125856 0.00181393 0.00639147 -0.000432021 0.00041419 0.000216608 -0.00118489 5.9221e-05 0.00186729 0.000524063 0.0007948 0.000507808 -0.000615566 0.00187882 0.00430884 -0.00108517 -6.97935e-06
internal_weight=337287 24609.7 312677 152731 46186.1 106545 45314.3 25626.6 9211.3 16415.3 3773.06 159946 156706 33278.2 31284.4 4544.89 123428 53767.5 53015.6 28671.9 21891.9 24343.6 17517 20081.8 19787.8 16011.9 9208.92 6031.34 69660.6 37194.3
internal_count=1800000 450317 1349683 655290 207699 447591 204882 117534 45089 72445 17985 694393 678935 152881 140688 18254 526054 231110 228431 131205 95762 97226 69757 86267 85579 71995 38931 22885 294944 158103
is_linear=0
shrinkage=0.05


Tree=17
num_leaves=31
num_cat=0
split_feature=0 0 0 0 0 0 4 3 4 6 2 2 3 4 4 2 3 3 3 4 4 2 5 3 1 0 6 3 4 3
split_gain=230.623 48.5214 46.2307 27.7859 21.3952 14.8535 15.007 29.5165 14.8115 13.6606 12.8425 35.4152 14.1382 17.5963 33.592 22.7199 19.6633 25.5751 22.3944 23.4238 16.8942 16.6728 21.9999 21.5339 17.7774 18.0365 16.1249 15.5037 15.3196 15.2674
threshold=15.500000000000002 11.500000000000002 20.500000000000004 1.0000000180025095e-35 29.500000000000004 1.5000000000000002 127.50000000000001 0.31805414933142906 185.50000000000003 0.91445481928568884 0.92184444121878129 0.9238063334046438 0.94353298564128629 182.50000000000003 172.50000000000003 0.90992679438178725 0.96138483613577486 0.97842775145044325 0.95263505432103701 148.50000000000003 138.50000000000003 0.89632867363159319 2.5000000000000004 0.98431991272159902 3.3500000000000001 3.5000000000000004 0.27628333628128654 0.98040891547522535 191.50000000000003 0.9619206158742688
decision_type=2 2 2 2 2 2 2 2 2 2 2 2 2 2 2 2 2 2 2 2 2 2 2 2 2 2 2 2 2 2
left_child=1 3 -2 8 -4 6 -5 -8 -1 -3 12 -12 -7 14 15 16 18 -18 20 26 -14 22 24 27 25 -19 -20 -24 -15 -30
right_child=2 9 4 5 -6 10 7 -9 -10 -11 11 -13 13 28 -16 -17 17 21 19 -21 -22 -23 23 -25 -26 -27 -28 -29 29 -31
leaf_value=-0.0010764715535315794 -0.0036483911282504406 -0.00089676680585541757 -0.0085681052471383058 0.000991898779489479 -0.026959313432902421 0.0006240626938624228 -0.010490934541160747 0.0044619274512798929 0.003192656727736927 -0.014493057271053445 -0.0083691519567515148 8.686611542332196e-05 -0.00025549724554624115 0.0082068880564551399 -0.0048829529560241759 0.0056673156991763228 -0.0021231882916743702 -0.016354749220120871 0.018259815016561012 -0.0093494873415990044 0.0084664237796186603 -0.0033521935160577866 0.0033439155059532739 0.001511980227313618 -0.0094378990540047655 0.014379506858475008 0.0054126692522581885 0.010604539228883693 -0.0059754005028674131 0.0039509642039260431
leaf_weight=27741.863839832135 19525.074382402934 57583.146399826743 4425.6304412207101 11049.735197886825 163.99808213161305 145861.16227225028 344.70577264204621 7752.6420952295884 2192.2542756274343 185.33825316093862 1345.794133041054 15490.843358612619 4838.6524597825482 1794.2571430541575 2063.4335024822503 3243.4005835596472 6913.8886521365494 64.759112454950809 257.4967694170773 258.91206620447338 627.16658608987927 1471.6257751248777 1667.5043309349567 7390.4753485862166 660.43283923342824 181.59843946248293 4745.7888396894559 1315.0847705043852 466.40694925468415 2285.8489468302578
leaf_count=133862 289985 309797 154563 42893 5769 599098 1434 27424 10042 1524 6362 64267 18973 4684 10302 12395 28363 174 826 1865 1608 5017 6441 28767 4189 635 15596 4159 2809 6177
internal_value=3.50752e-12 0.000366616 -0.00470981 0.000666203 -0.00922527 0.000858946 0.00219019 0.00382538 -0.000763818 -0.000940388 0.000733348 -0.000589044 0.000852981 0.00168262 0.00130953 0.0016894 0.0012649 0.000325574 0.00298677 0.00531499 0.000745286 0.0016533 0.00230634 0.00295921 -0.00516208 0.0063005 0.00607385 0.00654527 0.00461224 0.00226881
internal_weight=333909 309794 24114.7 252026 4589.63 222092 19147.1 8097.35 29934.1 57768.5 202945 16836.6 186108 40246.7 35700.2 33636.8 30393.4 19665.4 10728 5262.2 5465.82 12751.5 11279.9 10373.1 906.79 246.358 5003.29 2982.59 4546.51 2752.26
internal_count=1800000 1349683 450317 1038362 160332 894458 71751 28858 143904 311321 822707 70629 752078 152980 139310 129008 116613 77745 38868 18287 20581 49382 44365 39367 4998 809 16422 10600 13670 8986
is_linear=0
shrinkage=0.05


Tree=18
num_leaves=31
num_cat=0
split_feature=0 0 0 6 5 4 4 0 4 4 3 3 3 4 4 2 2 2 4 3 6 6 6 1 1 3 0 4 4 6
split_gain=211.41 42.0645 40.0097 14.9396 19.0004 24.1612 27.0058 21.2702 16.6791 25.5461 20.6104 18.8639 18.4688 20.2296 27.6436 16.3209 26.5716 22.1912 27.7558 22.6979 17.7466 23.1213 27.9945 18.14 17.1033 15.3914 14.8121 14.6389 15.7224 15.1439
threshold=15.500000000000002 22.500000000000004 12.500000000000002 0.7277704405568608 22.500000000000004 128.50000000000003 134.50000000000003 4.5000000000000009 102.50000000000001 84.500000000000014 0.96057829778097092 0.85431135350201537 0.65245745525114196 41.500000000000007 36.500000000000007 0.83588848518353343 0.83112741087332997 0.90992679438178725 131.50000000000003 0.96773188970820656 0.7757531192395094 0.76658559228815248 0.76488050909190963 3.6500000000000008 4.2500000000000009 0.3954679371750115 3.5000000000000004 185.50000000000003 184.50000000000003 0.49236094454524681
decision_type=2 2 2 2 2 2 2 2 2 2 2 2 2 2 2 2 2 2 2 2 2 2 2 2 2 2 2 2 2 2
left_child=2 27 3 4 -1 8 7 -7 9 10 11 12 -6 14 -14 16 20 18 -17 -19 21 22 25 -22 -20 -5 -11 28 -2 -29
right_child=1 -3 -4 15 5 6 -8 -9 -10 26 -12 -13 13 -15 -16 17 -18 19 24 -21 23 -23 -24 -25 -26 -27 -28 29 -30 -31
leaf_value=0.00051458840349569493 -0.0041761611579014179 -0.011118526805513408 -0.0011786520053033876 -0.010134884029313306 -0.0089719369482681565 0.0043015086218683978 0.0012463341766880216 0.033048454980089924 -0.0097379829093971228 0.012822578563000564 0.0074467597596904987 -0.0070427392007774 -0.00049182477403174319 -0.0034282746393016271 0.011943609952348704 0.0033529473351564007 0.013233315077597067 0.0052254779711437618 0.00082527331212772716 -0.0014910920790260668 -0.014016040522453595 0.0074677914004825652 -0.013714002783177149 0.0011117225265861431 -0.0045866480992485499 0.0032029606438048401 0.001369716027381909 -0.012466256301424403 -0.02404860588871284 0.0023948798633278571
leaf_weight=218862.31194078783 19397.22402277845 2228.5667956529651 37673.406604322605 224.07715830765665 783.09389486350119 120.59626510739326 874.46004357933998 137.95709696412086 692.01457991823554 389.59500276111066 473.61469198018312 2384.7028754409403 1695.9643943402916 3038.8110177777708 606.79850986227393 2346.1917738057673 538.42537882179022 3343.1155861094594 2097.0801806412637 2016.6093975938857 200.94179028645158 2830.2678463384509 269.30563512630761 14342.100916226394 4804.6151905646548 6227.6031113294885 1025.2098479568958 194.43343529850245 100.04408894246444 1448.6065200115554
leaf_count=923214 332321 91011 230710 1758 4156 245 2066 319 5230 1562 1379 12964 8912 11944 1700 6712 1175 9200 7207 7054 1804 7545 1789 58443 18856 20839 2900 3494 2007 21484
internal_value=1.05404e-11 -0.00458494 0.000347874 0.000560616 0.000407445 -0.00151107 0.00544379 0.0196401 -0.00222163 -0.00172138 -0.00270494 -0.00326996 -0.001801 -0.00074971 0.00278502 0.00146263 0.00224789 0.000138467 -0.00134515 0.00269835 0.0020024 0.00367683 0.00208043 0.000902702 -0.00294224 0.00273972 0.00452349 -0.00389618 -0.00427813 0.000636248
internal_weight=331368 23368.9 307999 270325 231085 12222.8 1133.01 258.553 11089.8 10397.8 8982.99 8509.37 6124.67 5341.57 2302.76 39240.3 24632.7 14607.6 9247.89 5359.72 24094.3 9551.25 6720.99 14543 6901.7 6451.68 1414.8 21140.3 19497.3 1643.04
internal_count=1800000 450317 1349683 1118973 976591 53377 2630 564 50747 45517 41055 39676 26712 22556 10612 142382 93353 49029 32775 16254 92178 31931 24386 60247 26063 22597 4462 359306 334328 24978
is_linear=0
shrinkage=0.05


Tree=19
num_leaves=31
num_cat=0
split_feature=0 0 0 0 5 4 4 6 6 1 2 2 3 4 2 1 5 3 1 3 3 2 4 6 1 6 1 0 4 4
split_gain=192.971 51.8419 17.9635 15.3838 19.0365 16.8653 15.007 15.7945 30.6114 30.1801 16.9743 16.4925 17.9433 16.0907 15.8843 14.9022 17.8936 13.6575 13.5124 13.3557 26.9331 12.1723 12.1489 11.4916 16.1075 14.1535 12.2345 11.0759 10.8431 27.3529
threshold=14.500000000000002 20.500000000000004 27.500000000000004 9.5000000000000018 3.5000000000000004 188.50000000000003 185.50000000000003 0.44451110293508317 0.58400184188666404 4.8500000000000005 0.90980192741098909 0.76181147312080477 0.16576839857399786 182.50000000000003 0.90710347549818227 3.0500000000000003 7.5000000000000009 0.97767990321129561 3.0500000000000003 0.8772270884963288 0.92977139085340621 0.36445201439611713 129.50000000000003 0.30700631638239179 4.3500000000000005 0.67998011794873381 4.7500000000000009 1.0000000180025095e-35 139.50000000000003 157.50000000000003
decision_type=2 2 2 2 2 2 2 2 2 2 2 2 2 2 2 2 2 2 2 2 2 2 2 2 2 2 2 2 2 2
left_child=3 6 -3 15 19 23 7 -2 9 10 14 12 21 -14 18 16 -1 -7 -9 -5 -21 -10 -11 24 -6 26 -25 -17 -13 -30
right_child=1 2 -4 4 5 17 -8 8 11 22 -12 28 13 -15 -16 27 -18 -19 -20 20 -22 -23 -24 25 -26 -27 -28 -29 29 -31
leaf_value=-0.0003705913402007554 -0.0015446661414346555 -0.0077478004787275307 -0.019649412252374564 -0.004066525356713307 0.0014148517874156845 0.001500644277235194 0.00089962023800331341 0.0044311742962970064 -0.032070490065682501 -0.0043507215772011047 -0.015738276644283237 -0.0023553429999042647 -0.0046675181167655832 -0.024648247380843345 0.0084691614898114408 -0.00037199554148888755 0.0048974732198892538 0.0077637371661644257 -0.0077299538750545682 0.0067491050543347364 -0.0026973190451857142 0.020934101261025028 0.012648276953510777 -0.0010296609659322259 0.013835180906036054 0.00098500885389453787 0.0014198646013765396 0.00069679253986704973 0.0089979513171343228 -0.002359288478104135
leaf_weight=2582.1988297905773 9118.6644678821322 4112.4679472097196 343.52684005722404 5007.6818682458252 5667.4042553286999 4068.4997881427407 2424.8956995932385 238.52407416142523 12.155902829021214 173.38200913742185 579.71104210615158 3189.0858305217698 4118.4700196008198 103.28788720164448 166.20703718531877 28071.765339693986 4289.599239833653 1107.3380471803248 5389.7149359071627 1034.2951098140329 2789.8678731862456 99.409088842570782 266.91357870120555 42584.751539157238 273.6402546428144 15853.234251836315 5790.7485281443223 177594.46434696764 886.27245601592585 1319.3632603934966
leaf_count=10448 118485 145837 14495 25393 26690 18155 25410 2431 201 2362 9918 41014 52777 1841 1972 139620 16285 3126 77516 5490 15179 1055 2941 211129 828 68158 26797 708589 9579 16279
internal_value=-2.19878e-14 -0.00365507 -0.00866533 0.000400867 -0.000171207 8.62247e-05 -0.00286016 -0.00321545 -0.00413643 -0.00670629 -0.00758082 -0.00233626 -0.00463333 -0.00515636 -0.0067647 0.000627442 0.00291791 0.00284059 -0.00721457 -0.00236739 -0.00014241 0.0151588 0.00595432 -0.000116942 0.00198692 -0.000311546 -0.000736443 0.000550912 -0.000491131 0.0022043
internal_weight=329258 32542.1 4455.99 296715 84177.5 75345.6 28086.1 25661.2 16542.5 6814.45 6374.16 9728.04 4333.32 4221.76 5794.45 212538 6871.8 5175.84 5628.24 8831.84 3824.16 111.565 440.296 70169.8 5941.04 64228.7 48375.5 205666 5394.72 2205.64
internal_count=1800000 524113 160332 1275887 400945 354883 363781 338371 219886 97140 91837 122746 55874 54618 81919 874942 26733 21281 79947 46062 20669 1256 5303 333602 27518 306084 237926 848209 66872 25858
is_linear=0
shrinkage=0.05


Tree=20
num_leaves=31
num_cat=0
split_feature=0 0 0 3 3 0 2 2 6 1 6 4 2 1 5 4 6 6 4 6 5 3 5 2 6 6 6 6 5 4
split_gain=162.224 30.712 29.0347 14.777 38.1239 36.8263 22.1597 14.9609 31.242 30.6972 26.0347 21.5553 21.9351 19.9808 19.4014 15.1921 13.6631 12.0517 35.893 34.9532 25.5065 24.8432 24.1378 23.1743 45.866 33.4523 42.236 30.9329 29.5341 30.2121
threshold=16.500000000000004 12.500000000000002 22.500000000000004 0.33991465250399328 0.36005915420316303 7.5000000000000009 0.46486203717150726 0.48273822899774982 0.60820914047052677 3.7500000000000004 0.5141707008760229 171.50000000000003 0.32467870405464977 4.1500000000000012 18.500000000000004 55.500000000000007 0.56796327010003511 0.44451110293508317 189.50000000000003 0.47916160717228579 10.500000000000002 0.96057829778097092 8.5000000000000018 0.65426780329782541 0.55305003790907781 0.5763613084134841 0.57068302058239839 0.49517630767371884 14.500000000000002 149.50000000000003
decision_type=2 2 2 2 2 2 2 2 2 2 2 2 2 2 2 2 2 2 2 2 2 2 2 2 2 2 2 2 2 2
left_child=1 3 -2 7 5 6 -5 8 10 -9 13 12 -10 15 -11 -1 -8 18 20 -19 -6 -22 -21 24 27 26 -26 -24 29 -27
right_child=2 -3 -4 4 17 -7 16 9 11 14 -12 -13 -14 -15 -16 -17 -18 19 -20 22 21 -23 23 -25 25 28 -28 -29 -30 -31
leaf_value=-0.010735251587701548 -0.0040418934291338174 -0.0010161220000634264 -0.010275440050703388 0.041971836831821881 0.00074145988803823483 -0.00034384572503426484 0.011971542555442095 0.0040605990719275393 0.020380526742426491 -0.01633910419158081 -0.0073691327865504745 -0.00092098661206974899 0.0049177014325524461 0.010947611548166557 -0.0043030684615418474 -0.00053093238789082148 -0.010339610116114614 -0.002259333322209249 -0.0060281196207999585 0.0025359887307074584 0.0042429606545901872 -0.0016293369221798736 0.0021652592715337127 0.00055612824450752428 0.0012232444181357459 0.0098328086392169781 0.021610342205277498 -0.0060691721609591508 0.0003111281091551563 -0.0091792877348887605
leaf_weight=396.59629281796515 14121.979737047106 41276.271938872756 2152.8200955949724 59.384629145264626 71274.677648542449 1042.5074589867145 1257.793836273253 616.62654236517847 269.58130944147706 578.0594041235745 1886.4174246583134 1475.1636678054929 1536.8887473456562 353.94909848086536 795.67517230194062 4541.4968512766063 72.578824408352375 13053.936441862956 1801.5562355667353 12557.623553637415 10164.585497235879 2188.9306464577094 1416.6233240813017 117111.39284173865 695.80175362341106 242.85725001618266 400.14335014112294 5851.1177746318281 17153.149373620749 1497.0574594214559
leaf_count=2233 289563 300453 91011 231 296403 2638 3943 2633 1027 2702 12031 5322 4876 1984 4728 15428 441 61208 8966 47228 39960 8769 4651 478090 3738 751 1612 31685 68086 7609
internal_value=1.42608e-11 0.0002542 -0.00486646 0.000448191 0.000529429 0.00675967 0.0120883 -0.00123421 -0.000478159 -0.00520757 -0.00232573 0.00356334 0.00722523 -0.000527942 -0.00936776 -0.00135048 0.0107544 0.000470099 0.000954571 0.000226609 0.001105 0.00320244 0.000433403 0.000250513 -0.00106259 0.000174158 0.00866683 -0.00446412 -0.000318483 -0.00652558
internal_weight=327843 311568 16274.8 270292 257842 2432.26 1389.76 12450.5 10460.1 1990.36 7178.46 3281.63 1806.47 5292.04 1373.73 4938.09 1330.37 255409 85429.8 169980 83628.2 12353.5 156926 144368 27256.8 19989 1095.95 7267.74 18893.1 1739.91
internal_count=1800000 1419426 380574 1118973 1066009 7253 4615 52964 42901 10063 31676 11225 5903 19645 7430 17661 4384 1058756 354098 704658 345132 48729 643450 596222 118132 81796 5350 36336 76446 8360
is_linear=0
shrinkage=0.05


Tree=21
num_leaves=31
num_cat=0
split_feature=0 0 0 0 1 4 3 2 3 4 3 1 5 5 4 4 6 6 2 1 1 6 4 4 6 5 3 6 6 2
split_gain=159.217 36.3086 21.1803 14.8461 10.7411 11.3161 11.6173 18.1078 9.9552 20.108 9.76353 11.2673 13.5774 11.9359 9.63646 14.3784 9.44873 9.06652 17.1056 13.8478 13.0609 15.6275 14.7094 16.359 12.3846 12.2885 10.2174 8.66916 14.0144 15.0303
threshold=15.500000000000002 20.500000000000004 12.500000000000002 27.500000000000004 3.2500000000000004 90.500000000000014 0.81693166788221716 0.84212394365418719 0.99886655699033866 183.50000000000003 0.83917305681943466 3.9500000000000006 20.500000000000004 12.500000000000002 91.500000000000014 93.500000000000014 0.71005739817721114 0.63213904909479923 0.96353981067614536 4.6500000000000012 4.0500000000000007 0.56796327010003511 152.50000000000003 121.50000000000001 0.59745241369341529 11.500000000000002 0.36005915420316303 0.43137920607179098 0.50937441988612131 0.51487582778198382
decision_type=2 2 2 2 2 2 2 2 2 2 2 2 2 2 2 2 2 2 2 2 2 2 2 2 2 2 2 2 2 2
left_child=2 17 8 -3 16 -6 7 27 -1 -10 11 -8 13 -13 -12 -16 -4 19 -19 20 21 -2 23 -22 -24 -21 -23 -7 29 -29
right_child=1 3 4 -5 5 6 10 -9 9 -11 14 12 -14 -15 15 -17 -18 18 -20 25 22 26 24 -25 -26 -27 -28 28 -30 -31
leaf_value=0.00041146790137799855 -0.0023177836677337276 -0.0073742209032464576 0.00094090947405600287 -0.018437090871283663 -0.0024558176115297083 0.0015203520538516003 0.0089254964322046746 -0.015226990588399568 0.0014146365770703329 0.011790370254792293 0.022581219287844422 0.0034852177504948005 0.0092049948847806231 -0.016058913232604853 -0.027004214730011022 6.9793714823956619e-05 0.012375091922784496 -0.0018166296948076846 0.017387629645643766 0.0033374683572564099 -0.0067764539829333493 0.012843514113099497 -0.002883183392177217 -0.016565407108016746 0.018291398153328597 -0.0063275029360768831 -0.0095641465349901277 0.0037613347307698906 -0.0013433078265762128 -0.011470764724064076
leaf_weight=266183.90605195519 6129.1296672169119 4018.365575412754 4196.3120621563867 328.01700316555798 11385.370122132124 1735.794256573543 699.86392066255212 250.35313829779625 2778.4840757083148 561.27986931800842 47.19836044870317 141.63006121106446 205.99561595544219 174.21214569918811 49.285256676375866 9834.448297701776 188.80639827437699 5248.6125619376544 118.57293015252799 1119.9066614690237 2131.8346502641216 53.243910571560264 526.39394680317491 533.63523057056591 79.481142716482282 465.61864447640255 1142.5625474350527 208.10919643007219 4266.2938969135284 730.21586901322007
leaf_count=1108797 100498 145837 27258 14495 82979 10941 3477 2312 9154 1022 308 838 1085 1456 482 62133 867 80474 1419 16785 39482 732 9200 10680 1123 8462 21130 1099 29159 6316
internal_value=3.62432e-12 -0.00411783 0.000296938 -0.00820912 -0.000876855 -0.0012176 -0.000449065 -0.00201612 0.000445506 0.00315838 0.000561306 0.00477922 -0.000781579 -0.00729493 4.24199e-05 -6.52109e-05 0.00143322 -0.00310454 -0.00139237 -0.0038589 -0.004511 -0.00333788 -0.00713775 -0.00873623 -0.000105416 0.000499172 -0.00856643 -0.00153958 -0.00256009 -0.00809247
internal_weight=325533 21895.4 303638 4346.38 34113.9 29728.8 18343.4 7190.77 269524 3339.76 11152.6 1221.7 521.838 315.842 9930.93 9883.73 4385.12 17549 5367.19 12181.8 10596.3 7324.94 3271.34 2665.47 605.875 1585.53 1195.81 6940.41 5204.62 938.325
internal_count=1800000 450317 1349683 160332 230710 202585 119606 49827 1118973 10176 69779 6856 3379 2294 62923 62615 28125 289985 81893 208092 182845 122360 60485 50162 10323 25247 21862 47515 36574 7415
is_linear=0
shrinkage=0.05


Tree=22
num_leaves=31
num_cat=0
split_feature=0 0 0 0 2 2 1 2 6 1 5 3 2 3 3 6 3 2 2 2 6 2 6 6 2 5 6 0 3 6
split_gain=135.978 25.4435 21.2453 12.9516 8.8086 16.6909 39.6338 38.5214 30.0443 19.8763 21.6689 19.1016 18.538 21.5532 18.3347 17.7238 17.5971 17.2706 16.5301 18.9604 15.3607 16.0409 15.0631 15.3499 14.7749 13.5507 31.3325 17.9902 10.9442 10.648
threshold=16.500000000000004 20.500000000000004 13.500000000000002 27.500000000000004 0.92065677459666484 0.87295674998957395 4.0500000000000007 0.87670156520149989 0.66493026984612824 4.1500000000000012 15.500000000000002 0.99977367497301872 0.87196755810508941 0.94236902424985169 0.90978953023749454 0.54636677305856185 0.8585775070758852 0.88439239797960068 0.88179884188463975 0.8854576329683943 0.60668504930207445 0.89420685464035854 0.45186139423769983 0.43957441820452908 0.87903913150650992 19.500000000000004 0.7861382866476746 1.5000000000000002 0.89944782735163853 0.79674362127721454
decision_type=2 2 2 2 2 2 2 2 2 2 2 2 2 2 2 2 2 2 2 2 2 2 2 2 2 2 2 2 2 2
left_child=2 -2 4 -3 5 11 7 -7 14 10 -8 12 29 -14 -9 22 -10 -17 -16 -20 21 -21 23 -11 -24 26 -6 -28 -18 -1
right_child=1 3 -4 -5 25 6 9 8 16 15 -12 -13 13 -15 18 17 28 -19 19 20 -22 -23 24 -25 -26 -27 27 -29 -30 -31
leaf_value=0.00019666209356493408 -0.0033139317198398995 -0.0070638031861414985 -0.0011250241110747066 -0.017596986371919365 -0.00060397917246310091 0.010682609662127078 -0.0078993194851007097 0.0035767601154053606 -0.0034716409763492491 0.0023163603696105032 0.0019842871003379644 0.0073608590758668145 -0.012019557999856633 -0.00098713657286372413 -0.0066536044146479796 0.0039098361145104669 0.013448108150428136 -0.0020586672730665743 0.006409116652955172 -0.0077227923881024174 -0.0073459229547960629 0.0010956998904597126 -0.0069927150627136754 -0.0056877447440917966 0.0079464126675179835 -0.0035170886535410375 0.022117436317578055 0.005085469225848716 0.0058073973979134892 0.0015947405563221104
leaf_weight=204391.99496571627 11423.577082722913 3937.1669928322081 26430.659195180982 315.20286706462502 18434.759839178994 1472.7868846841156 1624.8488610498607 5068.2727430742234 464.90638487040997 3122.4494724031538 841.89210995659232 947.30267149396241 649.36020471528172 1391.041763920337 886.75658424850553 1452.2121559549123 536.72397660464048 7328.6660385429859 1177.1381817497313 564.46509913541377 723.26612219400704 5966.7945791287348 185.04028125293553 741.16997246118262 1567.7982018534094 3353.6739323753864 180.54163127765059 1097.6553318593651 3695.540223646909 14591.299966222607
leaf_count=874803 220242 145837 221010 14495 90723 3871 11081 18226 1824 13121 3638 2385 3720 4819 5202 4604 1499 31174 2884 3166 4912 22886 1102 4294 6691 13301 456 2010 9204 56820
internal_value=3.08501e-12 -0.00454294 0.000230552 -0.00784457 0.000357398 0.000440663 0.0014175 0.00289135 0.00229006 -0.000379057 -0.00452607 0.000275983 0.000245618 -0.00449822 0.00115647 0.000331464 0.00576207 -0.00107158 -0.00015992 0.00052302 -0.000432073 0.00033356 0.002525 0.000780908 0.00636935 -0.000578939 -7.90851e-05 0.00749119 0.00677637 0.000289819
internal_weight=324565 15675.9 308889 4252.37 282458 259392 37420.7 20556.7 19083.9 16864.1 2466.74 221971 221024 2040.4 14386.7 14397.3 4697.17 8780.88 9318.42 8431.66 7254.53 6531.26 5616.46 3863.62 1752.84 23066.6 19713 1278.2 4232.26 218983
internal_count=1800000 380574 1419426 160332 1198416 1091926 149379 73674 69803 75705 14719 942547 940162 8539 57276 60986 12527 35778 39050 33848 30964 26052 25208 17415 7793 106490 93189 2466 10703 931623
is_linear=0
shrinkage=0.05


Tree=23
num_leaves=31
num_cat=0
split_feature=0 0 0 0 3 6 2 0 0 4 5 2 4 5 3 6 0 4 3 5 1 3 2 1 5 4 0 6 1 4
split_gain=125.7 23.6695 17.8713 10.5088 9.70236 9.48694 13.0368 11.9022 12.5246 11.7524 33.8826 16.7359 21.4656 17.2349 17.7919 13.3016 13.2666 12.8049 17.0157 13.9061 12.0965 11.7307 11.3851 10.282 11.4812 11.5952 10.2143 10.1635 11.2617 11.877
threshold=16.500000000000004 22.500000000000004 14.500000000000002 33.500000000000007 0.99566267340781889 0.7277704405568608 0.89632867363159319 8.5000000000000018 1.0000000180025095e-35 152.50000000000003 18.500000000000004 0.49701279010361737 185.50000000000003 21.500000000000004 0.78535690365440847 0.89811658960815721 3.5000000000000004 144.50000000000003 0.61602030749384207 19.500000000000004 3.7500000000000004 0.98673037140954589 0.46486203717150726 3.5500000000000003 21.500000000000004 118.50000000000001 7.5000000000000009 0.75689426786508762 4.3500000000000005 140.50000000000003
decision_type=2 2 2 2 2 2 2 2 2 2 2 2 2 2 2 2 2 2 2 2 2 2 2 2 2 2 2 2 2 2
left_child=2 -2 5 -3 -4 7 9 8 -1 10 -7 22 13 21 -15 16 -16 18 -12 -20 -19 -13 -11 26 -25 -26 -8 -21 29 -29
right_child=1 3 4 -5 -6 6 23 -9 -10 11 17 12 -14 14 15 -17 -18 20 19 27 -22 -23 -24 24 25 -27 -28 28 -30 -31
leaf_value=-0.00060534528703979718 -0.0036267704435588946 -0.0090196094467265443 -0.0017544086051142979 -0.046504027866255043 0.0047319868827822627 0.013987034925020368 0.011632839061676349 -0.00028391043235656468 0.00062575118577964397 0.00026150019574605431 -0.0059725877070798119 -0.0047824824217736232 0.0016864666385439375 -0.0031527172699820842 0.0085857524591423946 -0.0084458079838979957 0.0013513587689377201 -0.012045336302195004 -0.017374127155800539 -0.0016997970129371553 0.004514382762169783 0.00021410077706269208 0.0087560056813260605 0.0035887601552516157 0.0042438195510375049 -0.0047108588181866626 0.0019139412248628876 0.0065317213485953903 0.00094305291601932202 -0.0045413720504393759
leaf_weight=24307.012133451179 13390.019009279087 2061.3136235126294 13979.658323780168 18.869078354910016 601.31258382089436 536.08999148011208 626.77490254864097 87048.50439136778 137678.07662739418 743.63883625157177 948.22022121399641 4947.4888629931957 6737.9978768285364 2395.1960648726672 876.84311579540372 258.18902270402759 2285.540028128773 114.17411522753537 102.09019981324673 2436.2613609051332 3232.4058776386082 1540.4179399032146 840.06609950587153 3943.5341931488365 566.37283289432526 999.43184871226549 475.3861808590591 1870.3499502837658 6767.9491746015847 278.18048716522753
leaf_count=124978 289563 90363 138585 648 4954 1158 1678 422567 566167 4713 4484 27108 22302 14148 3169 2096 7276 795 836 8638 8514 6120 1826 11156 1656 5974 1339 4646 21266 1277
internal_value=-1.11294e-11 -0.00439763 0.000221504 -0.00935963 -0.00148691 0.000306652 0.000987735 0.000187622 0.000441016 0.000621492 0.00162553 -0.000171295 -0.000582045 -0.00182438 0.000152164 0.00246635 0.00335726 0.00120477 0.000464209 0.000997041 0.00394942 -0.00359615 0.00476736 0.00303242 0.00215049 -0.00147183 0.00744087 0.00116225 0.00194424 0.00509804
internal_weight=322607 15470.2 307137 2080.18 14581 292556 43522.6 249034 161985 36911.1 16285.7 20625.4 19041.7 12303.7 5815.77 3420.57 3162.38 15749.6 12403.1 11454.8 3346.58 6487.91 1583.7 6611.5 5509.34 1565.8 1102.16 11352.7 8916.48 2148.53
internal_count=1800000 380574 1419426 91011 143539 1275887 162175 1113712 691145 140372 51614 88758 82219 59917 26689 12541 10445 50456 41147 36663 9309 33228 6539 21803 18786 7630 3017 35827 27189 5923
is_linear=0
shrinkage=0.05


Tree=24
num_leaves=31
num_cat=0
split_feature=0 0 0 6 5 6 3 2 6 1 3 3 1 4 2 4 1 1 4 2 2 6 6 2 2 5 3 2 3 3
split_gain=114.183 22.749 18.3011 10.4888 16.6068 16.0385 14.2022 13.4727 12.8459 11.1248 14.9788 12.1981 13.0833 10.6969 10.3494 10.0805 9.72112 8.81157 8.6647 8.49965 9.34495 8.1435 16.2653 10.6696 17.6845 10.1412 16.0799 18.2586 21.055 15.5736
threshold=17.500000000000004 14.500000000000002 24.500000000000004 0.63213904909479923 11.500000000000002 0.38350904650084577 0.16576839857399786 0.76181147312080477 0.57289338988431504 4.2500000000000009 0.9446909855970248 0.95540590966125061 4.1500000000000012 103.50000000000001 0.91645846188562552 198.50000000000003 4.0500000000000007 3.8500000000000001 21.500000000000004 0.83780696128644006 0.8909401021145712 0.7277704405568608 0.73413053473765355 0.79148667383268334 0.87873766402520848 19.500000000000004 0.36005915420316303 0.79002225673298077 0.86193340400491958 0.83639310898021424
decision_type=2 2 2 2 2 2 2 2 2 2 2 2 2 2 2 2 2 2 2 2 2 2 2 2 2 2 2 2 2 2
left_child=1 21 -2 4 8 -6 -5 15 -3 10 16 14 -13 18 -12 -8 19 -15 -7 -9 -21 25 23 -23 -25 -1 -27 29 -29 -28
right_child=2 3 -4 6 5 13 7 9 -10 -11 11 12 -14 17 -16 -17 -18 -19 -20 20 -22 22 -24 24 -26 26 27 28 -30 -31
leaf_value=0.00030146205475211393 -0.0043218821706434664 -0.0014574480690568764 -0.011326680766939205 0.020394866049784861 0.0083970726590217853 -0.012638437160447748 -0.0026304051921182945 0.0087731810634351995 0.0072935508079423244 -0.00083831737228612791 0.03222059782742278 0.0028150564267117868 0.020627850496540482 -0.0060993306155039144 0.0016238804938209985 -0.03274663680124907 -0.0097917236149747556 -0.01449678402746153 -0.0029222542965269033 -0.0072327950431571491 0.0083239804839931562 0.0020941643538359453 0.00067021227225887115 0.015824237708962574 0.0029337301006203201 0.0026890328597272183 -0.0012516621618447535 0.003493769229595925 -0.00087819629636792069 -0.0048517759145707239
leaf_weight=215054.34972485038 10147.407510734862 7495.3353748209774 1026.8052836023271 85.896140564233065 220.47536968160421 250.64605541806668 2339.0583055587485 365.18734877649695 444.21588773094118 1773.3645011065528 99.802009860053658 423.43068214226514 136.25598223134875 874.69844075664878 38.222784793004394 28.119741395115852 176.50172051973641 485.93931130226701 2714.3136037839577 269.36492729466408 150.45130599383265 1598.8682506419718 40670.549668558873 469.61032188683748 613.872951682657 3269.0612358022481 11957.112012512982 3802.7463740017265 9984.1730160685256 4011.8834282560274
leaf_count=959202 268754 86123 47164 461 1975 3779 26489 3296 3883 17382 580 3741 606 11712 366 342 2066 7367 34504 2253 1270 5422 154029 1158 1566 11032 59113 13144 45419 25802
internal_value=-8.49885e-12 0.000179101 -0.00496556 -0.0015274 -0.00234767 -0.00475751 0.000212685 -8.62191e-05 -0.000967832 0.00191502 0.00485777 0.0104347 0.00715159 -0.005428 0.0237475 -0.00298816 0.000810907 -0.0090984 -0.00374362 0.00319482 -0.00165765 0.000286676 0.000918932 0.00469008 0.00852082 0.000176186 -0.000639593 -0.00100528 0.000327691 -0.00215612
internal_weight=320978 309804 11174.2 18371.3 12485.6 4546.07 5885.66 5799.76 7939.55 3432.58 1659.22 697.711 559.687 4325.6 138.025 2367.18 961.505 1360.64 2964.96 785.004 419.816 291432 43352.9 2682.35 1083.48 248079 33025 29755.9 13786.9 15969
internal_count=1800000 1484082 315918 208195 149343 59337 58852 58391 90006 31560 14178 5293 4347 57362 946 26831 8885 19079 38283 6819 3523 1275887 162175 8146 2724 1113712 154510 143478 58563 84915
is_linear=0
shrinkage=0.05


Tree=25
num_leaves=31
num_cat=0
split_feature=0 0 0 3 4 5 1 6 2 3 5 5 2 6 6 6 6 4 4 4 6 3 2 6 4 2 2 4 4 3
split_gain=102.748 17.8843 16.6979 9.40606 27.2259 9.36092 8.17995 12.287 9.46576 14.6006 13.5373 13.0692 10.3059 8.97573 17.7047 12.1703 16.7135 12.74 19.1698 13.3409 12.447 11.1115 9.56262 17.9677 20.1438 17.6089 29.8648 33.4613 17.1163 14.9219
threshold=17.500000000000004 11.500000000000002 24.500000000000004 0.99334606642222678 144.50000000000003 22.500000000000004 3.2500000000000004 0.15699650677747629 0.78645807862027406 0.81693166788221716 23.500000000000004 9.5000000000000018 0.79002225673298077 0.22893622943100625 0.24093332678046744 0.3028157931887791 0.29909995249648136 58.500000000000007 59.500000000000007 37.500000000000007 0.29332942417658853 0.63268821290960309 0.76534801116674955 0.51556984943208328 121.50000000000001 0.91645846188562552 0.89854991226778547 96.500000000000014 146.50000000000003 0.74795423616574586
decision_type=2 2 2 2 2 2 2 2 2 2 2 2 2 2 2 2 2 2 2 2 2 2 2 2 2 2 2 2 2 2
left_child=1 -1 -2 6 -5 -6 8 -8 9 10 -3 -10 -13 -9 -15 16 17 19 -19 -16 21 -21 -17 24 29 26 -25 -28 -26 -24
right_child=2 3 -4 4 5 -7 7 13 11 -11 -12 12 -14 14 15 22 -18 18 -20 20 -22 -23 23 25 28 -27 27 -29 -30 -31
leaf_value=0.00035357225650578072 -0.0041370456168718511 0.00087755813433185073 -0.010898205405914787 -0.0037452034853126983 0.0059355671458676644 -0.012553836217843631 -0.013987935449407555 0.0036799943700452434 -0.0063028101018179662 0.006696886762211399 -0.0219058223687498 -0.017149507045042388 0.0012782745219604051 -0.0091683534830582138 0.0018889519379473873 -0.0019770895813700884 0.01255276665682986 0.028539964762574484 0.0032142075462012784 0.010034587958818515 0.0042197682033704711 -0.012728661905834779 0.022994842778744837 0.0003738414605860943 -0.010380017971618138 -0.0033821008418735013 -0.0069605438676959815 0.011964737754991094 -0.0020713199541716808 -0.00096706938997150787
leaf_weight=250026.92085637851 9956.3517882693559 2942.9523917362094 1005.3991683979984 1328.4530647238716 2109.2259093588218 70.752512431703508 181.82622748427093 1017.6007203711197 926.25681321322918 1309.9136311411858 66.675288580358028 78.412219738587737 2341.5305763827637 664.75438165012747 1070.096971376799 19854.027416845318 336.42613875772804 80.861351545900106 983.67759054712951 59.753946980461478 194.67511918116361 521.38435541652143 65.882868839427829 11778.066312523559 1230.0154906772077 2492.3575759585947 294.57906913710758 1127.5401871828362 1249.5163316391408 4696.236129241297
leaf_count=1038362 268754 19880 47164 11574 10013 724 1807 8452 8102 8865 650 1112 13954 5902 7149 160451 2213 452 7578 435 1357 4430 461 80934 12205 19393 2873 4625 11127 39002
internal_value=6.66329e-12 0.000168705 -0.00475717 -0.000613739 0.00189712 0.00533548 -0.000772277 -0.00101497 0.000744187 0.00229061 0.000372815 -0.00125206 0.000681168 -0.000965536 -0.00106676 -0.000949775 0.00200147 0.000781821 0.00513793 -0.00173035 -0.00672254 -0.0103881 -0.00117372 -0.000478252 -0.00253842 0.000472455 0.00120024 0.00804454 -0.006193 -0.000635562
internal_weight=320062 309100 10961.8 59073.5 3508.43 2179.98 55565 47899.3 7665.74 4319.54 3009.63 3346.2 2419.94 47717.5 46699.9 46035.1 3246.88 2910.45 1064.54 1845.91 775.813 581.138 42788.2 22934.2 7241.65 15692.5 13200.2 1422.12 2479.53 4762.12
internal_count=1800000 1484082 315918 445720 22311 10737 423409 370846 52563 29395 20530 23168 15066 369039 360587 354685 23614 21401 8030 13371 6222 4865 331071 170620 62795 107825 88432 7498 23332 39463
is_linear=0
shrinkage=0.05


Tree=26
num_leaves=31
num_cat=0
split_feature=0 0 0 1 6 2 2 2 2 2 6 2 4 4 4 6 6 1 2 1 3 1 3 4 3 2 0 6 3 5
split_gain=93.9155 17.4876 13.112 8.67545 16.6943 12.2501 12.548 18.6222 15.4699 22.6376 19.3467 13.6149 11.9802 11.0294 9.65009 8.64838 42.3858 34.5061 25.9897 17.0501 30.4267 18.5288 16.145 15.9018 15.6849 13.1302 13.0655 12.5785 11.3529 22.0268
threshold=18.500000000000004 14.500000000000002 27.500000000000004 3.1500000000000008 0.13758743519568956 0.42477925089516549 0.76860925864129559 0.71495845058413998 0.870878918240793 0.87196755810508941 0.16721826648622698 0.6472656177327355 178.50000000000003 98.500000000000014 117.50000000000001 0.32166362335703008 0.32699241469689305 4.5500000000000007 0.65978350384164064 3.8500000000000001 0.52618681996475691 3.9500000000000006 0.77943771282646435 13.500000000000002 0.63268821290960309 0.83112741087332997 10.500000000000002 0.15699650677747629 0.9924127364395684 5.5000000000000009
decision_type=2 2 2 2 2 2 2 2 2 2 2 2 2 2 2 2 2 2 2 2 2 2 2 2 2 2 2 2 2 2
left_child=1 3 -2 5 -5 12 7 11 10 -10 -8 14 -1 -12 -7 17 -17 18 19 20 -6 -21 -19 -18 -23 -24 -27 -20 -25 -30
right_child=2 -3 -4 4 15 6 8 -9 9 -11 13 -13 -14 -15 -16 16 23 22 27 21 -22 24 25 28 -26 26 -28 -29 29 -31
leaf_value=-0.0014529870329596309 -0.005007785342308179 -0.0012488339084426826 -0.015868502278310492 -0.015384875715232874 0.0008991275986386006 0.0047573281381275033 0.0072232255147150429 0.0067088872887790937 0.023602147584839774 0.0019142972464775553 -0.0041205475817874754 -0.0022498405965659342 -0.014804990844260735 -6.8229471051571366e-05 0.0006830099989881402 -0.0080079915962679802 -0.0049984819073674528 0.0098962109998485884 -0.0086920759671921099 -0.011598166971890487 0.0077410212091559849 0.0035347218047209385 -3.3693093839207086e-05 5.5335402085695805e-05 -0.0036781476743236599 0.009177758325862883 -0.0040455269717031526 -0.00047049918603934412 -0.0062096563967174549 0.0020560682166302804
leaf_weight=837.42886394262314 7542.5585192560684 21239.91962119611 288.5339605291374 172.69587815180421 3676.2176603954285 2916.4866448286921 636.06019918620586 2271.8189880736172 123.15876423195004 5219.4685907159001 3059.7941137161106 1799.5488095954061 210.16343439370394 3721.2711889659986 2896.8659781422466 1618.9254581145942 1512.7584106351715 1270.5902142617851 475.76333854906261 333.49181671626866 2912.2155939619988 1978.5597406476736 1524.122874673456 213659.44118488021 1217.5111526381224 1053.8805425316095 227.04986678063869 20992.887722399086 859.82862877380103 12871.799072219059
leaf_count=3907 243008 266610 14495 1339 15004 10757 2596 6350 413 20131 16680 8035 1301 14109 13128 8865 11202 3914 2600 2534 11277 7645 5230 941618 6405 2867 950 100004 6242 50784
internal_value=-8.8254e-12 0.000136047 -0.00540794 0.00023746 0.000155905 0.00115434 0.00139888 0.00273614 0.000362931 0.00241425 -0.00111465 0.0015506 -0.00413161 -0.00189674 0.00272704 0.000165988 5.38912e-05 0.000890587 0.000331912 0.00242108 0.00392338 -0.00038317 0.00522038 0.000110909 0.000787052 0.00310239 0.00683388 -0.000652696 0.0001449 0.0015385
internal_weight=319121 311290 7831.09 290050 266358 23692.1 22644.5 9884.72 12759.8 5342.63 7417.13 7612.9 1047.59 6781.07 5813.35 266185 230523 35662.3 31586.6 10118 6588.43 3529.56 4075.64 228904 3196.07 2805.05 1280.93 21468.7 227391 13731.6
internal_count=1800000 1542497 257503 1275887 1178480 97407 92199 38270 53929 20544 33385 31920 5208 30789 23885 1177141 1018711 158430 145469 42865 26281 16584 12961 1009846 14050 9047 3817 102604 998644 57026
is_linear=0
shrinkage=0.05


Tree=27
num_leaves=31
num_cat=0
split_feature=0 0 0 0 2 5 2 2 4 6 5 6 6 3 5 1 1 2 3 3 3 3 4 6 4 4 6 1 3 6
split_gain=90.7334 16.0311 14.2913 7.13666 8.0923 13.2721 12.2422 13.3265 14.4706 13.5735 16.8286 16.0668 13.2204 12.2827 11.026 10.5765 10.4709 10.489 9.99287 9.25714 13.8667 15.0456 8.97018 9.73771 8.95995 7.87363 7.85895 16.6914 14.1012 20.4239
threshold=17.500000000000004 12.500000000000002 24.500000000000004 1.0000000180025095e-35 0.71430671098636378 8.5000000000000018 0.81944860253708984 0.79148667383268334 99.500000000000014 0.50592988879304601 4.5000000000000009 0.51205564121165925 0.61924971611861113 0.98958940479482738 9.5000000000000018 4.5500000000000007 3.3500000000000001 0.81415902676744856 0.71137381638476127 0.8585775070758852 0.92791303202943032 0.93038746492969204 85.500000000000014 0.51556984943208328 96.500000000000014 35.500000000000007 0.24093332678046744 4.1500000000000012 0.55383794686673971 0.22893622943100625
decision_type=2 2 2 2 2 2 2 2 2 2 2 2 2 2 2 2 2 2 2 2 2 2 2 2 2 2 2 2 2 2
left_child=1 3 -2 4 5 22 7 9 24 10 -6 -11 -8 15 25 -13 17 -10 -18 -14 -21 -22 -1 -24 -9 -7 27 28 -5 -30
right_child=2 -3 -4 26 6 14 12 8 16 11 -12 13 19 -15 -16 -17 18 -19 -20 20 21 -23 23 -25 -26 -27 -28 -29 29 -31
leaf_value=-0.0025063034941818878 -0.0039445756048559644 -0.00074557280361030234 -0.010275558612780749 0.0028006257043143002 -0.0025134812198169174 -0.035858745884935442 -0.0023713284476332488 0.0076540172837838002 -0.0046685752597792132 -0.018433224415615627 0.006058022124402658 0.00019972223917529138 -0.0041365536532492805 0.019559606344108815 -0.0024195794107746966 -0.006753896457891418 0.02307415029044357 -0.038095288463233186 0.0017407874297037493 0.0065801409785056584 -0.040879603469236289 0.00036233337538509036 0.0038987522988780071 -0.0082602874480146825 0.025561812090253874 -0.009224372574483667 0.00046292254263213437 -0.0083736680262148974 -4.344191985964661e-05 -0.0055050989970212788
leaf_weight=1200.2562555633485 9723.8104314638767 42336.824705766514 981.35615461785346 2742.9382328167558 896.60396065562963 30.378817662596703 6386.7176244426519 1061.2492986135185 114.48772125132382 142.69645146094263 1584.7713050208986 1938.1273299697787 663.5196173992008 69.276785850524902 6213.1735633099452 761.77798860520124 57.487143281847239 29.51959958858788 1216.1227944893762 1224.9805105235428 22.340864013880491 2180.3827144745737 1977.488197395578 179.62064644880593 74.770392209291458 320.40238940156996 222901.96575914323 687.29704857617617 7759.6350941602141 2196.1631043571979
leaf_count=5929 268754 365109 47164 9688 4535 137 35352 4951 506 1000 7244 10427 2889 296 33634 4013 213 410 5565 4763 132 9618 8962 1113 292 1923 918984 3987 31494 10916
